<?xml version="1.0"?>
<MethodSetup Method="BDT::BDT_Depth5_Trees200">
  <GeneralInfo>
    <Info name="TMVA Release" value="4.2.1 [262657]"/>
    <Info name="ROOT Release" value="6.32/08 [401416]"/>
    <Info name="Creator" value="jlai"/>
    <Info name="Date" value="Fri Apr 11 14:52:56 2025"/>
    <Info name="Host" value="Linux alma9-docker 4.18.0-553.el8_10.x86_64 #1 SMP Fri May 24 08:32:12 EDT 2024 x86_64 x86_64 x86_64 GNU/Linux"/>
    <Info name="Dir" value="/data/jlai/dark_photon/code2"/>
    <Info name="Training events" value="35368"/>
    <Info name="TrainingTime" value="3.67465305e+00"/>
    <Info name="AnalysisType" value="Classification"/>
  </GeneralInfo>
  <Options>
    <Option name="V" modified="Yes">False</Option>
    <Option name="VerbosityLevel" modified="No">Default</Option>
    <Option name="VarTransform" modified="No">None</Option>
    <Option name="H" modified="Yes">False</Option>
    <Option name="CreateMVAPdfs" modified="No">False</Option>
    <Option name="IgnoreNegWeightsInTraining" modified="No">False</Option>
    <Option name="NTrees" modified="Yes">200</Option>
    <Option name="MaxDepth" modified="Yes">5</Option>
    <Option name="MinNodeSize" modified="No">5%</Option>
    <Option name="nCuts" modified="Yes">20</Option>
    <Option name="BoostType" modified="Yes">AdaBoost</Option>
    <Option name="AdaBoostR2Loss" modified="No">quadratic</Option>
    <Option name="UseBaggedBoost" modified="Yes">True</Option>
    <Option name="Shrinkage" modified="No">1.000000e+00</Option>
    <Option name="AdaBoostBeta" modified="Yes">5.000000e-01</Option>
    <Option name="UseRandomisedTrees" modified="No">False</Option>
    <Option name="UseNvars" modified="No">4</Option>
    <Option name="UsePoissonNvars" modified="No">True</Option>
    <Option name="BaggedSampleFraction" modified="Yes">5.000000e-01</Option>
    <Option name="UseYesNoLeaf" modified="No">True</Option>
    <Option name="NegWeightTreatment" modified="No">inverseboostnegweights</Option>
    <Option name="Css" modified="No">1.000000e+00</Option>
    <Option name="Cts_sb" modified="No">1.000000e+00</Option>
    <Option name="Ctb_ss" modified="No">1.000000e+00</Option>
    <Option name="Cbb" modified="No">1.000000e+00</Option>
    <Option name="NodePurityLimit" modified="No">5.000000e-01</Option>
    <Option name="SeparationType" modified="Yes">giniindex</Option>
    <Option name="RegressionLossFunctionBDTG" modified="No">huber</Option>
    <Option name="HuberQuantile" modified="No">7.000000e-01</Option>
    <Option name="DoBoostMonitor" modified="No">False</Option>
    <Option name="UseFisherCuts" modified="No">False</Option>
    <Option name="MinLinCorrForFisher" modified="No">8.000000e-01</Option>
    <Option name="UseExclusiveVars" modified="No">False</Option>
    <Option name="DoPreselection" modified="No">False</Option>
    <Option name="SigToBkgFraction" modified="No">1.000000e+00</Option>
    <Option name="PruneMethod" modified="No">nopruning</Option>
    <Option name="PruneStrength" modified="No">0.000000e+00</Option>
    <Option name="PruningValFraction" modified="No">5.000000e-01</Option>
    <Option name="SkipNormalization" modified="No">False</Option>
    <Option name="nEventsMin" modified="No">0</Option>
    <Option name="UseBaggedGrad" modified="No">False</Option>
    <Option name="GradBaggingFraction" modified="No">5.000000e-01</Option>
    <Option name="UseNTrainEvents" modified="No">0</Option>
    <Option name="NNodesMax" modified="No">0</Option>
  </Options>
  <Variables NVar="15">
    <Variable VarIndex="0" Expression="metsig" Label="metsig" Title="metsig" Unit="" Internal="metsig" Type="F" Min="7.00026274e+00" Max="1.89987015e+02"/>
    <Variable VarIndex="1" Expression="metsigres" Label="metsigres" Title="metsigres" Unit="" Internal="metsigres" Type="F" Min="4.53302800e-06" Max="1.09372500e-04"/>
    <Variable VarIndex="2" Expression="met" Label="met" Title="met" Unit="" Internal="met" Type="F" Min="1.00010422e+05" Max="2.68783400e+07"/>
    <Variable VarIndex="3" Expression="met_noJVT" Label="met_noJVT" Title="met_noJVT" Unit="" Internal="met_noJVT" Type="F" Min="8.25701484e+04" Max="2.68783400e+07"/>
    <Variable VarIndex="4" Expression="dmet" Label="dmet" Title="dmet" Unit="" Internal="dmet" Type="F" Min="-1.99997969e+04" Max="4.90884688e+04"/>
    <Variable VarIndex="5" Expression="ph_pt" Label="ph_pt" Title="ph_pt" Unit="" Internal="ph_pt" Type="F" Min="2.58039023e-07" Max="1.99986334e-05"/>
    <Variable VarIndex="6" Expression="dphi_met_phterm" Label="dphi_met_phterm" Title="dphi_met_phterm" Unit="" Internal="dphi_met_phterm" Type="F" Min="1.35005057e+00" Max="3.08013415e+00"/>
    <Variable VarIndex="7" Expression="dphi_met_jetterm" Label="dphi_met_jetterm" Title="dphi_met_jetterm" Unit="" Internal="dphi_met_jetterm" Type="F" Min="-9.99000000e+02" Max="1.23723869e+02"/>
    <Variable VarIndex="8" Expression="dphi_phterm_jetterm" Label="dphi_phterm_jetterm" Title="dphi_phterm_jetterm" Unit="" Internal="dphi_phterm_jetterm" Type="F" Min="-9.99000000e+02" Max="3.14159274e+00"/>
    <Variable VarIndex="9" Expression="dphi_ph_centraljet1" Label="dphi_ph_centraljet1" Title="dphi_ph_centraljet1" Unit="" Internal="dphi_ph_centraljet1" Type="F" Min="-9.99000000e+02" Max="3.14143443e+00"/>
    <Variable VarIndex="10" Expression="failJVT_jet_pt1" Label="failJVT_jet_pt1" Title="failJVT_jet_pt1" Unit="" Internal="failJVT_jet_pt1" Type="F" Min="-9.99000000e+02" Max="4.99972593e-05"/>
    <Variable VarIndex="11" Expression="jetterm" Label="jetterm" Title="jetterm" Unit="" Internal="jetterm" Type="F" Min="0.00000000e+00" Max="4.38349900e+06"/>
    <Variable VarIndex="12" Expression="n_jet_central" Label="n_jet_central" Title="n_jet_central" Unit="" Internal="n_jet_central" Type="F" Min="-9.99000000e+02" Max="1.00000000e+00"/>
    <Variable VarIndex="13" Expression="dphi_met_central_jet" Label="dphi_met_central_jet" Title="dphi_met_central_jet" Unit="" Internal="dphi_met_central_jet" Type="F" Min="-9.99000000e+02" Max="3.14155865e+00"/>
    <Variable VarIndex="14" Expression="dphi_jj" Label="dphi_jj" Title="dphi_jj" Unit="" Internal="dphi_jj" Type="F" Min="-9.99000000e+02" Max="3.91762188e+04"/>
  </Variables>
  <Spectators NSpec="0"/>
  <Classes NClass="2">
    <Class Name="Signal" Index="0"/>
    <Class Name="Background" Index="1"/>
  </Classes>
  <Transformations NTransformations="0"/>
  <MVAPdfs/>
  <Weights NTrees="200" AnalysisType="0">
    <BinaryTree type="DecisionTree" boostWeight="1.9581315144311578e-01" itree="0">
      <Node pos="s" depth="0" NCoef="0" IVar="0" Cut="1.2471157073974609e+01" cType="1" res="-9.9000000000000000e+01" rms="0.0000000000000000e+00" purity="5.1165211200714111e-01" nType="0">
        <Node pos="l" depth="1" NCoef="0" IVar="8" Cut="2.1230258941650391e+00" cType="0" res="-9.9000000000000000e+01" rms="0.0000000000000000e+00" purity="5.3773456811904907e-01" nType="0">
          <Node pos="l" depth="2" NCoef="0" IVar="10" Cut="-9.5142858886718750e+02" cType="1" res="-9.9000000000000000e+01" rms="0.0000000000000000e+00" purity="5.7051801681518555e-01" nType="0">
            <Node pos="l" depth="3" NCoef="0" IVar="-1" Cut="1.0127023696899414e+01" cType="0" res="-9.9000000000000000e+01" rms="0.0000000000000000e+00" purity="5.9967368841171265e-01" nType="1"/>
            <Node pos="r" depth="3" NCoef="0" IVar="-1" Cut="0.0000000000000000e+00" cType="1" res="-9.9000000000000000e+01" rms="0.0000000000000000e+00" purity="4.6326300501823425e-01" nType="-1"/>
          </Node>
          <Node pos="r" depth="2" NCoef="0" IVar="5" Cut="1.4149601156532299e-05" cType="0" res="-9.9000000000000000e+01" rms="0.0000000000000000e+00" purity="4.4186902046203613e-01" nType="0">
            <Node pos="l" depth="3" NCoef="0" IVar="-1" Cut="0.0000000000000000e+00" cType="1" res="-9.9000000000000000e+01" rms="0.0000000000000000e+00" purity="5.1084375381469727e-01" nType="1"/>
            <Node pos="r" depth="3" NCoef="0" IVar="-1" Cut="0.0000000000000000e+00" cType="1" res="-9.9000000000000000e+01" rms="0.0000000000000000e+00" purity="2.3636989295482635e-01" nType="-1"/>
          </Node>
        </Node>
        <Node pos="r" depth="1" NCoef="0" IVar="6" Cut="2.0084345340728760e+00" cType="0" res="-9.9000000000000000e+01" rms="0.0000000000000000e+00" purity="3.0869191884994507e-01" nType="0">
          <Node pos="l" depth="2" NCoef="0" IVar="-1" Cut="0.0000000000000000e+00" cType="1" res="-9.9000000000000000e+01" rms="0.0000000000000000e+00" purity="5.0995725393295288e-01" nType="1"/>
          <Node pos="r" depth="2" NCoef="0" IVar="-1" Cut="0.0000000000000000e+00" cType="1" res="-9.9000000000000000e+01" rms="0.0000000000000000e+00" purity="9.7189366817474365e-02" nType="-1"/>
        </Node>
      </Node>
    </BinaryTree>
    <BinaryTree type="DecisionTree" boostWeight="2.4933897983272807e-01" itree="1">
      <Node pos="s" depth="0" NCoef="0" IVar="6" Cut="2.0875744819641113e+00" cType="0" res="-9.9000000000000000e+01" rms="0.0000000000000000e+00" purity="4.7511991858482361e-01" nType="0">
        <Node pos="l" depth="1" NCoef="0" IVar="1" Cut="6.1742524849250913e-05" cType="1" res="-9.9000000000000000e+01" rms="0.0000000000000000e+00" purity="5.6540888547897339e-01" nType="0">
          <Node pos="l" depth="2" NCoef="0" IVar="1" Cut="4.5720025809714571e-05" cType="0" res="-9.9000000000000000e+01" rms="0.0000000000000000e+00" purity="6.0354739427566528e-01" nType="0">
            <Node pos="l" depth="3" NCoef="0" IVar="-1" Cut="2.7966935634613037e+00" cType="0" res="-9.9000000000000000e+01" rms="0.0000000000000000e+00" purity="6.4846330881118774e-01" nType="1"/>
            <Node pos="r" depth="3" NCoef="0" IVar="-1" Cut="0.0000000000000000e+00" cType="1" res="-9.9000000000000000e+01" rms="0.0000000000000000e+00" purity="4.9395206570625305e-01" nType="-1"/>
          </Node>
          <Node pos="r" depth="2" NCoef="0" IVar="-1" Cut="0.0000000000000000e+00" cType="1" res="-9.9000000000000000e+01" rms="0.0000000000000000e+00" purity="4.7998818755149841e-01" nType="-1"/>
        </Node>
        <Node pos="r" depth="1" NCoef="0" IVar="1" Cut="6.0069301980547607e-05" cType="0" res="-9.9000000000000000e+01" rms="0.0000000000000000e+00" purity="4.3395948410034180e-01" nType="0">
          <Node pos="l" depth="2" NCoef="0" IVar="0" Cut="1.0456640243530273e+01" cType="1" res="-9.9000000000000000e+01" rms="0.0000000000000000e+00" purity="4.9756592512130737e-01" nType="0">
            <Node pos="l" depth="3" NCoef="0" IVar="0" Cut="8.9795236587524414e+00" cType="0" res="-9.9000000000000000e+01" rms="0.0000000000000000e+00" purity="5.5514037609100342e-01" nType="0">
              <Node pos="l" depth="4" NCoef="0" IVar="-1" Cut="0.0000000000000000e+00" cType="1" res="-9.9000000000000000e+01" rms="0.0000000000000000e+00" purity="6.3101941347122192e-01" nType="1"/>
              <Node pos="r" depth="4" NCoef="0" IVar="-1" Cut="0.0000000000000000e+00" cType="1" res="-9.9000000000000000e+01" rms="0.0000000000000000e+00" purity="4.8049759864807129e-01" nType="-1"/>
            </Node>
            <Node pos="r" depth="3" NCoef="0" IVar="-1" Cut="1.3953400411992334e-05" cType="0" res="-9.9000000000000000e+01" rms="0.0000000000000000e+00" purity="2.9821053147315979e-01" nType="-1"/>
          </Node>
          <Node pos="r" depth="2" NCoef="0" IVar="-1" Cut="1.8768429756164551e+00" cType="0" res="-9.9000000000000000e+01" rms="0.0000000000000000e+00" purity="2.4696186184883118e-01" nType="-1"/>
        </Node>
      </Node>
    </BinaryTree>
    <BinaryTree type="DecisionTree" boostWeight="2.5362368077834413e-01" itree="2">
      <Node pos="s" depth="0" NCoef="0" IVar="8" Cut="2.3007490634918213e+00" cType="0" res="-9.9000000000000000e+01" rms="0.0000000000000000e+00" purity="4.9506920576095581e-01" nType="0">
        <Node pos="l" depth="1" NCoef="0" IVar="6" Cut="2.2302367687225342e+00" cType="0" res="-9.9000000000000000e+01" rms="0.0000000000000000e+00" purity="5.6720864772796631e-01" nType="0">
          <Node pos="l" depth="2" NCoef="0" IVar="-1" Cut="-9.5142858886718750e+02" cType="0" res="-9.9000000000000000e+01" rms="0.0000000000000000e+00" purity="6.1363404989242554e-01" nType="1"/>
          <Node pos="r" depth="2" NCoef="0" IVar="7" Cut="1.9524379968643188e+00" cType="0" res="-9.9000000000000000e+01" rms="0.0000000000000000e+00" purity="5.3465735912322998e-01" nType="0">
            <Node pos="l" depth="3" NCoef="0" IVar="1" Cut="6.1042512243147939e-05" cType="0" res="-9.9000000000000000e+01" rms="0.0000000000000000e+00" purity="5.7630717754364014e-01" nType="0">
              <Node pos="l" depth="4" NCoef="0" IVar="-1" Cut="0.0000000000000000e+00" cType="1" res="-9.9000000000000000e+01" rms="0.0000000000000000e+00" purity="6.1983335018157959e-01" nType="1"/>
              <Node pos="r" depth="4" NCoef="0" IVar="-1" Cut="0.0000000000000000e+00" cType="1" res="-9.9000000000000000e+01" rms="0.0000000000000000e+00" purity="4.9356231093406677e-01" nType="-1"/>
            </Node>
            <Node pos="r" depth="3" NCoef="0" IVar="-1" Cut="0.0000000000000000e+00" cType="1" res="-9.9000000000000000e+01" rms="0.0000000000000000e+00" purity="4.3914768099784851e-01" nType="-1"/>
          </Node>
        </Node>
        <Node pos="r" depth="1" NCoef="0" IVar="1" Cut="5.8327750593889505e-05" cType="0" res="-9.9000000000000000e+01" rms="0.0000000000000000e+00" purity="4.1379430890083313e-01" nType="0">
          <Node pos="l" depth="2" NCoef="0" IVar="5" Cut="1.2262152267794590e-05" cType="0" res="-9.9000000000000000e+01" rms="0.0000000000000000e+00" purity="4.9037227034568787e-01" nType="0">
            <Node pos="l" depth="3" NCoef="0" IVar="11" Cut="1.5258414062500000e+05" cType="1" res="-9.9000000000000000e+01" rms="0.0000000000000000e+00" purity="5.3489017486572266e-01" nType="0">
              <Node pos="l" depth="4" NCoef="0" IVar="-1" Cut="0.0000000000000000e+00" cType="1" res="-9.9000000000000000e+01" rms="0.0000000000000000e+00" purity="5.9490126371383667e-01" nType="1"/>
              <Node pos="r" depth="4" NCoef="0" IVar="-1" Cut="0.0000000000000000e+00" cType="1" res="-9.9000000000000000e+01" rms="0.0000000000000000e+00" purity="4.2536890506744385e-01" nType="-1"/>
            </Node>
            <Node pos="r" depth="3" NCoef="0" IVar="-1" Cut="0.0000000000000000e+00" cType="1" res="-9.9000000000000000e+01" rms="0.0000000000000000e+00" purity="2.6013630628585815e-01" nType="-1"/>
          </Node>
          <Node pos="r" depth="2" NCoef="0" IVar="-1" Cut="1.6381682144128717e-05" cType="0" res="-9.9000000000000000e+01" rms="0.0000000000000000e+00" purity="2.0057910680770874e-01" nType="-1"/>
        </Node>
      </Node>
    </BinaryTree>
    <BinaryTree type="DecisionTree" boostWeight="2.1256503405696120e-01" itree="3">
      <Node pos="s" depth="0" NCoef="0" IVar="0" Cut="1.2472007751464844e+01" cType="1" res="-9.9000000000000000e+01" rms="0.0000000000000000e+00" purity="4.5614174008369446e-01" nType="0">
        <Node pos="l" depth="1" NCoef="0" IVar="8" Cut="2.3543741703033447e+00" cType="0" res="-9.9000000000000000e+01" rms="0.0000000000000000e+00" purity="4.7636061906814575e-01" nType="0">
          <Node pos="l" depth="2" NCoef="0" IVar="5" Cut="9.6447920441278256e-06" cType="0" res="-9.9000000000000000e+01" rms="0.0000000000000000e+00" purity="5.3966176509857178e-01" nType="0">
            <Node pos="l" depth="3" NCoef="0" IVar="-1" Cut="0.0000000000000000e+00" cType="1" res="-9.9000000000000000e+01" rms="0.0000000000000000e+00" purity="5.8922189474105835e-01" nType="1"/>
            <Node pos="r" depth="3" NCoef="0" IVar="7" Cut="2.6419832706451416e+00" cType="0" res="-9.9000000000000000e+01" rms="0.0000000000000000e+00" purity="4.9607494473457336e-01" nType="0">
              <Node pos="l" depth="4" NCoef="0" IVar="-1" Cut="0.0000000000000000e+00" cType="1" res="-9.9000000000000000e+01" rms="0.0000000000000000e+00" purity="5.7252287864685059e-01" nType="1"/>
              <Node pos="r" depth="4" NCoef="0" IVar="-1" Cut="1.8896341323852539e+00" cType="1" res="-9.9000000000000000e+01" rms="0.0000000000000000e+00" purity="4.4137695431709290e-01" nType="-1"/>
            </Node>
          </Node>
          <Node pos="r" depth="2" NCoef="0" IVar="1" Cut="5.7720066251931712e-05" cType="0" res="-9.9000000000000000e+01" rms="0.0000000000000000e+00" purity="4.2340248823165894e-01" nType="0">
            <Node pos="l" depth="3" NCoef="0" IVar="5" Cut="1.4438437574426644e-05" cType="0" res="-9.9000000000000000e+01" rms="0.0000000000000000e+00" purity="4.7600293159484863e-01" nType="0">
              <Node pos="l" depth="4" NCoef="0" IVar="0" Cut="9.8729391098022461e+00" cType="0" res="-9.9000000000000000e+01" rms="0.0000000000000000e+00" purity="5.2199572324752808e-01" nType="0">
                <Node pos="l" depth="5" NCoef="0" IVar="-1" Cut="0.0000000000000000e+00" cType="1" res="-9.9000000000000000e+01" rms="0.0000000000000000e+00" purity="5.9012603759765625e-01" nType="1"/>
                <Node pos="r" depth="5" NCoef="0" IVar="-1" Cut="0.0000000000000000e+00" cType="1" res="-9.9000000000000000e+01" rms="0.0000000000000000e+00" purity="4.8963269591331482e-01" nType="-1"/>
              </Node>
              <Node pos="r" depth="4" NCoef="0" IVar="-1" Cut="0.0000000000000000e+00" cType="1" res="-9.9000000000000000e+01" rms="0.0000000000000000e+00" purity="4.0515568852424622e-01" nType="-1"/>
            </Node>
            <Node pos="r" depth="3" NCoef="0" IVar="-1" Cut="0.0000000000000000e+00" cType="1" res="-9.9000000000000000e+01" rms="0.0000000000000000e+00" purity="2.4217680096626282e-01" nType="-1"/>
          </Node>
        </Node>
        <Node pos="r" depth="1" NCoef="0" IVar="-1" Cut="0.0000000000000000e+00" cType="1" res="-9.9000000000000000e+01" rms="0.0000000000000000e+00" purity="2.7249291539192200e-01" nType="-1"/>
      </Node>
    </BinaryTree>
    <BinaryTree type="DecisionTree" boostWeight="1.8294923129090274e-01" itree="4">
      <Node pos="s" depth="0" NCoef="0" IVar="0" Cut="1.2471157073974609e+01" cType="1" res="-9.9000000000000000e+01" rms="0.0000000000000000e+00" purity="5.1209330558776855e-01" nType="0">
        <Node pos="l" depth="1" NCoef="0" IVar="6" Cut="1.5929588079452515e+00" cType="0" res="-9.9000000000000000e+01" rms="0.0000000000000000e+00" purity="5.3361433744430542e-01" nType="0">
          <Node pos="l" depth="2" NCoef="0" IVar="0" Cut="9.0858716964721680e+00" cType="0" res="-9.9000000000000000e+01" rms="0.0000000000000000e+00" purity="5.5381071567535400e-01" nType="0">
            <Node pos="l" depth="3" NCoef="0" IVar="14" Cut="-9.1141076660156250e+02" cType="1" res="-9.9000000000000000e+01" rms="0.0000000000000000e+00" purity="5.9445571899414062e-01" nType="0">
              <Node pos="l" depth="4" NCoef="0" IVar="-1" Cut="0.0000000000000000e+00" cType="1" res="-9.9000000000000000e+01" rms="0.0000000000000000e+00" purity="6.5706950426101685e-01" nType="1"/>
              <Node pos="r" depth="4" NCoef="0" IVar="5" Cut="1.1558947335288394e-05" cType="0" res="-9.9000000000000000e+01" rms="0.0000000000000000e+00" purity="5.5549180507659912e-01" nType="0">
                <Node pos="l" depth="5" NCoef="0" IVar="-1" Cut="0.0000000000000000e+00" cType="1" res="-9.9000000000000000e+01" rms="0.0000000000000000e+00" purity="6.4464449882507324e-01" nType="1"/>
                <Node pos="r" depth="5" NCoef="0" IVar="-1" Cut="0.0000000000000000e+00" cType="1" res="-9.9000000000000000e+01" rms="0.0000000000000000e+00" purity="4.4990158081054688e-01" nType="-1"/>
              </Node>
            </Node>
            <Node pos="r" depth="3" NCoef="0" IVar="5" Cut="1.0546715202508494e-05" cType="1" res="-9.9000000000000000e+01" rms="0.0000000000000000e+00" purity="5.0876951217651367e-01" nType="0">
              <Node pos="l" depth="4" NCoef="0" IVar="-1" Cut="0.0000000000000000e+00" cType="1" res="-9.9000000000000000e+01" rms="0.0000000000000000e+00" purity="5.5140233039855957e-01" nType="1"/>
              <Node pos="r" depth="4" NCoef="0" IVar="-1" Cut="0.0000000000000000e+00" cType="1" res="-9.9000000000000000e+01" rms="0.0000000000000000e+00" purity="4.6639701724052429e-01" nType="-1"/>
            </Node>
          </Node>
          <Node pos="r" depth="2" NCoef="0" IVar="-1" Cut="1.4772325754165649e+00" cType="1" res="-9.9000000000000000e+01" rms="0.0000000000000000e+00" purity="4.3641838431358337e-01" nType="-1"/>
        </Node>
        <Node pos="r" depth="1" NCoef="0" IVar="-1" Cut="0.0000000000000000e+00" cType="1" res="-9.9000000000000000e+01" rms="0.0000000000000000e+00" purity="3.2950574159622192e-01" nType="-1"/>
      </Node>
    </BinaryTree>
    <BinaryTree type="DecisionTree" boostWeight="1.9483068577075299e-01" itree="5">
      <Node pos="s" depth="0" NCoef="0" IVar="11" Cut="2.0873804687500000e+05" cType="1" res="-9.9000000000000000e+01" rms="0.0000000000000000e+00" purity="5.0984221696853638e-01" nType="0">
        <Node pos="l" depth="1" NCoef="0" IVar="1" Cut="7.8165729064494371e-05" cType="0" res="-9.9000000000000000e+01" rms="0.0000000000000000e+00" purity="5.3896892070770264e-01" nType="0">
          <Node pos="l" depth="2" NCoef="0" IVar="-1" Cut="0.0000000000000000e+00" cType="1" res="-9.9000000000000000e+01" rms="0.0000000000000000e+00" purity="6.3224244117736816e-01" nType="1"/>
          <Node pos="r" depth="2" NCoef="0" IVar="7" Cut="2.9630699157714844e+00" cType="0" res="-9.9000000000000000e+01" rms="0.0000000000000000e+00" purity="5.0307953357696533e-01" nType="0">
            <Node pos="l" depth="3" NCoef="0" IVar="-1" Cut="0.0000000000000000e+00" cType="1" res="-9.9000000000000000e+01" rms="0.0000000000000000e+00" purity="6.3159328699111938e-01" nType="1"/>
            <Node pos="r" depth="3" NCoef="0" IVar="6" Cut="1.6610368490219116e+00" cType="0" res="-9.9000000000000000e+01" rms="0.0000000000000000e+00" purity="4.6329250931739807e-01" nType="0">
              <Node pos="l" depth="4" NCoef="0" IVar="-1" Cut="0.0000000000000000e+00" cType="1" res="-9.9000000000000000e+01" rms="0.0000000000000000e+00" purity="5.0555247068405151e-01" nType="1"/>
              <Node pos="r" depth="4" NCoef="0" IVar="-1" Cut="0.0000000000000000e+00" cType="1" res="-9.9000000000000000e+01" rms="0.0000000000000000e+00" purity="3.6896657943725586e-01" nType="-1"/>
            </Node>
          </Node>
        </Node>
        <Node pos="r" depth="1" NCoef="0" IVar="6" Cut="1.9267743825912476e+00" cType="0" res="-9.9000000000000000e+01" rms="0.0000000000000000e+00" purity="4.6965557336807251e-01" nType="0">
          <Node pos="l" depth="2" NCoef="0" IVar="8" Cut="2.4224715232849121e+00" cType="1" res="-9.9000000000000000e+01" rms="0.0000000000000000e+00" purity="5.2411538362503052e-01" nType="0">
            <Node pos="l" depth="3" NCoef="0" IVar="-1" Cut="0.0000000000000000e+00" cType="1" res="-9.9000000000000000e+01" rms="0.0000000000000000e+00" purity="6.3276225328445435e-01" nType="1"/>
            <Node pos="r" depth="3" NCoef="0" IVar="8" Cut="2.7649414539337158e+00" cType="0" res="-9.9000000000000000e+01" rms="0.0000000000000000e+00" purity="4.9501144886016846e-01" nType="0">
              <Node pos="l" depth="4" NCoef="0" IVar="-1" Cut="0.0000000000000000e+00" cType="1" res="-9.9000000000000000e+01" rms="0.0000000000000000e+00" purity="5.7880139350891113e-01" nType="1"/>
              <Node pos="r" depth="4" NCoef="0" IVar="1" Cut="5.5301919928751886e-05" cType="0" res="-9.9000000000000000e+01" rms="0.0000000000000000e+00" purity="4.5346012711524963e-01" nType="0">
                <Node pos="l" depth="5" NCoef="0" IVar="-1" Cut="0.0000000000000000e+00" cType="1" res="-9.9000000000000000e+01" rms="0.0000000000000000e+00" purity="5.0125175714492798e-01" nType="1"/>
                <Node pos="r" depth="5" NCoef="0" IVar="-1" Cut="0.0000000000000000e+00" cType="1" res="-9.9000000000000000e+01" rms="0.0000000000000000e+00" purity="3.9320778846740723e-01" nType="-1"/>
              </Node>
            </Node>
          </Node>
          <Node pos="r" depth="2" NCoef="0" IVar="-1" Cut="0.0000000000000000e+00" cType="1" res="-9.9000000000000000e+01" rms="0.0000000000000000e+00" purity="1.6604624688625336e-01" nType="-1"/>
        </Node>
      </Node>
    </BinaryTree>
    <BinaryTree type="DecisionTree" boostWeight="2.3121066178863786e-01" itree="6">
      <Node pos="s" depth="0" NCoef="0" IVar="5" Cut="9.6575386123731732e-06" cType="0" res="-9.9000000000000000e+01" rms="0.0000000000000000e+00" purity="4.7718736529350281e-01" nType="0">
        <Node pos="l" depth="1" NCoef="0" IVar="8" Cut="2.2341616153717041e+00" cType="0" res="-9.9000000000000000e+01" rms="0.0000000000000000e+00" purity="5.0871580839157104e-01" nType="0">
          <Node pos="l" depth="2" NCoef="0" IVar="14" Cut="1.4508361816406250e+00" cType="0" res="-9.9000000000000000e+01" rms="0.0000000000000000e+00" purity="5.6109231710433960e-01" nType="0">
            <Node pos="l" depth="3" NCoef="0" IVar="-1" Cut="0.0000000000000000e+00" cType="1" res="-9.9000000000000000e+01" rms="0.0000000000000000e+00" purity="6.3598269224166870e-01" nType="1"/>
            <Node pos="r" depth="3" NCoef="0" IVar="3" Cut="1.5951153125000000e+05" cType="0" res="-9.9000000000000000e+01" rms="0.0000000000000000e+00" purity="5.2829641103744507e-01" nType="0">
              <Node pos="l" depth="4" NCoef="0" IVar="-1" Cut="0.0000000000000000e+00" cType="1" res="-9.9000000000000000e+01" rms="0.0000000000000000e+00" purity="6.1881011724472046e-01" nType="1"/>
              <Node pos="r" depth="4" NCoef="0" IVar="-1" Cut="0.0000000000000000e+00" cType="1" res="-9.9000000000000000e+01" rms="0.0000000000000000e+00" purity="4.7132396697998047e-01" nType="-1"/>
            </Node>
          </Node>
          <Node pos="r" depth="2" NCoef="0" IVar="5" Cut="1.5566780348308384e-05" cType="0" res="-9.9000000000000000e+01" rms="0.0000000000000000e+00" purity="4.4648593664169312e-01" nType="0">
            <Node pos="l" depth="3" NCoef="0" IVar="5" Cut="1.7045667846105061e-05" cType="1" res="-9.9000000000000000e+01" rms="0.0000000000000000e+00" purity="5.2733814716339111e-01" nType="0">
              <Node pos="l" depth="4" NCoef="0" IVar="-1" Cut="0.0000000000000000e+00" cType="1" res="-9.9000000000000000e+01" rms="0.0000000000000000e+00" purity="6.5365946292877197e-01" nType="1"/>
              <Node pos="r" depth="4" NCoef="0" IVar="-1" Cut="0.0000000000000000e+00" cType="1" res="-9.9000000000000000e+01" rms="0.0000000000000000e+00" purity="4.6330809593200684e-01" nType="-1"/>
            </Node>
            <Node pos="r" depth="3" NCoef="0" IVar="-1" Cut="1.5771780014038086e+00" cType="1" res="-9.9000000000000000e+01" rms="0.0000000000000000e+00" purity="3.4177771210670471e-01" nType="-1"/>
          </Node>
        </Node>
        <Node pos="r" depth="1" NCoef="0" IVar="6" Cut="2.0789601802825928e+00" cType="0" res="-9.9000000000000000e+01" rms="0.0000000000000000e+00" purity="3.9226585626602173e-01" nType="0">
          <Node pos="l" depth="2" NCoef="0" IVar="1" Cut="5.5106727813836187e-05" cType="0" res="-9.9000000000000000e+01" rms="0.0000000000000000e+00" purity="4.8310485482215881e-01" nType="0">
            <Node pos="l" depth="3" NCoef="0" IVar="-1" Cut="0.0000000000000000e+00" cType="1" res="-9.9000000000000000e+01" rms="0.0000000000000000e+00" purity="5.5616426467895508e-01" nType="1"/>
            <Node pos="r" depth="3" NCoef="0" IVar="-1" Cut="0.0000000000000000e+00" cType="1" res="-9.9000000000000000e+01" rms="0.0000000000000000e+00" purity="3.6929541826248169e-01" nType="-1"/>
          </Node>
          <Node pos="r" depth="2" NCoef="0" IVar="-1" Cut="0.0000000000000000e+00" cType="1" res="-9.9000000000000000e+01" rms="0.0000000000000000e+00" purity="1.6337285935878754e-01" nType="-1"/>
        </Node>
      </Node>
    </BinaryTree>
    <BinaryTree type="DecisionTree" boostWeight="1.7078257123596860e-01" itree="7">
      <Node pos="s" depth="0" NCoef="0" IVar="1" Cut="7.6709664426743984e-05" cType="0" res="-9.9000000000000000e+01" rms="0.0000000000000000e+00" purity="4.7722363471984863e-01" nType="0">
        <Node pos="l" depth="1" NCoef="0" IVar="-1" Cut="0.0000000000000000e+00" cType="1" res="-9.9000000000000000e+01" rms="0.0000000000000000e+00" purity="5.7415944337844849e-01" nType="1"/>
        <Node pos="r" depth="1" NCoef="0" IVar="8" Cut="2.3168642520904541e+00" cType="0" res="-9.9000000000000000e+01" rms="0.0000000000000000e+00" purity="4.4884473085403442e-01" nType="0">
          <Node pos="l" depth="2" NCoef="0" IVar="6" Cut="2.5214886665344238e+00" cType="0" res="-9.9000000000000000e+01" rms="0.0000000000000000e+00" purity="5.0232726335525513e-01" nType="0">
            <Node pos="l" depth="3" NCoef="0" IVar="-1" Cut="0.0000000000000000e+00" cType="1" res="-9.9000000000000000e+01" rms="0.0000000000000000e+00" purity="6.4363843202590942e-01" nType="1"/>
            <Node pos="r" depth="3" NCoef="0" IVar="8" Cut="2.3889088630676270e+00" cType="1" res="-9.9000000000000000e+01" rms="0.0000000000000000e+00" purity="4.8369202017784119e-01" nType="0">
              <Node pos="l" depth="4" NCoef="0" IVar="-1" Cut="0.0000000000000000e+00" cType="1" res="-9.9000000000000000e+01" rms="0.0000000000000000e+00" purity="5.7907909154891968e-01" nType="1"/>
              <Node pos="r" depth="4" NCoef="0" IVar="-1" Cut="5.1851853640982881e-05" cType="0" res="-9.9000000000000000e+01" rms="0.0000000000000000e+00" purity="4.6063718199729919e-01" nType="-1"/>
            </Node>
          </Node>
          <Node pos="r" depth="2" NCoef="0" IVar="-1" Cut="1.4593278137908783e-05" cType="0" res="-9.9000000000000000e+01" rms="0.0000000000000000e+00" purity="3.6827921867370605e-01" nType="-1"/>
        </Node>
      </Node>
    </BinaryTree>
    <BinaryTree type="DecisionTree" boostWeight="1.7822233329930603e-01" itree="8">
      <Node pos="s" depth="0" NCoef="0" IVar="8" Cut="2.1660306453704834e+00" cType="0" res="-9.9000000000000000e+01" rms="0.0000000000000000e+00" purity="4.8170056939125061e-01" nType="0">
        <Node pos="l" depth="1" NCoef="0" IVar="5" Cut="8.7386388258892111e-06" cType="0" res="-9.9000000000000000e+01" rms="0.0000000000000000e+00" purity="5.1302504539489746e-01" nType="0">
          <Node pos="l" depth="2" NCoef="0" IVar="5" Cut="1.0882205970119685e-05" cType="1" res="-9.9000000000000000e+01" rms="0.0000000000000000e+00" purity="5.3788554668426514e-01" nType="0">
            <Node pos="l" depth="3" NCoef="0" IVar="-1" Cut="0.0000000000000000e+00" cType="1" res="-9.9000000000000000e+01" rms="0.0000000000000000e+00" purity="6.2298208475112915e-01" nType="1"/>
            <Node pos="r" depth="3" NCoef="0" IVar="6" Cut="2.0141637325286865e+00" cType="1" res="-9.9000000000000000e+01" rms="0.0000000000000000e+00" purity="5.0136196613311768e-01" nType="0">
              <Node pos="l" depth="4" NCoef="0" IVar="-1" Cut="0.0000000000000000e+00" cType="1" res="-9.9000000000000000e+01" rms="0.0000000000000000e+00" purity="5.4475528001785278e-01" nType="1"/>
              <Node pos="r" depth="4" NCoef="0" IVar="-1" Cut="1.3486568605003413e-05" cType="1" res="-9.9000000000000000e+01" rms="0.0000000000000000e+00" purity="4.1627517342567444e-01" nType="-1"/>
            </Node>
          </Node>
          <Node pos="r" depth="2" NCoef="0" IVar="6" Cut="2.3118925094604492e+00" cType="0" res="-9.9000000000000000e+01" rms="0.0000000000000000e+00" purity="4.5023098587989807e-01" nType="0">
            <Node pos="l" depth="3" NCoef="0" IVar="6" Cut="2.4944975376129150e+00" cType="0" res="-9.9000000000000000e+01" rms="0.0000000000000000e+00" purity="5.1117968559265137e-01" nType="0">
              <Node pos="l" depth="4" NCoef="0" IVar="-1" Cut="0.0000000000000000e+00" cType="1" res="-9.9000000000000000e+01" rms="0.0000000000000000e+00" purity="5.3898835182189941e-01" nType="1"/>
              <Node pos="r" depth="4" NCoef="0" IVar="-1" Cut="0.0000000000000000e+00" cType="1" res="-9.9000000000000000e+01" rms="0.0000000000000000e+00" purity="4.8742592334747314e-01" nType="-1"/>
            </Node>
            <Node pos="r" depth="3" NCoef="0" IVar="-1" Cut="0.0000000000000000e+00" cType="1" res="-9.9000000000000000e+01" rms="0.0000000000000000e+00" purity="3.7694022059440613e-01" nType="-1"/>
          </Node>
        </Node>
        <Node pos="r" depth="1" NCoef="0" IVar="0" Cut="1.1290792465209961e+01" cType="1" res="-9.9000000000000000e+01" rms="0.0000000000000000e+00" purity="3.9698952436447144e-01" nType="0">
          <Node pos="l" depth="2" NCoef="0" IVar="5" Cut="1.5032091141620185e-05" cType="0" res="-9.9000000000000000e+01" rms="0.0000000000000000e+00" purity="4.6225938200950623e-01" nType="0">
            <Node pos="l" depth="3" NCoef="0" IVar="-1" Cut="0.0000000000000000e+00" cType="1" res="-9.9000000000000000e+01" rms="0.0000000000000000e+00" purity="5.1920944452285767e-01" nType="1"/>
            <Node pos="r" depth="3" NCoef="0" IVar="-1" Cut="0.0000000000000000e+00" cType="1" res="-9.9000000000000000e+01" rms="0.0000000000000000e+00" purity="3.5622233152389526e-01" nType="-1"/>
          </Node>
          <Node pos="r" depth="2" NCoef="0" IVar="-1" Cut="0.0000000000000000e+00" cType="1" res="-9.9000000000000000e+01" rms="0.0000000000000000e+00" purity="1.1021722108125687e-01" nType="-1"/>
        </Node>
      </Node>
    </BinaryTree>
    <BinaryTree type="DecisionTree" boostWeight="1.8397975806456643e-01" itree="9">
      <Node pos="s" depth="0" NCoef="0" IVar="1" Cut="7.8194927482400090e-05" cType="0" res="-9.9000000000000000e+01" rms="0.0000000000000000e+00" purity="4.7936090826988220e-01" nType="0">
        <Node pos="l" depth="1" NCoef="0" IVar="-1" Cut="0.0000000000000000e+00" cType="1" res="-9.9000000000000000e+01" rms="0.0000000000000000e+00" purity="5.7048106193542480e-01" nType="1"/>
        <Node pos="r" depth="1" NCoef="0" IVar="6" Cut="1.5972054004669189e+00" cType="0" res="-9.9000000000000000e+01" rms="0.0000000000000000e+00" purity="4.5828819274902344e-01" nType="0">
          <Node pos="l" depth="2" NCoef="0" IVar="5" Cut="7.7772756412741728e-06" cType="0" res="-9.9000000000000000e+01" rms="0.0000000000000000e+00" purity="4.7271516919136047e-01" nType="0">
            <Node pos="l" depth="3" NCoef="0" IVar="3" Cut="2.0583754687500000e+05" cType="1" res="-9.9000000000000000e+01" rms="0.0000000000000000e+00" purity="4.9057471752166748e-01" nType="0">
              <Node pos="l" depth="4" NCoef="0" IVar="11" Cut="1.7672593750000000e+05" cType="0" res="-9.9000000000000000e+01" rms="0.0000000000000000e+00" purity="5.0778156518936157e-01" nType="0">
                <Node pos="l" depth="5" NCoef="0" IVar="-1" Cut="0.0000000000000000e+00" cType="1" res="-9.9000000000000000e+01" rms="0.0000000000000000e+00" purity="5.7115656137466431e-01" nType="1"/>
                <Node pos="r" depth="5" NCoef="0" IVar="-1" Cut="0.0000000000000000e+00" cType="1" res="-9.9000000000000000e+01" rms="0.0000000000000000e+00" purity="3.9853763580322266e-01" nType="-1"/>
              </Node>
              <Node pos="r" depth="4" NCoef="0" IVar="-1" Cut="0.0000000000000000e+00" cType="1" res="-9.9000000000000000e+01" rms="0.0000000000000000e+00" purity="3.9610275626182556e-01" nType="-1"/>
            </Node>
            <Node pos="r" depth="3" NCoef="0" IVar="-1" Cut="2.3740632534027100e+00" cType="0" res="-9.9000000000000000e+01" rms="0.0000000000000000e+00" purity="4.0021201968193054e-01" nType="-1"/>
          </Node>
          <Node pos="r" depth="2" NCoef="0" IVar="-1" Cut="0.0000000000000000e+00" cType="1" res="-9.9000000000000000e+01" rms="0.0000000000000000e+00" purity="3.4917101263999939e-01" nType="-1"/>
        </Node>
      </Node>
    </BinaryTree>
    <BinaryTree type="DecisionTree" boostWeight="1.6896636291106426e-01" itree="10">
      <Node pos="s" depth="0" NCoef="0" IVar="5" Cut="1.3418435628409497e-05" cType="0" res="-9.9000000000000000e+01" rms="0.0000000000000000e+00" purity="4.8417586088180542e-01" nType="0">
        <Node pos="l" depth="1" NCoef="0" IVar="8" Cut="2.2090697288513184e+00" cType="1" res="-9.9000000000000000e+01" rms="0.0000000000000000e+00" purity="5.3755885362625122e-01" nType="0">
          <Node pos="l" depth="2" NCoef="0" IVar="-1" Cut="1.0289945602416992e+01" cType="1" res="-9.9000000000000000e+01" rms="0.0000000000000000e+00" purity="5.9301489591598511e-01" nType="1"/>
          <Node pos="r" depth="2" NCoef="0" IVar="-1" Cut="0.0000000000000000e+00" cType="1" res="-9.9000000000000000e+01" rms="0.0000000000000000e+00" purity="4.5120245218276978e-01" nType="-1"/>
        </Node>
        <Node pos="r" depth="1" NCoef="0" IVar="6" Cut="1.6796258687973022e+00" cType="0" res="-9.9000000000000000e+01" rms="0.0000000000000000e+00" purity="4.4193544983863831e-01" nType="0">
          <Node pos="l" depth="2" NCoef="0" IVar="10" Cut="-9.5142858886718750e+02" cType="0" res="-9.9000000000000000e+01" rms="0.0000000000000000e+00" purity="4.6652507781982422e-01" nType="0">
            <Node pos="l" depth="3" NCoef="0" IVar="6" Cut="2.2056932449340820e+00" cType="0" res="-9.9000000000000000e+01" rms="0.0000000000000000e+00" purity="5.3674805164337158e-01" nType="0">
              <Node pos="l" depth="4" NCoef="0" IVar="-1" Cut="0.0000000000000000e+00" cType="1" res="-9.9000000000000000e+01" rms="0.0000000000000000e+00" purity="5.9273624420166016e-01" nType="1"/>
              <Node pos="r" depth="4" NCoef="0" IVar="-1" Cut="0.0000000000000000e+00" cType="1" res="-9.9000000000000000e+01" rms="0.0000000000000000e+00" purity="4.8736491799354553e-01" nType="-1"/>
            </Node>
            <Node pos="r" depth="3" NCoef="0" IVar="5" Cut="9.0348985395394266e-06" cType="0" res="-9.9000000000000000e+01" rms="0.0000000000000000e+00" purity="4.4643393158912659e-01" nType="0">
              <Node pos="l" depth="4" NCoef="0" IVar="0" Cut="1.0285955429077148e+01" cType="0" res="-9.9000000000000000e+01" rms="0.0000000000000000e+00" purity="4.8422452807426453e-01" nType="0">
                <Node pos="l" depth="5" NCoef="0" IVar="-1" Cut="0.0000000000000000e+00" cType="1" res="-9.9000000000000000e+01" rms="0.0000000000000000e+00" purity="5.5828922986984253e-01" nType="1"/>
                <Node pos="r" depth="5" NCoef="0" IVar="-1" Cut="0.0000000000000000e+00" cType="1" res="-9.9000000000000000e+01" rms="0.0000000000000000e+00" purity="4.4457086920738220e-01" nType="-1"/>
              </Node>
              <Node pos="r" depth="4" NCoef="0" IVar="-1" Cut="2.2798452377319336e+00" cType="0" res="-9.9000000000000000e+01" rms="0.0000000000000000e+00" purity="3.9737993478775024e-01" nType="-1"/>
            </Node>
          </Node>
          <Node pos="r" depth="2" NCoef="0" IVar="-1" Cut="0.0000000000000000e+00" cType="1" res="-9.9000000000000000e+01" rms="0.0000000000000000e+00" purity="2.9281392693519592e-01" nType="-1"/>
        </Node>
      </Node>
    </BinaryTree>
    <BinaryTree type="DecisionTree" boostWeight="1.7390714964033391e-01" itree="11">
      <Node pos="s" depth="0" NCoef="0" IVar="5" Cut="1.8120417735190131e-05" cType="1" res="-9.9000000000000000e+01" rms="0.0000000000000000e+00" purity="4.4061014056205750e-01" nType="0">
        <Node pos="l" depth="1" NCoef="0" IVar="8" Cut="2.0696809291839600e+00" cType="0" res="-9.9000000000000000e+01" rms="0.0000000000000000e+00" purity="4.7979655861854553e-01" nType="0">
          <Node pos="l" depth="2" NCoef="0" IVar="5" Cut="5.3750704864796717e-06" cType="0" res="-9.9000000000000000e+01" rms="0.0000000000000000e+00" purity="5.0247532129287720e-01" nType="0">
            <Node pos="l" depth="3" NCoef="0" IVar="0" Cut="1.2135887145996094e+01" cType="1" res="-9.9000000000000000e+01" rms="0.0000000000000000e+00" purity="5.1171541213989258e-01" nType="0">
              <Node pos="l" depth="4" NCoef="0" IVar="7" Cut="1.9045531749725342e+00" cType="1" res="-9.9000000000000000e+01" rms="0.0000000000000000e+00" purity="5.2164816856384277e-01" nType="0">
                <Node pos="l" depth="5" NCoef="0" IVar="-1" Cut="0.0000000000000000e+00" cType="1" res="-9.9000000000000000e+01" rms="0.0000000000000000e+00" purity="5.8883404731750488e-01" nType="1"/>
                <Node pos="r" depth="5" NCoef="0" IVar="-1" Cut="0.0000000000000000e+00" cType="1" res="-9.9000000000000000e+01" rms="0.0000000000000000e+00" purity="4.9998149275779724e-01" nType="-1"/>
              </Node>
              <Node pos="r" depth="4" NCoef="0" IVar="-1" Cut="0.0000000000000000e+00" cType="1" res="-9.9000000000000000e+01" rms="0.0000000000000000e+00" purity="4.1680109500885010e-01" nType="-1"/>
            </Node>
            <Node pos="r" depth="3" NCoef="0" IVar="-1" Cut="0.0000000000000000e+00" cType="1" res="-9.9000000000000000e+01" rms="0.0000000000000000e+00" purity="3.7268421053886414e-01" nType="-1"/>
          </Node>
          <Node pos="r" depth="2" NCoef="0" IVar="-1" Cut="1.5721059753559530e-05" cType="0" res="-9.9000000000000000e+01" rms="0.0000000000000000e+00" purity="3.3590131998062134e-01" nType="-1"/>
        </Node>
        <Node pos="r" depth="1" NCoef="0" IVar="-1" Cut="0.0000000000000000e+00" cType="1" res="-9.9000000000000000e+01" rms="0.0000000000000000e+00" purity="2.2844129800796509e-01" nType="-1"/>
      </Node>
    </BinaryTree>
    <BinaryTree type="DecisionTree" boostWeight="1.3369476680242803e-01" itree="12">
      <Node pos="s" depth="0" NCoef="0" IVar="8" Cut="1.8807456493377686e+00" cType="0" res="-9.9000000000000000e+01" rms="0.0000000000000000e+00" purity="5.1703971624374390e-01" nType="0">
        <Node pos="l" depth="1" NCoef="0" IVar="5" Cut="1.5303096006391570e-05" cType="0" res="-9.9000000000000000e+01" rms="0.0000000000000000e+00" purity="5.2608513832092285e-01" nType="0">
          <Node pos="l" depth="2" NCoef="0" IVar="8" Cut="2.2184143066406250e+00" cType="1" res="-9.9000000000000000e+01" rms="0.0000000000000000e+00" purity="5.7354527711868286e-01" nType="0">
            <Node pos="l" depth="3" NCoef="0" IVar="-1" Cut="0.0000000000000000e+00" cType="1" res="-9.9000000000000000e+01" rms="0.0000000000000000e+00" purity="6.1769098043441772e-01" nType="1"/>
            <Node pos="r" depth="3" NCoef="0" IVar="-1" Cut="0.0000000000000000e+00" cType="1" res="-9.9000000000000000e+01" rms="0.0000000000000000e+00" purity="4.9083581566810608e-01" nType="-1"/>
          </Node>
          <Node pos="r" depth="2" NCoef="0" IVar="8" Cut="2.2992107868194580e+00" cType="0" res="-9.9000000000000000e+01" rms="0.0000000000000000e+00" purity="5.0912827253341675e-01" nType="0">
            <Node pos="l" depth="3" NCoef="0" IVar="-1" Cut="4.4771426473744214e-05" cType="1" res="-9.9000000000000000e+01" rms="0.0000000000000000e+00" purity="5.4531115293502808e-01" nType="1"/>
            <Node pos="r" depth="3" NCoef="0" IVar="-1" Cut="6.1839353293180466e-05" cType="0" res="-9.9000000000000000e+01" rms="0.0000000000000000e+00" purity="4.1545069217681885e-01" nType="-1"/>
          </Node>
        </Node>
        <Node pos="r" depth="1" NCoef="0" IVar="-1" Cut="0.0000000000000000e+00" cType="1" res="-9.9000000000000000e+01" rms="0.0000000000000000e+00" purity="3.6810690164566040e-01" nType="-1"/>
      </Node>
    </BinaryTree>
    <BinaryTree type="DecisionTree" boostWeight="1.8436519457168804e-01" itree="13">
      <Node pos="s" depth="0" NCoef="0" IVar="6" Cut="2.0084159374237061e+00" cType="0" res="-9.9000000000000000e+01" rms="0.0000000000000000e+00" purity="4.7313052415847778e-01" nType="0">
        <Node pos="l" depth="1" NCoef="0" IVar="5" Cut="9.6555222626193427e-06" cType="1" res="-9.9000000000000000e+01" rms="0.0000000000000000e+00" purity="5.3280508518218994e-01" nType="0">
          <Node pos="l" depth="2" NCoef="0" IVar="5" Cut="7.4147619670839049e-06" cType="0" res="-9.9000000000000000e+01" rms="0.0000000000000000e+00" purity="5.6429493427276611e-01" nType="0">
            <Node pos="l" depth="3" NCoef="0" IVar="-1" Cut="0.0000000000000000e+00" cType="1" res="-9.9000000000000000e+01" rms="0.0000000000000000e+00" purity="6.5739536285400391e-01" nType="1"/>
            <Node pos="r" depth="3" NCoef="0" IVar="13" Cut="2.7376494407653809e+00" cType="0" res="-9.9000000000000000e+01" rms="0.0000000000000000e+00" purity="4.7633835673332214e-01" nType="0">
              <Node pos="l" depth="4" NCoef="0" IVar="-1" Cut="0.0000000000000000e+00" cType="1" res="-9.9000000000000000e+01" rms="0.0000000000000000e+00" purity="5.4792308807373047e-01" nType="1"/>
              <Node pos="r" depth="4" NCoef="0" IVar="-1" Cut="0.0000000000000000e+00" cType="1" res="-9.9000000000000000e+01" rms="0.0000000000000000e+00" purity="3.9408582448959351e-01" nType="-1"/>
            </Node>
          </Node>
          <Node pos="r" depth="2" NCoef="0" IVar="5" Cut="1.1626865671132691e-05" cType="0" res="-9.9000000000000000e+01" rms="0.0000000000000000e+00" purity="4.9348285794258118e-01" nType="0">
            <Node pos="l" depth="3" NCoef="0" IVar="6" Cut="2.1551842689514160e+00" cType="0" res="-9.9000000000000000e+01" rms="0.0000000000000000e+00" purity="5.2969324588775635e-01" nType="0">
              <Node pos="l" depth="4" NCoef="0" IVar="-1" Cut="0.0000000000000000e+00" cType="1" res="-9.9000000000000000e+01" rms="0.0000000000000000e+00" purity="5.7092553377151489e-01" nType="1"/>
              <Node pos="r" depth="4" NCoef="0" IVar="-1" Cut="0.0000000000000000e+00" cType="1" res="-9.9000000000000000e+01" rms="0.0000000000000000e+00" purity="4.9443435668945312e-01" nType="-1"/>
            </Node>
            <Node pos="r" depth="3" NCoef="0" IVar="-1" Cut="0.0000000000000000e+00" cType="1" res="-9.9000000000000000e+01" rms="0.0000000000000000e+00" purity="4.2206919193267822e-01" nType="-1"/>
          </Node>
        </Node>
        <Node pos="r" depth="1" NCoef="0" IVar="1" Cut="6.0069301980547607e-05" cType="0" res="-9.9000000000000000e+01" rms="0.0000000000000000e+00" purity="4.2856901884078979e-01" nType="0">
          <Node pos="l" depth="2" NCoef="0" IVar="0" Cut="1.0451961517333984e+01" cType="1" res="-9.9000000000000000e+01" rms="0.0000000000000000e+00" purity="4.6790936589241028e-01" nType="0">
            <Node pos="l" depth="3" NCoef="0" IVar="11" Cut="1.4735007812500000e+05" cType="1" res="-9.9000000000000000e+01" rms="0.0000000000000000e+00" purity="5.0680464506149292e-01" nType="0">
              <Node pos="l" depth="4" NCoef="0" IVar="-1" Cut="0.0000000000000000e+00" cType="1" res="-9.9000000000000000e+01" rms="0.0000000000000000e+00" purity="5.3305071592330933e-01" nType="1"/>
              <Node pos="r" depth="4" NCoef="0" IVar="-1" Cut="0.0000000000000000e+00" cType="1" res="-9.9000000000000000e+01" rms="0.0000000000000000e+00" purity="4.7355672717094421e-01" nType="-1"/>
            </Node>
            <Node pos="r" depth="3" NCoef="0" IVar="-1" Cut="0.0000000000000000e+00" cType="1" res="-9.9000000000000000e+01" rms="0.0000000000000000e+00" purity="3.2368561625480652e-01" nType="-1"/>
          </Node>
          <Node pos="r" depth="2" NCoef="0" IVar="-1" Cut="0.0000000000000000e+00" cType="1" res="-9.9000000000000000e+01" rms="0.0000000000000000e+00" purity="2.6191219687461853e-01" nType="-1"/>
        </Node>
      </Node>
    </BinaryTree>
    <BinaryTree type="DecisionTree" boostWeight="1.6263574935033262e-01" itree="14">
      <Node pos="s" depth="0" NCoef="0" IVar="6" Cut="1.9261420965194702e+00" cType="0" res="-9.9000000000000000e+01" rms="0.0000000000000000e+00" purity="4.7931236028671265e-01" nType="0">
        <Node pos="l" depth="1" NCoef="0" IVar="5" Cut="9.6528274298179895e-06" cType="1" res="-9.9000000000000000e+01" rms="0.0000000000000000e+00" purity="5.1424539089202881e-01" nType="0">
          <Node pos="l" depth="2" NCoef="0" IVar="5" Cut="7.4147619670839049e-06" cType="0" res="-9.9000000000000000e+01" rms="0.0000000000000000e+00" purity="5.5191355943679810e-01" nType="0">
            <Node pos="l" depth="3" NCoef="0" IVar="-1" Cut="0.0000000000000000e+00" cType="1" res="-9.9000000000000000e+01" rms="0.0000000000000000e+00" purity="6.3240611553192139e-01" nType="1"/>
            <Node pos="r" depth="3" NCoef="0" IVar="6" Cut="2.3652822971343994e+00" cType="0" res="-9.9000000000000000e+01" rms="0.0000000000000000e+00" purity="4.7703811526298523e-01" nType="0">
              <Node pos="l" depth="4" NCoef="0" IVar="-1" Cut="0.0000000000000000e+00" cType="1" res="-9.9000000000000000e+01" rms="0.0000000000000000e+00" purity="5.3508126735687256e-01" nType="1"/>
              <Node pos="r" depth="4" NCoef="0" IVar="-1" Cut="0.0000000000000000e+00" cType="1" res="-9.9000000000000000e+01" rms="0.0000000000000000e+00" purity="4.0553367137908936e-01" nType="-1"/>
            </Node>
          </Node>
          <Node pos="r" depth="2" NCoef="0" IVar="8" Cut="2.3664596080780029e+00" cType="1" res="-9.9000000000000000e+01" rms="0.0000000000000000e+00" purity="4.7785547375679016e-01" nType="0">
            <Node pos="l" depth="3" NCoef="0" IVar="-1" Cut="0.0000000000000000e+00" cType="1" res="-9.9000000000000000e+01" rms="0.0000000000000000e+00" purity="5.7505404949188232e-01" nType="1"/>
            <Node pos="r" depth="3" NCoef="0" IVar="-1" Cut="1.2116769539716188e-05" cType="1" res="-9.9000000000000000e+01" rms="0.0000000000000000e+00" purity="4.3098387122154236e-01" nType="-1"/>
          </Node>
        </Node>
        <Node pos="r" depth="1" NCoef="0" IVar="0" Cut="1.1427165031433105e+01" cType="1" res="-9.9000000000000000e+01" rms="0.0000000000000000e+00" purity="4.4416916370391846e-01" nType="0">
          <Node pos="l" depth="2" NCoef="0" IVar="8" Cut="2.0266022682189941e+00" cType="1" res="-9.9000000000000000e+01" rms="0.0000000000000000e+00" purity="4.7457829117774963e-01" nType="0">
            <Node pos="l" depth="3" NCoef="0" IVar="-1" Cut="0.0000000000000000e+00" cType="1" res="-9.9000000000000000e+01" rms="0.0000000000000000e+00" purity="5.5011391639709473e-01" nType="1"/>
            <Node pos="r" depth="3" NCoef="0" IVar="-1" Cut="7.2121074481401592e-05" cType="0" res="-9.9000000000000000e+01" rms="0.0000000000000000e+00" purity="4.4945052266120911e-01" nType="-1"/>
          </Node>
          <Node pos="r" depth="2" NCoef="0" IVar="-1" Cut="0.0000000000000000e+00" cType="1" res="-9.9000000000000000e+01" rms="0.0000000000000000e+00" purity="2.0375153422355652e-01" nType="-1"/>
        </Node>
      </Node>
    </BinaryTree>
    <BinaryTree type="DecisionTree" boostWeight="1.9049808490263595e-01" itree="15">
      <Node pos="s" depth="0" NCoef="0" IVar="8" Cut="1.9654724597930908e+00" cType="0" res="-9.9000000000000000e+01" rms="0.0000000000000000e+00" purity="4.7800603508949280e-01" nType="0">
        <Node pos="l" depth="1" NCoef="0" IVar="5" Cut="1.1553378499229439e-05" cType="0" res="-9.9000000000000000e+01" rms="0.0000000000000000e+00" purity="4.9623706936836243e-01" nType="0">
          <Node pos="l" depth="2" NCoef="0" IVar="11" Cut="1.5938942187500000e+05" cType="0" res="-9.9000000000000000e+01" rms="0.0000000000000000e+00" purity="5.2889865636825562e-01" nType="0">
            <Node pos="l" depth="3" NCoef="0" IVar="6" Cut="1.8660693168640137e+00" cType="1" res="-9.9000000000000000e+01" rms="0.0000000000000000e+00" purity="5.7904684543609619e-01" nType="0">
              <Node pos="l" depth="4" NCoef="0" IVar="-1" Cut="0.0000000000000000e+00" cType="1" res="-9.9000000000000000e+01" rms="0.0000000000000000e+00" purity="6.6831070184707642e-01" nType="1"/>
              <Node pos="r" depth="4" NCoef="0" IVar="5" Cut="1.5576468285871670e-05" cType="1" res="-9.9000000000000000e+01" rms="0.0000000000000000e+00" purity="5.4795634746551514e-01" nType="0">
                <Node pos="l" depth="5" NCoef="0" IVar="-1" Cut="0.0000000000000000e+00" cType="1" res="-9.9000000000000000e+01" rms="0.0000000000000000e+00" purity="5.7136172056198120e-01" nType="1"/>
                <Node pos="r" depth="5" NCoef="0" IVar="-1" Cut="0.0000000000000000e+00" cType="1" res="-9.9000000000000000e+01" rms="0.0000000000000000e+00" purity="4.8280617594718933e-01" nType="-1"/>
              </Node>
            </Node>
            <Node pos="r" depth="3" NCoef="0" IVar="-1" Cut="0.0000000000000000e+00" cType="1" res="-9.9000000000000000e+01" rms="0.0000000000000000e+00" purity="4.6501749753952026e-01" nType="-1"/>
          </Node>
          <Node pos="r" depth="2" NCoef="0" IVar="8" Cut="2.4129807949066162e+00" cType="0" res="-9.9000000000000000e+01" rms="0.0000000000000000e+00" purity="4.5680308341979980e-01" nType="0">
            <Node pos="l" depth="3" NCoef="0" IVar="8" Cut="2.5512778759002686e+00" cType="1" res="-9.9000000000000000e+01" rms="0.0000000000000000e+00" purity="5.0450533628463745e-01" nType="0">
              <Node pos="l" depth="4" NCoef="0" IVar="-1" Cut="0.0000000000000000e+00" cType="1" res="-9.9000000000000000e+01" rms="0.0000000000000000e+00" purity="6.3118487596511841e-01" nType="1"/>
              <Node pos="r" depth="4" NCoef="0" IVar="-1" Cut="5.6538997341704089e-06" cType="0" res="-9.9000000000000000e+01" rms="0.0000000000000000e+00" purity="4.5192340016365051e-01" nType="-1"/>
            </Node>
            <Node pos="r" depth="3" NCoef="0" IVar="-1" Cut="0.0000000000000000e+00" cType="1" res="-9.9000000000000000e+01" rms="0.0000000000000000e+00" purity="1.8919524550437927e-01" nType="-1"/>
          </Node>
        </Node>
        <Node pos="r" depth="1" NCoef="0" IVar="-1" Cut="0.0000000000000000e+00" cType="1" res="-9.9000000000000000e+01" rms="0.0000000000000000e+00" purity="3.1323996186256409e-01" nType="-1"/>
      </Node>
    </BinaryTree>
    <BinaryTree type="DecisionTree" boostWeight="1.6936962319995250e-01" itree="16">
      <Node pos="s" depth="0" NCoef="0" IVar="5" Cut="9.6659614428062923e-06" cType="0" res="-9.9000000000000000e+01" rms="0.0000000000000000e+00" purity="5.1374971866607666e-01" nType="0">
        <Node pos="l" depth="1" NCoef="0" IVar="1" Cut="7.4562020017765462e-05" cType="1" res="-9.9000000000000000e+01" rms="0.0000000000000000e+00" purity="5.3548538684844971e-01" nType="0">
          <Node pos="l" depth="2" NCoef="0" IVar="11" Cut="1.8466204687500000e+05" cType="1" res="-9.9000000000000000e+01" rms="0.0000000000000000e+00" purity="5.6461441516876221e-01" nType="0">
            <Node pos="l" depth="3" NCoef="0" IVar="-1" Cut="0.0000000000000000e+00" cType="1" res="-9.9000000000000000e+01" rms="0.0000000000000000e+00" purity="6.1114728450775146e-01" nType="1"/>
            <Node pos="r" depth="3" NCoef="0" IVar="6" Cut="2.1422061920166016e+00" cType="0" res="-9.9000000000000000e+01" rms="0.0000000000000000e+00" purity="5.1817601919174194e-01" nType="0">
              <Node pos="l" depth="4" NCoef="0" IVar="-1" Cut="0.0000000000000000e+00" cType="1" res="-9.9000000000000000e+01" rms="0.0000000000000000e+00" purity="5.8198112249374390e-01" nType="1"/>
              <Node pos="r" depth="4" NCoef="0" IVar="5" Cut="1.4092420315137133e-05" cType="0" res="-9.9000000000000000e+01" rms="0.0000000000000000e+00" purity="4.7563108801841736e-01" nType="0">
                <Node pos="l" depth="5" NCoef="0" IVar="-1" Cut="0.0000000000000000e+00" cType="1" res="-9.9000000000000000e+01" rms="0.0000000000000000e+00" purity="5.5848538875579834e-01" nType="1"/>
                <Node pos="r" depth="5" NCoef="0" IVar="-1" Cut="0.0000000000000000e+00" cType="1" res="-9.9000000000000000e+01" rms="0.0000000000000000e+00" purity="3.7023836374282837e-01" nType="-1"/>
              </Node>
            </Node>
          </Node>
          <Node pos="r" depth="2" NCoef="0" IVar="-1" Cut="0.0000000000000000e+00" cType="1" res="-9.9000000000000000e+01" rms="0.0000000000000000e+00" purity="4.6360975503921509e-01" nType="-1"/>
        </Node>
        <Node pos="r" depth="1" NCoef="0" IVar="6" Cut="2.0909371376037598e+00" cType="0" res="-9.9000000000000000e+01" rms="0.0000000000000000e+00" purity="4.5589545369148254e-01" nType="0">
          <Node pos="l" depth="2" NCoef="0" IVar="6" Cut="2.3732473850250244e+00" cType="0" res="-9.9000000000000000e+01" rms="0.0000000000000000e+00" purity="5.2076756954193115e-01" nType="0">
            <Node pos="l" depth="3" NCoef="0" IVar="-1" Cut="0.0000000000000000e+00" cType="1" res="-9.9000000000000000e+01" rms="0.0000000000000000e+00" purity="5.5873221158981323e-01" nType="1"/>
            <Node pos="r" depth="3" NCoef="0" IVar="-1" Cut="0.0000000000000000e+00" cType="1" res="-9.9000000000000000e+01" rms="0.0000000000000000e+00" purity="4.7480663657188416e-01" nType="-1"/>
          </Node>
          <Node pos="r" depth="2" NCoef="0" IVar="-1" Cut="0.0000000000000000e+00" cType="1" res="-9.9000000000000000e+01" rms="0.0000000000000000e+00" purity="2.6875901222229004e-01" nType="-1"/>
        </Node>
      </Node>
    </BinaryTree>
    <BinaryTree type="DecisionTree" boostWeight="2.2321057965355443e-01" itree="17">
      <Node pos="s" depth="0" NCoef="0" IVar="1" Cut="4.2785803088918328e-05" cType="0" res="-9.9000000000000000e+01" rms="0.0000000000000000e+00" purity="4.8942077159881592e-01" nType="0">
        <Node pos="l" depth="1" NCoef="0" IVar="5" Cut="1.2644180060306098e-05" cType="1" res="-9.9000000000000000e+01" rms="0.0000000000000000e+00" purity="4.9920049309730530e-01" nType="0">
          <Node pos="l" depth="2" NCoef="0" IVar="2" Cut="1.4297879687500000e+05" cType="1" res="-9.9000000000000000e+01" rms="0.0000000000000000e+00" purity="5.3937023878097534e-01" nType="0">
            <Node pos="l" depth="3" NCoef="0" IVar="-1" Cut="0.0000000000000000e+00" cType="1" res="-9.9000000000000000e+01" rms="0.0000000000000000e+00" purity="6.1109411716461182e-01" nType="1"/>
            <Node pos="r" depth="3" NCoef="0" IVar="6" Cut="2.0790328979492188e+00" cType="0" res="-9.9000000000000000e+01" rms="0.0000000000000000e+00" purity="4.5426821708679199e-01" nType="0">
              <Node pos="l" depth="4" NCoef="0" IVar="1" Cut="5.2202944061718881e-05" cType="0" res="-9.9000000000000000e+01" rms="0.0000000000000000e+00" purity="5.4045236110687256e-01" nType="0">
                <Node pos="l" depth="5" NCoef="0" IVar="-1" Cut="0.0000000000000000e+00" cType="1" res="-9.9000000000000000e+01" rms="0.0000000000000000e+00" purity="5.9091955423355103e-01" nType="1"/>
                <Node pos="r" depth="5" NCoef="0" IVar="-1" Cut="0.0000000000000000e+00" cType="1" res="-9.9000000000000000e+01" rms="0.0000000000000000e+00" purity="4.4765320420265198e-01" nType="-1"/>
              </Node>
              <Node pos="r" depth="4" NCoef="0" IVar="-1" Cut="0.0000000000000000e+00" cType="1" res="-9.9000000000000000e+01" rms="0.0000000000000000e+00" purity="2.3907013237476349e-01" nType="-1"/>
            </Node>
          </Node>
          <Node pos="r" depth="2" NCoef="0" IVar="1" Cut="5.4935022490099072e-05" cType="1" res="-9.9000000000000000e+01" rms="0.0000000000000000e+00" purity="4.5688661932945251e-01" nType="0">
            <Node pos="l" depth="3" NCoef="0" IVar="-1" Cut="0.0000000000000000e+00" cType="1" res="-9.9000000000000000e+01" rms="0.0000000000000000e+00" purity="5.8855897188186646e-01" nType="1"/>
            <Node pos="r" depth="3" NCoef="0" IVar="6" Cut="1.8152774572372437e+00" cType="1" res="-9.9000000000000000e+01" rms="0.0000000000000000e+00" purity="4.3344542384147644e-01" nType="0">
              <Node pos="l" depth="4" NCoef="0" IVar="1" Cut="6.9739013270009309e-05" cType="0" res="-9.9000000000000000e+01" rms="0.0000000000000000e+00" purity="4.9501687288284302e-01" nType="0">
                <Node pos="l" depth="5" NCoef="0" IVar="-1" Cut="0.0000000000000000e+00" cType="1" res="-9.9000000000000000e+01" rms="0.0000000000000000e+00" purity="5.3116232156753540e-01" nType="1"/>
                <Node pos="r" depth="5" NCoef="0" IVar="-1" Cut="0.0000000000000000e+00" cType="1" res="-9.9000000000000000e+01" rms="0.0000000000000000e+00" purity="4.0980169177055359e-01" nType="-1"/>
              </Node>
              <Node pos="r" depth="4" NCoef="0" IVar="-1" Cut="0.0000000000000000e+00" cType="1" res="-9.9000000000000000e+01" rms="0.0000000000000000e+00" purity="3.5117340087890625e-01" nType="-1"/>
            </Node>
          </Node>
        </Node>
        <Node pos="r" depth="1" NCoef="0" IVar="-1" Cut="0.0000000000000000e+00" cType="1" res="-9.9000000000000000e+01" rms="0.0000000000000000e+00" purity="3.2093924283981323e-01" nType="-1"/>
      </Node>
    </BinaryTree>
    <BinaryTree type="DecisionTree" boostWeight="1.8998648725909947e-01" itree="18">
      <Node pos="s" depth="0" NCoef="0" IVar="8" Cut="2.1342473030090332e+00" cType="0" res="-9.9000000000000000e+01" rms="0.0000000000000000e+00" purity="5.1327604055404663e-01" nType="0">
        <Node pos="l" depth="1" NCoef="0" IVar="5" Cut="9.6532021416351199e-06" cType="0" res="-9.9000000000000000e+01" rms="0.0000000000000000e+00" purity="5.3690218925476074e-01" nType="0">
          <Node pos="l" depth="2" NCoef="0" IVar="5" Cut="1.2115018762415275e-05" cType="1" res="-9.9000000000000000e+01" rms="0.0000000000000000e+00" purity="5.6728523969650269e-01" nType="0">
            <Node pos="l" depth="3" NCoef="0" IVar="-1" Cut="0.0000000000000000e+00" cType="1" res="-9.9000000000000000e+01" rms="0.0000000000000000e+00" purity="6.1915421485900879e-01" nType="1"/>
            <Node pos="r" depth="3" NCoef="0" IVar="8" Cut="2.2305364608764648e+00" cType="1" res="-9.9000000000000000e+01" rms="0.0000000000000000e+00" purity="5.3698074817657471e-01" nType="0">
              <Node pos="l" depth="4" NCoef="0" IVar="-1" Cut="0.0000000000000000e+00" cType="1" res="-9.9000000000000000e+01" rms="0.0000000000000000e+00" purity="6.3436073064804077e-01" nType="1"/>
              <Node pos="r" depth="4" NCoef="0" IVar="1" Cut="5.3114890761207789e-05" cType="1" res="-9.9000000000000000e+01" rms="0.0000000000000000e+00" purity="4.9058482050895691e-01" nType="0">
                <Node pos="l" depth="5" NCoef="0" IVar="-1" Cut="0.0000000000000000e+00" cType="1" res="-9.9000000000000000e+01" rms="0.0000000000000000e+00" purity="6.3015097379684448e-01" nType="1"/>
                <Node pos="r" depth="5" NCoef="0" IVar="-1" Cut="0.0000000000000000e+00" cType="1" res="-9.9000000000000000e+01" rms="0.0000000000000000e+00" purity="4.4448408484458923e-01" nType="-1"/>
              </Node>
            </Node>
          </Node>
          <Node pos="r" depth="2" NCoef="0" IVar="12" Cut="5.3571426868438721e-01" cType="0" res="-9.9000000000000000e+01" rms="0.0000000000000000e+00" purity="4.7624975442886353e-01" nType="0">
            <Node pos="l" depth="3" NCoef="0" IVar="-1" Cut="0.0000000000000000e+00" cType="1" res="-9.9000000000000000e+01" rms="0.0000000000000000e+00" purity="5.8504605293273926e-01" nType="1"/>
            <Node pos="r" depth="3" NCoef="0" IVar="6" Cut="2.2995784282684326e+00" cType="0" res="-9.9000000000000000e+01" rms="0.0000000000000000e+00" purity="4.2397210001945496e-01" nType="0">
              <Node pos="l" depth="4" NCoef="0" IVar="-1" Cut="0.0000000000000000e+00" cType="1" res="-9.9000000000000000e+01" rms="0.0000000000000000e+00" purity="5.0779908895492554e-01" nType="1"/>
              <Node pos="r" depth="4" NCoef="0" IVar="-1" Cut="0.0000000000000000e+00" cType="1" res="-9.9000000000000000e+01" rms="0.0000000000000000e+00" purity="3.3591619133949280e-01" nType="-1"/>
            </Node>
          </Node>
        </Node>
        <Node pos="r" depth="1" NCoef="0" IVar="5" Cut="1.7327629393548705e-05" cType="0" res="-9.9000000000000000e+01" rms="0.0000000000000000e+00" purity="4.3987193703651428e-01" nType="0">
          <Node pos="l" depth="2" NCoef="0" IVar="-1" Cut="0.0000000000000000e+00" cType="1" res="-9.9000000000000000e+01" rms="0.0000000000000000e+00" purity="5.3171753883361816e-01" nType="1"/>
          <Node pos="r" depth="2" NCoef="0" IVar="-1" Cut="7.0495450927410275e-05" cType="0" res="-9.9000000000000000e+01" rms="0.0000000000000000e+00" purity="3.8105055689811707e-01" nType="-1"/>
        </Node>
      </Node>
    </BinaryTree>
    <BinaryTree type="DecisionTree" boostWeight="1.6270789684165068e-01" itree="19">
      <Node pos="s" depth="0" NCoef="0" IVar="5" Cut="1.2476799383875914e-05" cType="0" res="-9.9000000000000000e+01" rms="0.0000000000000000e+00" purity="5.0440907478332520e-01" nType="0">
        <Node pos="l" depth="1" NCoef="0" IVar="1" Cut="7.3908951890189201e-05" cType="1" res="-9.9000000000000000e+01" rms="0.0000000000000000e+00" purity="5.3358697891235352e-01" nType="0">
          <Node pos="l" depth="2" NCoef="0" IVar="1" Cut="5.3091116569703445e-05" cType="0" res="-9.9000000000000000e+01" rms="0.0000000000000000e+00" purity="5.6302595138549805e-01" nType="0">
            <Node pos="l" depth="3" NCoef="0" IVar="-1" Cut="1.9771154687500000e+05" cType="1" res="-9.9000000000000000e+01" rms="0.0000000000000000e+00" purity="5.9353411197662354e-01" nType="1"/>
            <Node pos="r" depth="3" NCoef="0" IVar="-1" Cut="0.0000000000000000e+00" cType="1" res="-9.9000000000000000e+01" rms="0.0000000000000000e+00" purity="4.3228438496589661e-01" nType="-1"/>
          </Node>
          <Node pos="r" depth="2" NCoef="0" IVar="-1" Cut="0.0000000000000000e+00" cType="1" res="-9.9000000000000000e+01" rms="0.0000000000000000e+00" purity="4.7146311402320862e-01" nType="-1"/>
        </Node>
        <Node pos="r" depth="1" NCoef="0" IVar="6" Cut="1.7570757865905762e+00" cType="0" res="-9.9000000000000000e+01" rms="0.0000000000000000e+00" purity="4.7490629553794861e-01" nType="0">
          <Node pos="l" depth="2" NCoef="0" IVar="1" Cut="6.9401583459693938e-05" cType="0" res="-9.9000000000000000e+01" rms="0.0000000000000000e+00" purity="5.0232613086700439e-01" nType="0">
            <Node pos="l" depth="3" NCoef="0" IVar="-1" Cut="0.0000000000000000e+00" cType="1" res="-9.9000000000000000e+01" rms="0.0000000000000000e+00" purity="5.6906867027282715e-01" nType="1"/>
            <Node pos="r" depth="3" NCoef="0" IVar="1" Cut="5.3948035201756284e-05" cType="1" res="-9.9000000000000000e+01" rms="0.0000000000000000e+00" purity="4.7315570712089539e-01" nType="0">
              <Node pos="l" depth="4" NCoef="0" IVar="8" Cut="2.7737350463867188e+00" cType="0" res="-9.9000000000000000e+01" rms="0.0000000000000000e+00" purity="5.4534703493118286e-01" nType="0">
                <Node pos="l" depth="5" NCoef="0" IVar="-1" Cut="0.0000000000000000e+00" cType="1" res="-9.9000000000000000e+01" rms="0.0000000000000000e+00" purity="6.4386194944381714e-01" nType="1"/>
                <Node pos="r" depth="5" NCoef="0" IVar="-1" Cut="0.0000000000000000e+00" cType="1" res="-9.9000000000000000e+01" rms="0.0000000000000000e+00" purity="4.8459535837173462e-01" nType="-1"/>
              </Node>
              <Node pos="r" depth="4" NCoef="0" IVar="-1" Cut="8.0685395005275495e-06" cType="0" res="-9.9000000000000000e+01" rms="0.0000000000000000e+00" purity="4.1022777557373047e-01" nType="-1"/>
            </Node>
          </Node>
          <Node pos="r" depth="2" NCoef="0" IVar="-1" Cut="0.0000000000000000e+00" cType="1" res="-9.9000000000000000e+01" rms="0.0000000000000000e+00" purity="3.0132448673248291e-01" nType="-1"/>
        </Node>
      </Node>
    </BinaryTree>
    <BinaryTree type="DecisionTree" boostWeight="1.6190661763439035e-01" itree="20">
      <Node pos="s" depth="0" NCoef="0" IVar="5" Cut="1.8118576917913742e-05" cType="1" res="-9.9000000000000000e+01" rms="0.0000000000000000e+00" purity="5.0511759519577026e-01" nType="0">
        <Node pos="l" depth="1" NCoef="0" IVar="5" Cut="1.3015455806453247e-05" cType="0" res="-9.9000000000000000e+01" rms="0.0000000000000000e+00" purity="5.1958191394805908e-01" nType="0">
          <Node pos="l" depth="2" NCoef="0" IVar="5" Cut="1.3987782949698158e-05" cType="1" res="-9.9000000000000000e+01" rms="0.0000000000000000e+00" purity="5.6088495254516602e-01" nType="0">
            <Node pos="l" depth="3" NCoef="0" IVar="-1" Cut="0.0000000000000000e+00" cType="1" res="-9.9000000000000000e+01" rms="0.0000000000000000e+00" purity="6.7829293012619019e-01" nType="1"/>
            <Node pos="r" depth="3" NCoef="0" IVar="6" Cut="2.0347907543182373e+00" cType="0" res="-9.9000000000000000e+01" rms="0.0000000000000000e+00" purity="5.2274101972579956e-01" nType="0">
              <Node pos="l" depth="4" NCoef="0" IVar="-1" Cut="0.0000000000000000e+00" cType="1" res="-9.9000000000000000e+01" rms="0.0000000000000000e+00" purity="6.6217625141143799e-01" nType="1"/>
              <Node pos="r" depth="4" NCoef="0" IVar="0" Cut="1.0584501266479492e+01" cType="1" res="-9.9000000000000000e+01" rms="0.0000000000000000e+00" purity="4.9555042386054993e-01" nType="0">
                <Node pos="l" depth="5" NCoef="0" IVar="-1" Cut="0.0000000000000000e+00" cType="1" res="-9.9000000000000000e+01" rms="0.0000000000000000e+00" purity="5.2705085277557373e-01" nType="1"/>
                <Node pos="r" depth="5" NCoef="0" IVar="-1" Cut="0.0000000000000000e+00" cType="1" res="-9.9000000000000000e+01" rms="0.0000000000000000e+00" purity="3.7917664647102356e-01" nType="-1"/>
              </Node>
            </Node>
          </Node>
          <Node pos="r" depth="2" NCoef="0" IVar="1" Cut="6.4441301219630986e-05" cType="0" res="-9.9000000000000000e+01" rms="0.0000000000000000e+00" purity="4.8526680469512939e-01" nType="0">
            <Node pos="l" depth="3" NCoef="0" IVar="6" Cut="1.9098968505859375e+00" cType="1" res="-9.9000000000000000e+01" rms="0.0000000000000000e+00" purity="5.2139246463775635e-01" nType="0">
              <Node pos="l" depth="4" NCoef="0" IVar="-1" Cut="0.0000000000000000e+00" cType="1" res="-9.9000000000000000e+01" rms="0.0000000000000000e+00" purity="5.5894124507904053e-01" nType="1"/>
              <Node pos="r" depth="4" NCoef="0" IVar="-1" Cut="0.0000000000000000e+00" cType="1" res="-9.9000000000000000e+01" rms="0.0000000000000000e+00" purity="4.9063339829444885e-01" nType="-1"/>
            </Node>
            <Node pos="r" depth="3" NCoef="0" IVar="6" Cut="2.1695311069488525e+00" cType="0" res="-9.9000000000000000e+01" rms="0.0000000000000000e+00" purity="4.4686749577522278e-01" nType="0">
              <Node pos="l" depth="4" NCoef="0" IVar="1" Cut="4.4449159759096801e-05" cType="1" res="-9.9000000000000000e+01" rms="0.0000000000000000e+00" purity="4.8918619751930237e-01" nType="0">
                <Node pos="l" depth="5" NCoef="0" IVar="-1" Cut="0.0000000000000000e+00" cType="1" res="-9.9000000000000000e+01" rms="0.0000000000000000e+00" purity="5.8428800106048584e-01" nType="1"/>
                <Node pos="r" depth="5" NCoef="0" IVar="-1" Cut="0.0000000000000000e+00" cType="1" res="-9.9000000000000000e+01" rms="0.0000000000000000e+00" purity="4.4840881228446960e-01" nType="-1"/>
              </Node>
              <Node pos="r" depth="4" NCoef="0" IVar="-1" Cut="0.0000000000000000e+00" cType="1" res="-9.9000000000000000e+01" rms="0.0000000000000000e+00" purity="3.4248074889183044e-01" nType="-1"/>
            </Node>
          </Node>
        </Node>
        <Node pos="r" depth="1" NCoef="0" IVar="-1" Cut="0.0000000000000000e+00" cType="1" res="-9.9000000000000000e+01" rms="0.0000000000000000e+00" purity="3.6960044503211975e-01" nType="-1"/>
      </Node>
    </BinaryTree>
    <BinaryTree type="DecisionTree" boostWeight="1.4249398746149872e-01" itree="21">
      <Node pos="s" depth="0" NCoef="0" IVar="0" Cut="1.2468834877014160e+01" cType="1" res="-9.9000000000000000e+01" rms="0.0000000000000000e+00" purity="4.7908678650856018e-01" nType="0">
        <Node pos="l" depth="1" NCoef="0" IVar="5" Cut="5.9039466577814892e-06" cType="0" res="-9.9000000000000000e+01" rms="0.0000000000000000e+00" purity="4.9335533380508423e-01" nType="0">
          <Node pos="l" depth="2" NCoef="0" IVar="5" Cut="9.2559475888265297e-06" cType="1" res="-9.9000000000000000e+01" rms="0.0000000000000000e+00" purity="5.0216054916381836e-01" nType="0">
            <Node pos="l" depth="3" NCoef="0" IVar="-1" Cut="0.0000000000000000e+00" cType="1" res="-9.9000000000000000e+01" rms="0.0000000000000000e+00" purity="5.7398128509521484e-01" nType="1"/>
            <Node pos="r" depth="3" NCoef="0" IVar="0" Cut="8.5649204254150391e+00" cType="0" res="-9.9000000000000000e+01" rms="0.0000000000000000e+00" purity="4.8407781124114990e-01" nType="0">
              <Node pos="l" depth="4" NCoef="0" IVar="10" Cut="-9.5142858886718750e+02" cType="1" res="-9.9000000000000000e+01" rms="0.0000000000000000e+00" purity="5.0851869583129883e-01" nType="0">
                <Node pos="l" depth="5" NCoef="0" IVar="-1" Cut="0.0000000000000000e+00" cType="1" res="-9.9000000000000000e+01" rms="0.0000000000000000e+00" purity="5.2968645095825195e-01" nType="1"/>
                <Node pos="r" depth="5" NCoef="0" IVar="-1" Cut="0.0000000000000000e+00" cType="1" res="-9.9000000000000000e+01" rms="0.0000000000000000e+00" purity="4.2131134867668152e-01" nType="-1"/>
              </Node>
              <Node pos="r" depth="4" NCoef="0" IVar="-1" Cut="0.0000000000000000e+00" cType="1" res="-9.9000000000000000e+01" rms="0.0000000000000000e+00" purity="4.2007762193679810e-01" nType="-1"/>
            </Node>
          </Node>
          <Node pos="r" depth="2" NCoef="0" IVar="-1" Cut="0.0000000000000000e+00" cType="1" res="-9.9000000000000000e+01" rms="0.0000000000000000e+00" purity="3.4942179918289185e-01" nType="-1"/>
        </Node>
        <Node pos="r" depth="1" NCoef="0" IVar="-1" Cut="0.0000000000000000e+00" cType="1" res="-9.9000000000000000e+01" rms="0.0000000000000000e+00" purity="3.1037360429763794e-01" nType="-1"/>
      </Node>
    </BinaryTree>
    <BinaryTree type="DecisionTree" boostWeight="1.8465741611653025e-01" itree="22">
      <Node pos="s" depth="0" NCoef="0" IVar="6" Cut="2.0915389060974121e+00" cType="0" res="-9.9000000000000000e+01" rms="0.0000000000000000e+00" purity="4.7329348325729370e-01" nType="0">
        <Node pos="l" depth="1" NCoef="0" IVar="6" Cut="2.1857466697692871e+00" cType="1" res="-9.9000000000000000e+01" rms="0.0000000000000000e+00" purity="5.3217804431915283e-01" nType="0">
          <Node pos="l" depth="2" NCoef="0" IVar="-1" Cut="0.0000000000000000e+00" cType="1" res="-9.9000000000000000e+01" rms="0.0000000000000000e+00" purity="6.1585676670074463e-01" nType="1"/>
          <Node pos="r" depth="2" NCoef="0" IVar="6" Cut="2.2709429264068604e+00" cType="1" res="-9.9000000000000000e+01" rms="0.0000000000000000e+00" purity="5.0007313489913940e-01" nType="0">
            <Node pos="l" depth="3" NCoef="0" IVar="-1" Cut="0.0000000000000000e+00" cType="1" res="-9.9000000000000000e+01" rms="0.0000000000000000e+00" purity="5.4552757740020752e-01" nType="1"/>
            <Node pos="r" depth="3" NCoef="0" IVar="6" Cut="2.3865916728973389e+00" cType="0" res="-9.9000000000000000e+01" rms="0.0000000000000000e+00" purity="4.8212400078773499e-01" nType="0">
              <Node pos="l" depth="4" NCoef="0" IVar="-1" Cut="0.0000000000000000e+00" cType="1" res="-9.9000000000000000e+01" rms="0.0000000000000000e+00" purity="5.1292079687118530e-01" nType="1"/>
              <Node pos="r" depth="4" NCoef="0" IVar="-1" Cut="0.0000000000000000e+00" cType="1" res="-9.9000000000000000e+01" rms="0.0000000000000000e+00" purity="4.3087387084960938e-01" nType="-1"/>
            </Node>
          </Node>
        </Node>
        <Node pos="r" depth="1" NCoef="0" IVar="5" Cut="9.3591634140466340e-06" cType="0" res="-9.9000000000000000e+01" rms="0.0000000000000000e+00" purity="4.4156908988952637e-01" nType="0">
          <Node pos="l" depth="2" NCoef="0" IVar="10" Cut="-9.5142858886718750e+02" cType="1" res="-9.9000000000000000e+01" rms="0.0000000000000000e+00" purity="4.5997405052185059e-01" nType="0">
            <Node pos="l" depth="3" NCoef="0" IVar="1" Cut="6.0520356782944873e-05" cType="0" res="-9.9000000000000000e+01" rms="0.0000000000000000e+00" purity="4.8470428586006165e-01" nType="0">
              <Node pos="l" depth="4" NCoef="0" IVar="8" Cut="2.1571540832519531e+00" cType="0" res="-9.9000000000000000e+01" rms="0.0000000000000000e+00" purity="5.1824796199798584e-01" nType="0">
                <Node pos="l" depth="5" NCoef="0" IVar="-1" Cut="0.0000000000000000e+00" cType="1" res="-9.9000000000000000e+01" rms="0.0000000000000000e+00" purity="5.7032668590545654e-01" nType="1"/>
                <Node pos="r" depth="5" NCoef="0" IVar="-1" Cut="0.0000000000000000e+00" cType="1" res="-9.9000000000000000e+01" rms="0.0000000000000000e+00" purity="4.4748216867446899e-01" nType="-1"/>
              </Node>
              <Node pos="r" depth="4" NCoef="0" IVar="-1" Cut="0.0000000000000000e+00" cType="1" res="-9.9000000000000000e+01" rms="0.0000000000000000e+00" purity="3.1798300147056580e-01" nType="-1"/>
            </Node>
            <Node pos="r" depth="3" NCoef="0" IVar="-1" Cut="0.0000000000000000e+00" cType="1" res="-9.9000000000000000e+01" rms="0.0000000000000000e+00" purity="3.4665441513061523e-01" nType="-1"/>
          </Node>
          <Node pos="r" depth="2" NCoef="0" IVar="-1" Cut="0.0000000000000000e+00" cType="1" res="-9.9000000000000000e+01" rms="0.0000000000000000e+00" purity="2.6187026500701904e-01" nType="-1"/>
        </Node>
      </Node>
    </BinaryTree>
    <BinaryTree type="DecisionTree" boostWeight="1.4070485267298191e-01" itree="23">
      <Node pos="s" depth="0" NCoef="0" IVar="1" Cut="6.9528818130493164e-05" cType="0" res="-9.9000000000000000e+01" rms="0.0000000000000000e+00" purity="4.8976486921310425e-01" nType="0">
        <Node pos="l" depth="1" NCoef="0" IVar="5" Cut="1.2885214346169960e-05" cType="0" res="-9.9000000000000000e+01" rms="0.0000000000000000e+00" purity="5.2195954322814941e-01" nType="0">
          <Node pos="l" depth="2" NCoef="0" IVar="-1" Cut="0.0000000000000000e+00" cType="1" res="-9.9000000000000000e+01" rms="0.0000000000000000e+00" purity="5.5821180343627930e-01" nType="1"/>
          <Node pos="r" depth="2" NCoef="0" IVar="-1" Cut="2.3829514980316162e+00" cType="0" res="-9.9000000000000000e+01" rms="0.0000000000000000e+00" purity="4.6434801816940308e-01" nType="-1"/>
        </Node>
        <Node pos="r" depth="1" NCoef="0" IVar="6" Cut="1.7598530054092407e+00" cType="0" res="-9.9000000000000000e+01" rms="0.0000000000000000e+00" purity="4.6460774540901184e-01" nType="0">
          <Node pos="l" depth="2" NCoef="0" IVar="11" Cut="3.1802506250000000e+05" cType="1" res="-9.9000000000000000e+01" rms="0.0000000000000000e+00" purity="4.8388734459877014e-01" nType="0">
            <Node pos="l" depth="3" NCoef="0" IVar="3" Cut="1.5689248437500000e+05" cType="0" res="-9.9000000000000000e+01" rms="0.0000000000000000e+00" purity="5.0500601530075073e-01" nType="0">
              <Node pos="l" depth="4" NCoef="0" IVar="11" Cut="2.4203657812500000e+05" cType="1" res="-9.9000000000000000e+01" rms="0.0000000000000000e+00" purity="5.6278133392333984e-01" nType="0">
                <Node pos="l" depth="5" NCoef="0" IVar="-1" Cut="0.0000000000000000e+00" cType="1" res="-9.9000000000000000e+01" rms="0.0000000000000000e+00" purity="6.2204790115356445e-01" nType="1"/>
                <Node pos="r" depth="5" NCoef="0" IVar="-1" Cut="0.0000000000000000e+00" cType="1" res="-9.9000000000000000e+01" rms="0.0000000000000000e+00" purity="4.9705514311790466e-01" nType="-1"/>
              </Node>
              <Node pos="r" depth="4" NCoef="0" IVar="-1" Cut="0.0000000000000000e+00" cType="1" res="-9.9000000000000000e+01" rms="0.0000000000000000e+00" purity="4.2266020178794861e-01" nType="-1"/>
            </Node>
            <Node pos="r" depth="3" NCoef="0" IVar="-1" Cut="2.7715017795562744e+00" cType="0" res="-9.9000000000000000e+01" rms="0.0000000000000000e+00" purity="4.1045370697975159e-01" nType="-1"/>
          </Node>
          <Node pos="r" depth="2" NCoef="0" IVar="-1" Cut="0.0000000000000000e+00" cType="1" res="-9.9000000000000000e+01" rms="0.0000000000000000e+00" purity="3.4527891874313354e-01" nType="-1"/>
        </Node>
      </Node>
    </BinaryTree>
    <BinaryTree type="DecisionTree" boostWeight="1.8041629719690425e-01" itree="24">
      <Node pos="s" depth="0" NCoef="0" IVar="6" Cut="1.7619752883911133e+00" cType="1" res="-9.9000000000000000e+01" rms="0.0000000000000000e+00" purity="4.7251474857330322e-01" nType="0">
        <Node pos="l" depth="1" NCoef="0" IVar="0" Cut="1.0455672264099121e+01" cType="1" res="-9.9000000000000000e+01" rms="0.0000000000000000e+00" purity="5.1751399040222168e-01" nType="0">
          <Node pos="l" depth="2" NCoef="0" IVar="6" Cut="1.5655864477157593e+00" cType="1" res="-9.9000000000000000e+01" rms="0.0000000000000000e+00" purity="5.5192428827285767e-01" nType="0">
            <Node pos="l" depth="3" NCoef="0" IVar="-1" Cut="0.0000000000000000e+00" cType="1" res="-9.9000000000000000e+01" rms="0.0000000000000000e+00" purity="6.1214083433151245e-01" nType="1"/>
            <Node pos="r" depth="3" NCoef="0" IVar="-1" Cut="0.0000000000000000e+00" cType="1" res="-9.9000000000000000e+01" rms="0.0000000000000000e+00" purity="4.9218553304672241e-01" nType="-1"/>
          </Node>
          <Node pos="r" depth="2" NCoef="0" IVar="-1" Cut="0.0000000000000000e+00" cType="1" res="-9.9000000000000000e+01" rms="0.0000000000000000e+00" purity="4.0093028545379639e-01" nType="-1"/>
        </Node>
        <Node pos="r" depth="1" NCoef="0" IVar="5" Cut="8.7332527982653119e-06" cType="1" res="-9.9000000000000000e+01" rms="0.0000000000000000e+00" purity="4.5133468508720398e-01" nType="0">
          <Node pos="l" depth="2" NCoef="0" IVar="1" Cut="6.4450810896232724e-05" cType="0" res="-9.9000000000000000e+01" rms="0.0000000000000000e+00" purity="5.3902703523635864e-01" nType="0">
            <Node pos="l" depth="3" NCoef="0" IVar="-1" Cut="0.0000000000000000e+00" cType="1" res="-9.9000000000000000e+01" rms="0.0000000000000000e+00" purity="6.5760326385498047e-01" nType="1"/>
            <Node pos="r" depth="3" NCoef="0" IVar="12" Cut="3.5714286565780640e-01" cType="0" res="-9.9000000000000000e+01" rms="0.0000000000000000e+00" purity="4.7090730071067810e-01" nType="0">
              <Node pos="l" depth="4" NCoef="0" IVar="-1" Cut="0.0000000000000000e+00" cType="1" res="-9.9000000000000000e+01" rms="0.0000000000000000e+00" purity="5.3931158781051636e-01" nType="1"/>
              <Node pos="r" depth="4" NCoef="0" IVar="-1" Cut="0.0000000000000000e+00" cType="1" res="-9.9000000000000000e+01" rms="0.0000000000000000e+00" purity="3.8142028450965881e-01" nType="-1"/>
            </Node>
          </Node>
          <Node pos="r" depth="2" NCoef="0" IVar="3" Cut="1.9695445312500000e+05" cType="0" res="-9.9000000000000000e+01" rms="0.0000000000000000e+00" purity="4.1386663913726807e-01" nType="0">
            <Node pos="l" depth="3" NCoef="0" IVar="-1" Cut="0.0000000000000000e+00" cType="1" res="-9.9000000000000000e+01" rms="0.0000000000000000e+00" purity="5.2532595396041870e-01" nType="1"/>
            <Node pos="r" depth="3" NCoef="0" IVar="-1" Cut="-9.4402709960937500e+02" cType="0" res="-9.9000000000000000e+01" rms="0.0000000000000000e+00" purity="3.8484582304954529e-01" nType="-1"/>
          </Node>
        </Node>
      </Node>
    </BinaryTree>
    <BinaryTree type="DecisionTree" boostWeight="1.5164101813506245e-01" itree="25">
      <Node pos="s" depth="0" NCoef="0" IVar="6" Cut="1.6775379180908203e+00" cType="0" res="-9.9000000000000000e+01" rms="0.0000000000000000e+00" purity="4.8645401000976562e-01" nType="0">
        <Node pos="l" depth="1" NCoef="0" IVar="5" Cut="1.7178404959850013e-05" cType="1" res="-9.9000000000000000e+01" rms="0.0000000000000000e+00" purity="5.0827807188034058e-01" nType="0">
          <Node pos="l" depth="2" NCoef="0" IVar="8" Cut="2.2784433364868164e+00" cType="1" res="-9.9000000000000000e+01" rms="0.0000000000000000e+00" purity="5.2527892589569092e-01" nType="0">
            <Node pos="l" depth="3" NCoef="0" IVar="-1" Cut="2.2025167942047119e+00" cType="1" res="-9.9000000000000000e+01" rms="0.0000000000000000e+00" purity="6.2075114250183105e-01" nType="1"/>
            <Node pos="r" depth="3" NCoef="0" IVar="5" Cut="1.0735118848970160e-05" cType="1" res="-9.9000000000000000e+01" rms="0.0000000000000000e+00" purity="5.0389844179153442e-01" nType="0">
              <Node pos="l" depth="4" NCoef="0" IVar="1" Cut="6.5781801822595298e-05" cType="0" res="-9.9000000000000000e+01" rms="0.0000000000000000e+00" purity="5.3658390045166016e-01" nType="0">
                <Node pos="l" depth="5" NCoef="0" IVar="-1" Cut="0.0000000000000000e+00" cType="1" res="-9.9000000000000000e+01" rms="0.0000000000000000e+00" purity="6.0669833421707153e-01" nType="1"/>
                <Node pos="r" depth="5" NCoef="0" IVar="-1" Cut="0.0000000000000000e+00" cType="1" res="-9.9000000000000000e+01" rms="0.0000000000000000e+00" purity="4.8695227503776550e-01" nType="-1"/>
              </Node>
              <Node pos="r" depth="4" NCoef="0" IVar="8" Cut="2.4508814811706543e+00" cType="1" res="-9.9000000000000000e+01" rms="0.0000000000000000e+00" purity="4.5477905869483948e-01" nType="0">
                <Node pos="l" depth="5" NCoef="0" IVar="-1" Cut="0.0000000000000000e+00" cType="1" res="-9.9000000000000000e+01" rms="0.0000000000000000e+00" purity="5.0194960832595825e-01" nType="1"/>
                <Node pos="r" depth="5" NCoef="0" IVar="-1" Cut="0.0000000000000000e+00" cType="1" res="-9.9000000000000000e+01" rms="0.0000000000000000e+00" purity="3.5011491179466248e-01" nType="-1"/>
              </Node>
            </Node>
          </Node>
          <Node pos="r" depth="2" NCoef="0" IVar="-1" Cut="0.0000000000000000e+00" cType="1" res="-9.9000000000000000e+01" rms="0.0000000000000000e+00" purity="3.7638622522354126e-01" nType="-1"/>
        </Node>
        <Node pos="r" depth="1" NCoef="0" IVar="-1" Cut="1.5526430606842041e+00" cType="1" res="-9.9000000000000000e+01" rms="0.0000000000000000e+00" purity="4.0561631321907043e-01" nType="-1"/>
      </Node>
    </BinaryTree>
    <BinaryTree type="DecisionTree" boostWeight="2.0077686316496088e-01" itree="26">
      <Node pos="s" depth="0" NCoef="0" IVar="5" Cut="1.2474767572712153e-05" cType="1" res="-9.9000000000000000e+01" rms="0.0000000000000000e+00" purity="4.8545992374420166e-01" nType="0">
        <Node pos="l" depth="1" NCoef="0" IVar="2" Cut="2.2882568750000000e+05" cType="1" res="-9.9000000000000000e+01" rms="0.0000000000000000e+00" purity="5.2688074111938477e-01" nType="0">
          <Node pos="l" depth="2" NCoef="0" IVar="2" Cut="1.3071286718750000e+05" cType="1" res="-9.9000000000000000e+01" rms="0.0000000000000000e+00" purity="5.4514676332473755e-01" nType="0">
            <Node pos="l" depth="3" NCoef="0" IVar="-1" Cut="0.0000000000000000e+00" cType="1" res="-9.9000000000000000e+01" rms="0.0000000000000000e+00" purity="6.2378948926925659e-01" nType="1"/>
            <Node pos="r" depth="3" NCoef="0" IVar="6" Cut="1.9984952211380005e+00" cType="0" res="-9.9000000000000000e+01" rms="0.0000000000000000e+00" purity="4.8320436477661133e-01" nType="0">
              <Node pos="l" depth="4" NCoef="0" IVar="0" Cut="9.9975795745849609e+00" cType="0" res="-9.9000000000000000e+01" rms="0.0000000000000000e+00" purity="5.3511941432952881e-01" nType="0">
                <Node pos="l" depth="5" NCoef="0" IVar="-1" Cut="0.0000000000000000e+00" cType="1" res="-9.9000000000000000e+01" rms="0.0000000000000000e+00" purity="6.2517488002777100e-01" nType="1"/>
                <Node pos="r" depth="5" NCoef="0" IVar="-1" Cut="0.0000000000000000e+00" cType="1" res="-9.9000000000000000e+01" rms="0.0000000000000000e+00" purity="4.6771427989006042e-01" nType="-1"/>
              </Node>
              <Node pos="r" depth="4" NCoef="0" IVar="-1" Cut="0.0000000000000000e+00" cType="1" res="-9.9000000000000000e+01" rms="0.0000000000000000e+00" purity="2.9170191287994385e-01" nType="-1"/>
            </Node>
          </Node>
          <Node pos="r" depth="2" NCoef="0" IVar="-1" Cut="0.0000000000000000e+00" cType="1" res="-9.9000000000000000e+01" rms="0.0000000000000000e+00" purity="3.9890977740287781e-01" nType="-1"/>
        </Node>
        <Node pos="r" depth="1" NCoef="0" IVar="8" Cut="2.1432528495788574e+00" cType="1" res="-9.9000000000000000e+01" rms="0.0000000000000000e+00" purity="4.4339257478713989e-01" nType="0">
          <Node pos="l" depth="2" NCoef="0" IVar="5" Cut="1.5697032722528093e-05" cType="0" res="-9.9000000000000000e+01" rms="0.0000000000000000e+00" purity="4.9674317240715027e-01" nType="0">
            <Node pos="l" depth="3" NCoef="0" IVar="5" Cut="1.7743866919772699e-05" cType="1" res="-9.9000000000000000e+01" rms="0.0000000000000000e+00" purity="5.4685014486312866e-01" nType="0">
              <Node pos="l" depth="4" NCoef="0" IVar="-1" Cut="0.0000000000000000e+00" cType="1" res="-9.9000000000000000e+01" rms="0.0000000000000000e+00" purity="5.9437859058380127e-01" nType="1"/>
              <Node pos="r" depth="4" NCoef="0" IVar="-1" Cut="0.0000000000000000e+00" cType="1" res="-9.9000000000000000e+01" rms="0.0000000000000000e+00" purity="4.9271783232688904e-01" nType="-1"/>
            </Node>
            <Node pos="r" depth="3" NCoef="0" IVar="-1" Cut="0.0000000000000000e+00" cType="1" res="-9.9000000000000000e+01" rms="0.0000000000000000e+00" purity="3.5024666786193848e-01" nType="-1"/>
          </Node>
          <Node pos="r" depth="2" NCoef="0" IVar="-1" Cut="1.6053652871050872e-05" cType="1" res="-9.9000000000000000e+01" rms="0.0000000000000000e+00" purity="4.0467515587806702e-01" nType="-1"/>
        </Node>
      </Node>
    </BinaryTree>
    <BinaryTree type="DecisionTree" boostWeight="2.0564025952358289e-01" itree="27">
      <Node pos="s" depth="0" NCoef="0" IVar="6" Cut="1.5122480392456055e+00" cType="0" res="-9.9000000000000000e+01" rms="0.0000000000000000e+00" purity="5.0466233491897583e-01" nType="0">
        <Node pos="l" depth="1" NCoef="0" IVar="11" Cut="2.9227259375000000e+05" cType="1" res="-9.9000000000000000e+01" rms="0.0000000000000000e+00" purity="5.1957404613494873e-01" nType="0">
          <Node pos="l" depth="2" NCoef="0" IVar="7" Cut="3.2775199413299561e+00" cType="0" res="-9.9000000000000000e+01" rms="0.0000000000000000e+00" purity="5.3804266452789307e-01" nType="0">
            <Node pos="l" depth="3" NCoef="0" IVar="-1" Cut="2.1995363235473633e+00" cType="1" res="-9.9000000000000000e+01" rms="0.0000000000000000e+00" purity="6.0191351175308228e-01" nType="1"/>
            <Node pos="r" depth="3" NCoef="0" IVar="7" Cut="2.1320891380310059e+00" cType="1" res="-9.9000000000000000e+01" rms="0.0000000000000000e+00" purity="5.2368497848510742e-01" nType="0">
              <Node pos="l" depth="4" NCoef="0" IVar="3" Cut="1.2673517968750000e+05" cType="1" res="-9.9000000000000000e+01" rms="0.0000000000000000e+00" purity="5.7456183433532715e-01" nType="0">
                <Node pos="l" depth="5" NCoef="0" IVar="-1" Cut="0.0000000000000000e+00" cType="1" res="-9.9000000000000000e+01" rms="0.0000000000000000e+00" purity="6.1228626966476440e-01" nType="1"/>
                <Node pos="r" depth="5" NCoef="0" IVar="-1" Cut="0.0000000000000000e+00" cType="1" res="-9.9000000000000000e+01" rms="0.0000000000000000e+00" purity="4.5201188325881958e-01" nType="-1"/>
              </Node>
              <Node pos="r" depth="4" NCoef="0" IVar="0" Cut="9.0682535171508789e+00" cType="0" res="-9.9000000000000000e+01" rms="0.0000000000000000e+00" purity="4.8108592629432678e-01" nType="0">
                <Node pos="l" depth="5" NCoef="0" IVar="-1" Cut="0.0000000000000000e+00" cType="1" res="-9.9000000000000000e+01" rms="0.0000000000000000e+00" purity="5.7928216457366943e-01" nType="1"/>
                <Node pos="r" depth="5" NCoef="0" IVar="-1" Cut="0.0000000000000000e+00" cType="1" res="-9.9000000000000000e+01" rms="0.0000000000000000e+00" purity="3.6750444769859314e-01" nType="-1"/>
              </Node>
            </Node>
          </Node>
          <Node pos="r" depth="2" NCoef="0" IVar="-1" Cut="2.3928301334381104e+00" cType="0" res="-9.9000000000000000e+01" rms="0.0000000000000000e+00" purity="4.2368009686470032e-01" nType="-1"/>
        </Node>
        <Node pos="r" depth="1" NCoef="0" IVar="-1" Cut="0.0000000000000000e+00" cType="1" res="-9.9000000000000000e+01" rms="0.0000000000000000e+00" purity="3.5507968068122864e-01" nType="-1"/>
      </Node>
    </BinaryTree>
    <BinaryTree type="DecisionTree" boostWeight="1.4749580201746590e-01" itree="28">
      <Node pos="s" depth="0" NCoef="0" IVar="5" Cut="1.8118067600880750e-05" cType="1" res="-9.9000000000000000e+01" rms="0.0000000000000000e+00" purity="5.0691723823547363e-01" nType="0">
        <Node pos="l" depth="1" NCoef="0" IVar="1" Cut="4.4471875298768282e-05" cType="0" res="-9.9000000000000000e+01" rms="0.0000000000000000e+00" purity="5.1842296123504639e-01" nType="0">
          <Node pos="l" depth="2" NCoef="0" IVar="2" Cut="2.0774282812500000e+05" cType="1" res="-9.9000000000000000e+01" rms="0.0000000000000000e+00" purity="5.2565777301788330e-01" nType="0">
            <Node pos="l" depth="3" NCoef="0" IVar="1" Cut="6.0971975472057238e-05" cType="1" res="-9.9000000000000000e+01" rms="0.0000000000000000e+00" purity="5.3941845893859863e-01" nType="0">
              <Node pos="l" depth="4" NCoef="0" IVar="-1" Cut="2.5586302280426025e+00" cType="0" res="-9.9000000000000000e+01" rms="0.0000000000000000e+00" purity="6.0216140747070312e-01" nType="1"/>
              <Node pos="r" depth="4" NCoef="0" IVar="1" Cut="6.8792425736319274e-05" cType="0" res="-9.9000000000000000e+01" rms="0.0000000000000000e+00" purity="5.1377129554748535e-01" nType="0">
                <Node pos="l" depth="5" NCoef="0" IVar="-1" Cut="0.0000000000000000e+00" cType="1" res="-9.9000000000000000e+01" rms="0.0000000000000000e+00" purity="5.4410684108734131e-01" nType="1"/>
                <Node pos="r" depth="5" NCoef="0" IVar="-1" Cut="0.0000000000000000e+00" cType="1" res="-9.9000000000000000e+01" rms="0.0000000000000000e+00" purity="4.3565040826797485e-01" nType="-1"/>
              </Node>
            </Node>
            <Node pos="r" depth="3" NCoef="0" IVar="-1" Cut="0.0000000000000000e+00" cType="1" res="-9.9000000000000000e+01" rms="0.0000000000000000e+00" purity="3.6902418732643127e-01" nType="-1"/>
          </Node>
          <Node pos="r" depth="2" NCoef="0" IVar="-1" Cut="0.0000000000000000e+00" cType="1" res="-9.9000000000000000e+01" rms="0.0000000000000000e+00" purity="4.2189779877662659e-01" nType="-1"/>
        </Node>
        <Node pos="r" depth="1" NCoef="0" IVar="-1" Cut="0.0000000000000000e+00" cType="1" res="-9.9000000000000000e+01" rms="0.0000000000000000e+00" purity="4.0596714615821838e-01" nType="-1"/>
      </Node>
    </BinaryTree>
    <BinaryTree type="DecisionTree" boostWeight="1.5746979035622632e-01" itree="29">
      <Node pos="s" depth="0" NCoef="0" IVar="6" Cut="2.2506167888641357e+00" cType="0" res="-9.9000000000000000e+01" rms="0.0000000000000000e+00" purity="4.8131054639816284e-01" nType="0">
        <Node pos="l" depth="1" NCoef="0" IVar="5" Cut="6.8107678998785559e-06" cType="1" res="-9.9000000000000000e+01" rms="0.0000000000000000e+00" purity="5.3165179491043091e-01" nType="0">
          <Node pos="l" depth="2" NCoef="0" IVar="-1" Cut="0.0000000000000000e+00" cType="1" res="-9.9000000000000000e+01" rms="0.0000000000000000e+00" purity="5.9688985347747803e-01" nType="1"/>
          <Node pos="r" depth="2" NCoef="0" IVar="-1" Cut="0.0000000000000000e+00" cType="1" res="-9.9000000000000000e+01" rms="0.0000000000000000e+00" purity="4.6912774443626404e-01" nType="-1"/>
        </Node>
        <Node pos="r" depth="1" NCoef="0" IVar="5" Cut="9.9741982921841554e-06" cType="0" res="-9.9000000000000000e+01" rms="0.0000000000000000e+00" purity="4.6816912293434143e-01" nType="0">
          <Node pos="l" depth="2" NCoef="0" IVar="1" Cut="5.8035177062265575e-05" cType="0" res="-9.9000000000000000e+01" rms="0.0000000000000000e+00" purity="4.9105790257453918e-01" nType="0">
            <Node pos="l" depth="3" NCoef="0" IVar="1" Cut="6.3070387113839388e-05" cType="1" res="-9.9000000000000000e+01" rms="0.0000000000000000e+00" purity="5.0974774360656738e-01" nType="0">
              <Node pos="l" depth="4" NCoef="0" IVar="-1" Cut="0.0000000000000000e+00" cType="1" res="-9.9000000000000000e+01" rms="0.0000000000000000e+00" purity="5.8135581016540527e-01" nType="1"/>
              <Node pos="r" depth="4" NCoef="0" IVar="14" Cut="-9.3117211914062500e+02" cType="1" res="-9.9000000000000000e+01" rms="0.0000000000000000e+00" purity="4.9647426605224609e-01" nType="0">
                <Node pos="l" depth="5" NCoef="0" IVar="-1" Cut="0.0000000000000000e+00" cType="1" res="-9.9000000000000000e+01" rms="0.0000000000000000e+00" purity="5.5999976396560669e-01" nType="1"/>
                <Node pos="r" depth="5" NCoef="0" IVar="-1" Cut="0.0000000000000000e+00" cType="1" res="-9.9000000000000000e+01" rms="0.0000000000000000e+00" purity="4.4846495985984802e-01" nType="-1"/>
              </Node>
            </Node>
            <Node pos="r" depth="3" NCoef="0" IVar="6" Cut="1.9074892997741699e+00" cType="0" res="-9.9000000000000000e+01" rms="0.0000000000000000e+00" purity="4.1318646073341370e-01" nType="0">
              <Node pos="l" depth="4" NCoef="0" IVar="-1" Cut="0.0000000000000000e+00" cType="1" res="-9.9000000000000000e+01" rms="0.0000000000000000e+00" purity="5.1913905143737793e-01" nType="1"/>
              <Node pos="r" depth="4" NCoef="0" IVar="-1" Cut="0.0000000000000000e+00" cType="1" res="-9.9000000000000000e+01" rms="0.0000000000000000e+00" purity="2.8115412592887878e-01" nType="-1"/>
            </Node>
          </Node>
          <Node pos="r" depth="2" NCoef="0" IVar="-1" Cut="2.0362603664398193e+00" cType="0" res="-9.9000000000000000e+01" rms="0.0000000000000000e+00" purity="3.4883281588554382e-01" nType="-1"/>
        </Node>
      </Node>
    </BinaryTree>
    <BinaryTree type="DecisionTree" boostWeight="1.5329997525014852e-01" itree="30">
      <Node pos="s" depth="0" NCoef="0" IVar="6" Cut="2.2552976608276367e+00" cType="0" res="-9.9000000000000000e+01" rms="0.0000000000000000e+00" purity="4.6507254242897034e-01" nType="0">
        <Node pos="l" depth="1" NCoef="0" IVar="-1" Cut="2.5296330451965332e+00" cType="0" res="-9.9000000000000000e+01" rms="0.0000000000000000e+00" purity="5.7649964094161987e-01" nType="1"/>
        <Node pos="r" depth="1" NCoef="0" IVar="1" Cut="6.3343628426082432e-05" cType="0" res="-9.9000000000000000e+01" rms="0.0000000000000000e+00" purity="4.3505594134330750e-01" nType="0">
          <Node pos="l" depth="2" NCoef="0" IVar="1" Cut="6.6415581386536360e-05" cType="1" res="-9.9000000000000000e+01" rms="0.0000000000000000e+00" purity="4.5977076888084412e-01" nType="0">
            <Node pos="l" depth="3" NCoef="0" IVar="-1" Cut="0.0000000000000000e+00" cType="1" res="-9.9000000000000000e+01" rms="0.0000000000000000e+00" purity="5.4304248094558716e-01" nType="1"/>
            <Node pos="r" depth="3" NCoef="0" IVar="7" Cut="2.1213405132293701e+00" cType="1" res="-9.9000000000000000e+01" rms="0.0000000000000000e+00" purity="4.4615188241004944e-01" nType="0">
              <Node pos="l" depth="4" NCoef="0" IVar="7" Cut="1.6925456523895264e+00" cType="0" res="-9.9000000000000000e+01" rms="0.0000000000000000e+00" purity="4.8561659455299377e-01" nType="0">
                <Node pos="l" depth="5" NCoef="0" IVar="-1" Cut="0.0000000000000000e+00" cType="1" res="-9.9000000000000000e+01" rms="0.0000000000000000e+00" purity="5.0473141670227051e-01" nType="1"/>
                <Node pos="r" depth="5" NCoef="0" IVar="-1" Cut="0.0000000000000000e+00" cType="1" res="-9.9000000000000000e+01" rms="0.0000000000000000e+00" purity="4.4090664386749268e-01" nType="-1"/>
              </Node>
              <Node pos="r" depth="4" NCoef="0" IVar="-1" Cut="1.6942585706710815e+00" cType="1" res="-9.9000000000000000e+01" rms="0.0000000000000000e+00" purity="3.9097708463668823e-01" nType="-1"/>
            </Node>
          </Node>
