<?xml version="1.0"?>
<MethodSetup Method="BDT::BDT_Depth4_Trees200">
  <GeneralInfo>
    <Info name="TMVA Release" value="4.2.1 [262657]"/>
    <Info name="ROOT Release" value="6.32/08 [401416]"/>
    <Info name="Creator" value="jlai"/>
    <Info name="Date" value="Fri Apr 11 14:52:40 2025"/>
    <Info name="Host" value="Linux alma9-docker 4.18.0-553.el8_10.x86_64 #1 SMP Fri May 24 08:32:12 EDT 2024 x86_64 x86_64 x86_64 GNU/Linux"/>
    <Info name="Dir" value="/data/jlai/dark_photon/code2"/>
    <Info name="Training events" value="35368"/>
    <Info name="TrainingTime" value="3.40917802e+00"/>
    <Info name="AnalysisType" value="Classification"/>
  </GeneralInfo>
  <Options>
    <Option name="V" modified="Yes">False</Option>
    <Option name="VerbosityLevel" modified="No">Default</Option>
    <Option name="VarTransform" modified="No">None</Option>
    <Option name="H" modified="Yes">False</Option>
    <Option name="CreateMVAPdfs" modified="No">False</Option>
    <Option name="IgnoreNegWeightsInTraining" modified="No">False</Option>
    <Option name="NTrees" modified="Yes">200</Option>
    <Option name="MaxDepth" modified="Yes">4</Option>
    <Option name="MinNodeSize" modified="No">5%</Option>
    <Option name="nCuts" modified="Yes">20</Option>
    <Option name="BoostType" modified="Yes">AdaBoost</Option>
    <Option name="AdaBoostR2Loss" modified="No">quadratic</Option>
    <Option name="UseBaggedBoost" modified="Yes">True</Option>
    <Option name="Shrinkage" modified="No">1.000000e+00</Option>
    <Option name="AdaBoostBeta" modified="Yes">5.000000e-01</Option>
    <Option name="UseRandomisedTrees" modified="No">False</Option>
    <Option name="UseNvars" modified="No">4</Option>
    <Option name="UsePoissonNvars" modified="No">True</Option>
    <Option name="BaggedSampleFraction" modified="Yes">5.000000e-01</Option>
    <Option name="UseYesNoLeaf" modified="No">True</Option>
    <Option name="NegWeightTreatment" modified="No">inverseboostnegweights</Option>
    <Option name="Css" modified="No">1.000000e+00</Option>
    <Option name="Cts_sb" modified="No">1.000000e+00</Option>
    <Option name="Ctb_ss" modified="No">1.000000e+00</Option>
    <Option name="Cbb" modified="No">1.000000e+00</Option>
    <Option name="NodePurityLimit" modified="No">5.000000e-01</Option>
    <Option name="SeparationType" modified="Yes">giniindex</Option>
    <Option name="RegressionLossFunctionBDTG" modified="No">huber</Option>
    <Option name="HuberQuantile" modified="No">7.000000e-01</Option>
    <Option name="DoBoostMonitor" modified="No">False</Option>
    <Option name="UseFisherCuts" modified="No">False</Option>
    <Option name="MinLinCorrForFisher" modified="No">8.000000e-01</Option>
    <Option name="UseExclusiveVars" modified="No">False</Option>
    <Option name="DoPreselection" modified="No">False</Option>
    <Option name="SigToBkgFraction" modified="No">1.000000e+00</Option>
    <Option name="PruneMethod" modified="No">nopruning</Option>
    <Option name="PruneStrength" modified="No">0.000000e+00</Option>
    <Option name="PruningValFraction" modified="No">5.000000e-01</Option>
    <Option name="SkipNormalization" modified="No">False</Option>
    <Option name="nEventsMin" modified="No">0</Option>
    <Option name="UseBaggedGrad" modified="No">False</Option>
    <Option name="GradBaggingFraction" modified="No">5.000000e-01</Option>
    <Option name="UseNTrainEvents" modified="No">0</Option>
    <Option name="NNodesMax" modified="No">0</Option>
  </Options>
  <Variables NVar="15">
    <Variable VarIndex="0" Expression="metsig" Label="metsig" Title="metsig" Unit="" Internal="metsig" Type="F" Min="7.00026274e+00" Max="1.89987015e+02"/>
    <Variable VarIndex="1" Expression="metsigres" Label="metsigres" Title="metsigres" Unit="" Internal="metsigres" Type="F" Min="4.53302800e-06" Max="1.09372500e-04"/>
    <Variable VarIndex="2" Expression="met" Label="met" Title="met" Unit="" Internal="met" Type="F" Min="1.00010422e+05" Max="2.68783400e+07"/>
    <Variable VarIndex="3" Expression="met_noJVT" Label="met_noJVT" Title="met_noJVT" Unit="" Internal="met_noJVT" Type="F" Min="8.25701484e+04" Max="2.68783400e+07"/>
    <Variable VarIndex="4" Expression="dmet" Label="dmet" Title="dmet" Unit="" Internal="dmet" Type="F" Min="-1.99997969e+04" Max="4.90884688e+04"/>
    <Variable VarIndex="5" Expression="ph_pt" Label="ph_pt" Title="ph_pt" Unit="" Internal="ph_pt" Type="F" Min="2.58039023e-07" Max="1.99986334e-05"/>
    <Variable VarIndex="6" Expression="dphi_met_phterm" Label="dphi_met_phterm" Title="dphi_met_phterm" Unit="" Internal="dphi_met_phterm" Type="F" Min="1.35005057e+00" Max="3.08013415e+00"/>
    <Variable VarIndex="7" Expression="dphi_met_jetterm" Label="dphi_met_jetterm" Title="dphi_met_jetterm" Unit="" Internal="dphi_met_jetterm" Type="F" Min="-9.99000000e+02" Max="1.23723869e+02"/>
    <Variable VarIndex="8" Expression="dphi_phterm_jetterm" Label="dphi_phterm_jetterm" Title="dphi_phterm_jetterm" Unit="" Internal="dphi_phterm_jetterm" Type="F" Min="-9.99000000e+02" Max="3.14159274e+00"/>
    <Variable VarIndex="9" Expression="dphi_ph_centraljet1" Label="dphi_ph_centraljet1" Title="dphi_ph_centraljet1" Unit="" Internal="dphi_ph_centraljet1" Type="F" Min="-9.99000000e+02" Max="3.14143443e+00"/>
    <Variable VarIndex="10" Expression="failJVT_jet_pt1" Label="failJVT_jet_pt1" Title="failJVT_jet_pt1" Unit="" Internal="failJVT_jet_pt1" Type="F" Min="-9.99000000e+02" Max="4.99972593e-05"/>
    <Variable VarIndex="11" Expression="jetterm" Label="jetterm" Title="jetterm" Unit="" Internal="jetterm" Type="F" Min="0.00000000e+00" Max="4.38349900e+06"/>
    <Variable VarIndex="12" Expression="n_jet_central" Label="n_jet_central" Title="n_jet_central" Unit="" Internal="n_jet_central" Type="F" Min="-9.99000000e+02" Max="1.00000000e+00"/>
    <Variable VarIndex="13" Expression="dphi_met_central_jet" Label="dphi_met_central_jet" Title="dphi_met_central_jet" Unit="" Internal="dphi_met_central_jet" Type="F" Min="-9.99000000e+02" Max="3.14155865e+00"/>
    <Variable VarIndex="14" Expression="dphi_jj" Label="dphi_jj" Title="dphi_jj" Unit="" Internal="dphi_jj" Type="F" Min="-9.99000000e+02" Max="3.91762188e+04"/>
  </Variables>
  <Spectators NSpec="0"/>
  <Classes NClass="2">
    <Class Name="Signal" Index="0"/>
    <Class Name="Background" Index="1"/>
  </Classes>
  <Transformations NTransformations="0"/>
  <MVAPdfs/>
  <Weights NTrees="200" AnalysisType="0">
    <BinaryTree type="DecisionTree" boostWeight="1.9581315144311578e-01" itree="0">
      <Node pos="s" depth="0" NCoef="0" IVar="0" Cut="1.2471157073974609e+01" cType="1" res="-9.9000000000000000e+01" rms="0.0000000000000000e+00" purity="5.1165211200714111e-01" nType="0">
        <Node pos="l" depth="1" NCoef="0" IVar="8" Cut="2.1230258941650391e+00" cType="0" res="-9.9000000000000000e+01" rms="0.0000000000000000e+00" purity="5.3773456811904907e-01" nType="0">
          <Node pos="l" depth="2" NCoef="0" IVar="10" Cut="-9.5142858886718750e+02" cType="1" res="-9.9000000000000000e+01" rms="0.0000000000000000e+00" purity="5.7051801681518555e-01" nType="0">
            <Node pos="l" depth="3" NCoef="0" IVar="-1" Cut="1.0127023696899414e+01" cType="0" res="-9.9000000000000000e+01" rms="0.0000000000000000e+00" purity="5.9967368841171265e-01" nType="1"/>
            <Node pos="r" depth="3" NCoef="0" IVar="-1" Cut="0.0000000000000000e+00" cType="1" res="-9.9000000000000000e+01" rms="0.0000000000000000e+00" purity="4.6326300501823425e-01" nType="-1"/>
          </Node>
          <Node pos="r" depth="2" NCoef="0" IVar="5" Cut="1.4149601156532299e-05" cType="0" res="-9.9000000000000000e+01" rms="0.0000000000000000e+00" purity="4.4186902046203613e-01" nType="0">
            <Node pos="l" depth="3" NCoef="0" IVar="-1" Cut="0.0000000000000000e+00" cType="1" res="-9.9000000000000000e+01" rms="0.0000000000000000e+00" purity="5.1084375381469727e-01" nType="1"/>
            <Node pos="r" depth="3" NCoef="0" IVar="-1" Cut="0.0000000000000000e+00" cType="1" res="-9.9000000000000000e+01" rms="0.0000000000000000e+00" purity="2.3636989295482635e-01" nType="-1"/>
          </Node>
        </Node>
        <Node pos="r" depth="1" NCoef="0" IVar="6" Cut="2.0084345340728760e+00" cType="0" res="-9.9000000000000000e+01" rms="0.0000000000000000e+00" purity="3.0869191884994507e-01" nType="0">
          <Node pos="l" depth="2" NCoef="0" IVar="-1" Cut="0.0000000000000000e+00" cType="1" res="-9.9000000000000000e+01" rms="0.0000000000000000e+00" purity="5.0995725393295288e-01" nType="1"/>
          <Node pos="r" depth="2" NCoef="0" IVar="-1" Cut="0.0000000000000000e+00" cType="1" res="-9.9000000000000000e+01" rms="0.0000000000000000e+00" purity="9.7189366817474365e-02" nType="-1"/>
        </Node>
      </Node>
    </BinaryTree>
    <BinaryTree type="DecisionTree" boostWeight="2.4933897983272807e-01" itree="1">
      <Node pos="s" depth="0" NCoef="0" IVar="6" Cut="2.0875744819641113e+00" cType="0" res="-9.9000000000000000e+01" rms="0.0000000000000000e+00" purity="4.7511991858482361e-01" nType="0">
        <Node pos="l" depth="1" NCoef="0" IVar="1" Cut="6.1742524849250913e-05" cType="1" res="-9.9000000000000000e+01" rms="0.0000000000000000e+00" purity="5.6540888547897339e-01" nType="0">
          <Node pos="l" depth="2" NCoef="0" IVar="1" Cut="4.5720025809714571e-05" cType="0" res="-9.9000000000000000e+01" rms="0.0000000000000000e+00" purity="6.0354739427566528e-01" nType="0">
            <Node pos="l" depth="3" NCoef="0" IVar="-1" Cut="2.7966935634613037e+00" cType="0" res="-9.9000000000000000e+01" rms="0.0000000000000000e+00" purity="6.4846330881118774e-01" nType="1"/>
            <Node pos="r" depth="3" NCoef="0" IVar="-1" Cut="0.0000000000000000e+00" cType="1" res="-9.9000000000000000e+01" rms="0.0000000000000000e+00" purity="4.9395206570625305e-01" nType="-1"/>
          </Node>
          <Node pos="r" depth="2" NCoef="0" IVar="-1" Cut="0.0000000000000000e+00" cType="1" res="-9.9000000000000000e+01" rms="0.0000000000000000e+00" purity="4.7998818755149841e-01" nType="-1"/>
        </Node>
        <Node pos="r" depth="1" NCoef="0" IVar="1" Cut="6.0069301980547607e-05" cType="0" res="-9.9000000000000000e+01" rms="0.0000000000000000e+00" purity="4.3395948410034180e-01" nType="0">
          <Node pos="l" depth="2" NCoef="0" IVar="0" Cut="1.0456640243530273e+01" cType="1" res="-9.9000000000000000e+01" rms="0.0000000000000000e+00" purity="4.9756592512130737e-01" nType="0">
            <Node pos="l" depth="3" NCoef="0" IVar="0" Cut="8.9795236587524414e+00" cType="0" res="-9.9000000000000000e+01" rms="0.0000000000000000e+00" purity="5.5514037609100342e-01" nType="0">
              <Node pos="l" depth="4" NCoef="0" IVar="-1" Cut="0.0000000000000000e+00" cType="1" res="-9.9000000000000000e+01" rms="0.0000000000000000e+00" purity="6.3101941347122192e-01" nType="1"/>
              <Node pos="r" depth="4" NCoef="0" IVar="-1" Cut="0.0000000000000000e+00" cType="1" res="-9.9000000000000000e+01" rms="0.0000000000000000e+00" purity="4.8049759864807129e-01" nType="-1"/>
            </Node>
            <Node pos="r" depth="3" NCoef="0" IVar="-1" Cut="1.3953400411992334e-05" cType="0" res="-9.9000000000000000e+01" rms="0.0000000000000000e+00" purity="2.9821053147315979e-01" nType="-1"/>
          </Node>
          <Node pos="r" depth="2" NCoef="0" IVar="-1" Cut="1.8768429756164551e+00" cType="0" res="-9.9000000000000000e+01" rms="0.0000000000000000e+00" purity="2.4696186184883118e-01" nType="-1"/>
        </Node>
      </Node>
    </BinaryTree>
    <BinaryTree type="DecisionTree" boostWeight="2.5362368077834413e-01" itree="2">
      <Node pos="s" depth="0" NCoef="0" IVar="8" Cut="2.3007490634918213e+00" cType="0" res="-9.9000000000000000e+01" rms="0.0000000000000000e+00" purity="4.9506920576095581e-01" nType="0">
        <Node pos="l" depth="1" NCoef="0" IVar="6" Cut="2.2302367687225342e+00" cType="0" res="-9.9000000000000000e+01" rms="0.0000000000000000e+00" purity="5.6720864772796631e-01" nType="0">
          <Node pos="l" depth="2" NCoef="0" IVar="-1" Cut="-9.5142858886718750e+02" cType="0" res="-9.9000000000000000e+01" rms="0.0000000000000000e+00" purity="6.1363404989242554e-01" nType="1"/>
          <Node pos="r" depth="2" NCoef="0" IVar="7" Cut="1.9524379968643188e+00" cType="0" res="-9.9000000000000000e+01" rms="0.0000000000000000e+00" purity="5.3465735912322998e-01" nType="0">
            <Node pos="l" depth="3" NCoef="0" IVar="1" Cut="6.1042512243147939e-05" cType="0" res="-9.9000000000000000e+01" rms="0.0000000000000000e+00" purity="5.7630717754364014e-01" nType="0">
              <Node pos="l" depth="4" NCoef="0" IVar="-1" Cut="0.0000000000000000e+00" cType="1" res="-9.9000000000000000e+01" rms="0.0000000000000000e+00" purity="6.1983335018157959e-01" nType="1"/>
              <Node pos="r" depth="4" NCoef="0" IVar="-1" Cut="0.0000000000000000e+00" cType="1" res="-9.9000000000000000e+01" rms="0.0000000000000000e+00" purity="4.9356231093406677e-01" nType="-1"/>
            </Node>
            <Node pos="r" depth="3" NCoef="0" IVar="-1" Cut="0.0000000000000000e+00" cType="1" res="-9.9000000000000000e+01" rms="0.0000000000000000e+00" purity="4.3914768099784851e-01" nType="-1"/>
          </Node>
        </Node>
        <Node pos="r" depth="1" NCoef="0" IVar="1" Cut="5.8327750593889505e-05" cType="0" res="-9.9000000000000000e+01" rms="0.0000000000000000e+00" purity="4.1379430890083313e-01" nType="0">
          <Node pos="l" depth="2" NCoef="0" IVar="5" Cut="1.2262152267794590e-05" cType="0" res="-9.9000000000000000e+01" rms="0.0000000000000000e+00" purity="4.9037227034568787e-01" nType="0">
            <Node pos="l" depth="3" NCoef="0" IVar="11" Cut="1.5258414062500000e+05" cType="1" res="-9.9000000000000000e+01" rms="0.0000000000000000e+00" purity="5.3489017486572266e-01" nType="0">
              <Node pos="l" depth="4" NCoef="0" IVar="-1" Cut="0.0000000000000000e+00" cType="1" res="-9.9000000000000000e+01" rms="0.0000000000000000e+00" purity="5.9490126371383667e-01" nType="1"/>
              <Node pos="r" depth="4" NCoef="0" IVar="-1" Cut="0.0000000000000000e+00" cType="1" res="-9.9000000000000000e+01" rms="0.0000000000000000e+00" purity="4.2536890506744385e-01" nType="-1"/>
            </Node>
            <Node pos="r" depth="3" NCoef="0" IVar="-1" Cut="0.0000000000000000e+00" cType="1" res="-9.9000000000000000e+01" rms="0.0000000000000000e+00" purity="2.6013630628585815e-01" nType="-1"/>
          </Node>
          <Node pos="r" depth="2" NCoef="0" IVar="-1" Cut="1.6381682144128717e-05" cType="0" res="-9.9000000000000000e+01" rms="0.0000000000000000e+00" purity="2.0057910680770874e-01" nType="-1"/>
        </Node>
      </Node>
    </BinaryTree>
    <BinaryTree type="DecisionTree" boostWeight="2.0579674814907514e-01" itree="3">
      <Node pos="s" depth="0" NCoef="0" IVar="0" Cut="1.2472007751464844e+01" cType="1" res="-9.9000000000000000e+01" rms="0.0000000000000000e+00" purity="4.5614174008369446e-01" nType="0">
        <Node pos="l" depth="1" NCoef="0" IVar="8" Cut="2.3543741703033447e+00" cType="0" res="-9.9000000000000000e+01" rms="0.0000000000000000e+00" purity="4.7636061906814575e-01" nType="0">
          <Node pos="l" depth="2" NCoef="0" IVar="5" Cut="9.6447920441278256e-06" cType="0" res="-9.9000000000000000e+01" rms="0.0000000000000000e+00" purity="5.3966176509857178e-01" nType="0">
            <Node pos="l" depth="3" NCoef="0" IVar="-1" Cut="0.0000000000000000e+00" cType="1" res="-9.9000000000000000e+01" rms="0.0000000000000000e+00" purity="5.8922189474105835e-01" nType="1"/>
            <Node pos="r" depth="3" NCoef="0" IVar="7" Cut="2.6419832706451416e+00" cType="0" res="-9.9000000000000000e+01" rms="0.0000000000000000e+00" purity="4.9607494473457336e-01" nType="0">
              <Node pos="l" depth="4" NCoef="0" IVar="-1" Cut="0.0000000000000000e+00" cType="1" res="-9.9000000000000000e+01" rms="0.0000000000000000e+00" purity="5.7252287864685059e-01" nType="1"/>
              <Node pos="r" depth="4" NCoef="0" IVar="-1" Cut="0.0000000000000000e+00" cType="1" res="-9.9000000000000000e+01" rms="0.0000000000000000e+00" purity="4.4137695431709290e-01" nType="-1"/>
            </Node>
          </Node>
          <Node pos="r" depth="2" NCoef="0" IVar="1" Cut="5.7720066251931712e-05" cType="0" res="-9.9000000000000000e+01" rms="0.0000000000000000e+00" purity="4.2340248823165894e-01" nType="0">
            <Node pos="l" depth="3" NCoef="0" IVar="5" Cut="1.4438437574426644e-05" cType="0" res="-9.9000000000000000e+01" rms="0.0000000000000000e+00" purity="4.7600293159484863e-01" nType="0">
              <Node pos="l" depth="4" NCoef="0" IVar="-1" Cut="0.0000000000000000e+00" cType="1" res="-9.9000000000000000e+01" rms="0.0000000000000000e+00" purity="5.2199572324752808e-01" nType="1"/>
              <Node pos="r" depth="4" NCoef="0" IVar="-1" Cut="0.0000000000000000e+00" cType="1" res="-9.9000000000000000e+01" rms="0.0000000000000000e+00" purity="4.0515568852424622e-01" nType="-1"/>
            </Node>
            <Node pos="r" depth="3" NCoef="0" IVar="-1" Cut="0.0000000000000000e+00" cType="1" res="-9.9000000000000000e+01" rms="0.0000000000000000e+00" purity="2.4217680096626282e-01" nType="-1"/>
          </Node>
        </Node>
        <Node pos="r" depth="1" NCoef="0" IVar="-1" Cut="0.0000000000000000e+00" cType="1" res="-9.9000000000000000e+01" rms="0.0000000000000000e+00" purity="2.7249291539192200e-01" nType="-1"/>
      </Node>
    </BinaryTree>
    <BinaryTree type="DecisionTree" boostWeight="1.7122240757129897e-01" itree="4">
      <Node pos="s" depth="0" NCoef="0" IVar="0" Cut="1.2471157073974609e+01" cType="1" res="-9.9000000000000000e+01" rms="0.0000000000000000e+00" purity="5.0481379032135010e-01" nType="0">
        <Node pos="l" depth="1" NCoef="0" IVar="6" Cut="1.5929588079452515e+00" cType="0" res="-9.9000000000000000e+01" rms="0.0000000000000000e+00" purity="5.2548742294311523e-01" nType="0">
          <Node pos="l" depth="2" NCoef="0" IVar="0" Cut="9.0858716964721680e+00" cType="0" res="-9.9000000000000000e+01" rms="0.0000000000000000e+00" purity="5.4883199930191040e-01" nType="0">
            <Node pos="l" depth="3" NCoef="0" IVar="-1" Cut="-9.1141076660156250e+02" cType="1" res="-9.9000000000000000e+01" rms="0.0000000000000000e+00" purity="5.9217435121536255e-01" nType="1"/>
            <Node pos="r" depth="3" NCoef="0" IVar="5" Cut="1.0546715202508494e-05" cType="1" res="-9.9000000000000000e+01" rms="0.0000000000000000e+00" purity="5.0099456310272217e-01" nType="0">
              <Node pos="l" depth="4" NCoef="0" IVar="-1" Cut="0.0000000000000000e+00" cType="1" res="-9.9000000000000000e+01" rms="0.0000000000000000e+00" purity="5.5144381523132324e-01" nType="1"/>
              <Node pos="r" depth="4" NCoef="0" IVar="-1" Cut="0.0000000000000000e+00" cType="1" res="-9.9000000000000000e+01" rms="0.0000000000000000e+00" purity="4.5148494839668274e-01" nType="-1"/>
            </Node>
          </Node>
          <Node pos="r" depth="2" NCoef="0" IVar="-1" Cut="1.9446330070495605e+00" cType="1" res="-9.9000000000000000e+01" rms="0.0000000000000000e+00" purity="4.1327229142189026e-01" nType="-1"/>
        </Node>
        <Node pos="r" depth="1" NCoef="0" IVar="-1" Cut="0.0000000000000000e+00" cType="1" res="-9.9000000000000000e+01" rms="0.0000000000000000e+00" purity="3.2868808507919312e-01" nType="-1"/>
      </Node>
    </BinaryTree>
    <BinaryTree type="DecisionTree" boostWeight="1.1064833965882977e-01" itree="5">
      <Node pos="s" depth="0" NCoef="0" IVar="4" Cut="6.3291040039062500e+03" cType="0" res="-9.9000000000000000e+01" rms="0.0000000000000000e+00" purity="4.9646800756454468e-01" nType="0">
        <Node pos="l" depth="1" NCoef="0" IVar="-1" Cut="0.0000000000000000e+00" cType="1" res="-9.9000000000000000e+01" rms="0.0000000000000000e+00" purity="6.0583430528640747e-01" nType="1"/>
        <Node pos="r" depth="1" NCoef="0" IVar="1" Cut="7.5149881013203412e-05" cType="0" res="-9.9000000000000000e+01" rms="0.0000000000000000e+00" purity="4.8681759834289551e-01" nType="0">
          <Node pos="l" depth="2" NCoef="0" IVar="-1" Cut="0.0000000000000000e+00" cType="1" res="-9.9000000000000000e+01" rms="0.0000000000000000e+00" purity="5.6281185150146484e-01" nType="1"/>
          <Node pos="r" depth="2" NCoef="0" IVar="6" Cut="1.5972430706024170e+00" cType="0" res="-9.9000000000000000e+01" rms="0.0000000000000000e+00" purity="4.6406009793281555e-01" nType="0">
            <Node pos="l" depth="3" NCoef="0" IVar="1" Cut="5.5586428061360493e-05" cType="0" res="-9.9000000000000000e+01" rms="0.0000000000000000e+00" purity="4.8736304044723511e-01" nType="0">
              <Node pos="l" depth="4" NCoef="0" IVar="-1" Cut="0.0000000000000000e+00" cType="1" res="-9.9000000000000000e+01" rms="0.0000000000000000e+00" purity="5.0934153795242310e-01" nType="1"/>
              <Node pos="r" depth="4" NCoef="0" IVar="-1" Cut="0.0000000000000000e+00" cType="1" res="-9.9000000000000000e+01" rms="0.0000000000000000e+00" purity="4.4207626581192017e-01" nType="-1"/>
            </Node>
            <Node pos="r" depth="3" NCoef="0" IVar="-1" Cut="0.0000000000000000e+00" cType="1" res="-9.9000000000000000e+01" rms="0.0000000000000000e+00" purity="2.9775246977806091e-01" nType="-1"/>
          </Node>
        </Node>
      </Node>
    </BinaryTree>
    <BinaryTree type="DecisionTree" boostWeight="2.1971836271387538e-01" itree="6">
      <Node pos="s" depth="0" NCoef="0" IVar="5" Cut="9.6575386123731732e-06" cType="0" res="-9.9000000000000000e+01" rms="0.0000000000000000e+00" purity="4.7172358632087708e-01" nType="0">
        <Node pos="l" depth="1" NCoef="0" IVar="8" Cut="2.2341616153717041e+00" cType="0" res="-9.9000000000000000e+01" rms="0.0000000000000000e+00" purity="5.0226503610610962e-01" nType="0">
          <Node pos="l" depth="2" NCoef="0" IVar="-1" Cut="2.4176406860351562e+00" cType="1" res="-9.9000000000000000e+01" rms="0.0000000000000000e+00" purity="5.6666016578674316e-01" nType="1"/>
          <Node pos="r" depth="2" NCoef="0" IVar="5" Cut="1.5566780348308384e-05" cType="0" res="-9.9000000000000000e+01" rms="0.0000000000000000e+00" purity="4.2663156986236572e-01" nType="0">
            <Node pos="l" depth="3" NCoef="0" IVar="5" Cut="1.7045667846105061e-05" cType="1" res="-9.9000000000000000e+01" rms="0.0000000000000000e+00" purity="4.9647784233093262e-01" nType="0">
              <Node pos="l" depth="4" NCoef="0" IVar="-1" Cut="0.0000000000000000e+00" cType="1" res="-9.9000000000000000e+01" rms="0.0000000000000000e+00" purity="6.1118900775909424e-01" nType="1"/>
              <Node pos="r" depth="4" NCoef="0" IVar="-1" Cut="0.0000000000000000e+00" cType="1" res="-9.9000000000000000e+01" rms="0.0000000000000000e+00" purity="4.4008818268775940e-01" nType="-1"/>
            </Node>
            <Node pos="r" depth="3" NCoef="0" IVar="-1" Cut="1.5771780014038086e+00" cType="1" res="-9.9000000000000000e+01" rms="0.0000000000000000e+00" purity="3.3753347396850586e-01" nType="-1"/>
          </Node>
        </Node>
        <Node pos="r" depth="1" NCoef="0" IVar="6" Cut="2.0789601802825928e+00" cType="0" res="-9.9000000000000000e+01" rms="0.0000000000000000e+00" purity="3.8977205753326416e-01" nType="0">
          <Node pos="l" depth="2" NCoef="0" IVar="1" Cut="5.5106727813836187e-05" cType="0" res="-9.9000000000000000e+01" rms="0.0000000000000000e+00" purity="4.8497900366783142e-01" nType="0">
            <Node pos="l" depth="3" NCoef="0" IVar="-1" Cut="0.0000000000000000e+00" cType="1" res="-9.9000000000000000e+01" rms="0.0000000000000000e+00" purity="5.5837160348892212e-01" nType="1"/>
            <Node pos="r" depth="3" NCoef="0" IVar="-1" Cut="0.0000000000000000e+00" cType="1" res="-9.9000000000000000e+01" rms="0.0000000000000000e+00" purity="3.7075087428092957e-01" nType="-1"/>
          </Node>
          <Node pos="r" depth="2" NCoef="0" IVar="-1" Cut="0.0000000000000000e+00" cType="1" res="-9.9000000000000000e+01" rms="0.0000000000000000e+00" purity="1.6105663776397705e-01" nType="-1"/>
        </Node>
      </Node>
    </BinaryTree>
    <BinaryTree type="DecisionTree" boostWeight="1.8748687460740482e-01" itree="7">
      <Node pos="s" depth="0" NCoef="0" IVar="6" Cut="2.4973397254943848e+00" cType="0" res="-9.9000000000000000e+01" rms="0.0000000000000000e+00" purity="4.6152633428573608e-01" nType="0">
        <Node pos="l" depth="1" NCoef="0" IVar="-1" Cut="0.0000000000000000e+00" cType="1" res="-9.9000000000000000e+01" rms="0.0000000000000000e+00" purity="6.4589601755142212e-01" nType="1"/>
        <Node pos="r" depth="1" NCoef="0" IVar="1" Cut="7.7811731898691505e-05" cType="0" res="-9.9000000000000000e+01" rms="0.0000000000000000e+00" purity="4.4902026653289795e-01" nType="0">
          <Node pos="l" depth="2" NCoef="0" IVar="-1" Cut="0.0000000000000000e+00" cType="1" res="-9.9000000000000000e+01" rms="0.0000000000000000e+00" purity="5.9126490354537964e-01" nType="1"/>
          <Node pos="r" depth="2" NCoef="0" IVar="-1" Cut="1.6231611967086792e+00" cType="0" res="-9.9000000000000000e+01" rms="0.0000000000000000e+00" purity="4.1153472661972046e-01" nType="-1"/>
        </Node>
      </Node>
    </BinaryTree>
    <BinaryTree type="DecisionTree" boostWeight="1.7102582413923473e-01" itree="8">
      <Node pos="s" depth="0" NCoef="0" IVar="8" Cut="2.1660306453704834e+00" cType="0" res="-9.9000000000000000e+01" rms="0.0000000000000000e+00" purity="4.7393491864204407e-01" nType="0">
        <Node pos="l" depth="1" NCoef="0" IVar="5" Cut="8.7386388258892111e-06" cType="0" res="-9.9000000000000000e+01" rms="0.0000000000000000e+00" purity="5.1065254211425781e-01" nType="0">
          <Node pos="l" depth="2" NCoef="0" IVar="5" Cut="1.0882205970119685e-05" cType="1" res="-9.9000000000000000e+01" rms="0.0000000000000000e+00" purity="5.3230792284011841e-01" nType="0">
            <Node pos="l" depth="3" NCoef="0" IVar="-1" Cut="0.0000000000000000e+00" cType="1" res="-9.9000000000000000e+01" rms="0.0000000000000000e+00" purity="6.0447078943252563e-01" nType="1"/>
            <Node pos="r" depth="3" NCoef="0" IVar="6" Cut="2.0141637325286865e+00" cType="1" res="-9.9000000000000000e+01" rms="0.0000000000000000e+00" purity="5.0195056200027466e-01" nType="0">
              <Node pos="l" depth="4" NCoef="0" IVar="-1" Cut="0.0000000000000000e+00" cType="1" res="-9.9000000000000000e+01" rms="0.0000000000000000e+00" purity="5.3969520330429077e-01" nType="1"/>
              <Node pos="r" depth="4" NCoef="0" IVar="-1" Cut="0.0000000000000000e+00" cType="1" res="-9.9000000000000000e+01" rms="0.0000000000000000e+00" purity="4.2832559347152710e-01" nType="-1"/>
            </Node>
          </Node>
          <Node pos="r" depth="2" NCoef="0" IVar="6" Cut="2.3118925094604492e+00" cType="0" res="-9.9000000000000000e+01" rms="0.0000000000000000e+00" purity="4.5597761869430542e-01" nType="0">
            <Node pos="l" depth="3" NCoef="0" IVar="6" Cut="2.4944975376129150e+00" cType="0" res="-9.9000000000000000e+01" rms="0.0000000000000000e+00" purity="5.2525722980499268e-01" nType="0">
              <Node pos="l" depth="4" NCoef="0" IVar="-1" Cut="0.0000000000000000e+00" cType="1" res="-9.9000000000000000e+01" rms="0.0000000000000000e+00" purity="5.6509864330291748e-01" nType="1"/>
              <Node pos="r" depth="4" NCoef="0" IVar="-1" Cut="0.0000000000000000e+00" cType="1" res="-9.9000000000000000e+01" rms="0.0000000000000000e+00" purity="4.8940971493721008e-01" nType="-1"/>
            </Node>
            <Node pos="r" depth="3" NCoef="0" IVar="-1" Cut="0.0000000000000000e+00" cType="1" res="-9.9000000000000000e+01" rms="0.0000000000000000e+00" purity="3.7289720773696899e-01" nType="-1"/>
          </Node>
        </Node>
        <Node pos="r" depth="1" NCoef="0" IVar="-1" Cut="1.2889394383819308e-05" cType="0" res="-9.9000000000000000e+01" rms="0.0000000000000000e+00" purity="3.7471607327461243e-01" nType="-1"/>
      </Node>
    </BinaryTree>
    <BinaryTree type="DecisionTree" boostWeight="1.7261555433463460e-01" itree="9">
      <Node pos="s" depth="0" NCoef="0" IVar="1" Cut="7.8194927482400090e-05" cType="0" res="-9.9000000000000000e+01" rms="0.0000000000000000e+00" purity="4.7190573811531067e-01" nType="0">
        <Node pos="l" depth="1" NCoef="0" IVar="-1" Cut="0.0000000000000000e+00" cType="1" res="-9.9000000000000000e+01" rms="0.0000000000000000e+00" purity="5.4810923337936401e-01" nType="1"/>
        <Node pos="r" depth="1" NCoef="0" IVar="6" Cut="1.6795903444290161e+00" cType="0" res="-9.9000000000000000e+01" rms="0.0000000000000000e+00" purity="4.5423957705497742e-01" nType="0">
          <Node pos="l" depth="2" NCoef="0" IVar="1" Cut="6.0654099797829986e-05" cType="1" res="-9.9000000000000000e+01" rms="0.0000000000000000e+00" purity="4.7256186604499817e-01" nType="0">
            <Node pos="l" depth="3" NCoef="0" IVar="11" Cut="3.4716712500000000e+05" cType="1" res="-9.9000000000000000e+01" rms="0.0000000000000000e+00" purity="5.1067113876342773e-01" nType="0">
              <Node pos="l" depth="4" NCoef="0" IVar="-1" Cut="0.0000000000000000e+00" cType="1" res="-9.9000000000000000e+01" rms="0.0000000000000000e+00" purity="5.4648202657699585e-01" nType="1"/>
              <Node pos="r" depth="4" NCoef="0" IVar="-1" Cut="0.0000000000000000e+00" cType="1" res="-9.9000000000000000e+01" rms="0.0000000000000000e+00" purity="3.9563053846359253e-01" nType="-1"/>
            </Node>
            <Node pos="r" depth="3" NCoef="0" IVar="0" Cut="9.7022972106933594e+00" cType="0" res="-9.9000000000000000e+01" rms="0.0000000000000000e+00" purity="4.3690091371536255e-01" nType="0">
              <Node pos="l" depth="4" NCoef="0" IVar="-1" Cut="0.0000000000000000e+00" cType="1" res="-9.9000000000000000e+01" rms="0.0000000000000000e+00" purity="5.1445889472961426e-01" nType="1"/>
              <Node pos="r" depth="4" NCoef="0" IVar="-1" Cut="0.0000000000000000e+00" cType="1" res="-9.9000000000000000e+01" rms="0.0000000000000000e+00" purity="3.8777139782905579e-01" nType="-1"/>
            </Node>
          </Node>
          <Node pos="r" depth="2" NCoef="0" IVar="5" Cut="1.5552439435850829e-05" cType="0" res="-9.9000000000000000e+01" rms="0.0000000000000000e+00" purity="3.6238545179367065e-01" nType="0">
            <Node pos="l" depth="3" NCoef="0" IVar="-1" Cut="0.0000000000000000e+00" cType="1" res="-9.9000000000000000e+01" rms="0.0000000000000000e+00" purity="5.8339893817901611e-01" nType="1"/>
            <Node pos="r" depth="3" NCoef="0" IVar="-1" Cut="0.0000000000000000e+00" cType="1" res="-9.9000000000000000e+01" rms="0.0000000000000000e+00" purity="1.0372748225927353e-01" nType="-1"/>
          </Node>
        </Node>
      </Node>
    </BinaryTree>
    <BinaryTree type="DecisionTree" boostWeight="1.5155411469301588e-01" itree="10">
      <Node pos="s" depth="0" NCoef="0" IVar="5" Cut="1.3418435628409497e-05" cType="0" res="-9.9000000000000000e+01" rms="0.0000000000000000e+00" purity="4.7491878271102905e-01" nType="0">
        <Node pos="l" depth="1" NCoef="0" IVar="8" Cut="2.2090697288513184e+00" cType="1" res="-9.9000000000000000e+01" rms="0.0000000000000000e+00" purity="5.2917850017547607e-01" nType="0">
          <Node pos="l" depth="2" NCoef="0" IVar="0" Cut="1.0289945602416992e+01" cType="1" res="-9.9000000000000000e+01" rms="0.0000000000000000e+00" purity="5.8150339126586914e-01" nType="0">
            <Node pos="l" depth="3" NCoef="0" IVar="-1" Cut="0.0000000000000000e+00" cType="1" res="-9.9000000000000000e+01" rms="0.0000000000000000e+00" purity="6.1386924982070923e-01" nType="1"/>
            <Node pos="r" depth="3" NCoef="0" IVar="-1" Cut="0.0000000000000000e+00" cType="1" res="-9.9000000000000000e+01" rms="0.0000000000000000e+00" purity="4.9636435508728027e-01" nType="-1"/>
          </Node>
          <Node pos="r" depth="2" NCoef="0" IVar="-1" Cut="0.0000000000000000e+00" cType="1" res="-9.9000000000000000e+01" rms="0.0000000000000000e+00" purity="4.5067003369331360e-01" nType="-1"/>
        </Node>
        <Node pos="r" depth="1" NCoef="0" IVar="6" Cut="1.6796258687973022e+00" cType="0" res="-9.9000000000000000e+01" rms="0.0000000000000000e+00" purity="4.3263247609138489e-01" nType="0">
          <Node pos="l" depth="2" NCoef="0" IVar="10" Cut="-9.5142858886718750e+02" cType="0" res="-9.9000000000000000e+01" rms="0.0000000000000000e+00" purity="4.5716601610183716e-01" nType="0">
            <Node pos="l" depth="3" NCoef="0" IVar="-1" Cut="4.0489401726517826e-05" cType="1" res="-9.9000000000000000e+01" rms="0.0000000000000000e+00" purity="5.3148889541625977e-01" nType="1"/>
            <Node pos="r" depth="3" NCoef="0" IVar="-1" Cut="9.0348985395394266e-06" cType="0" res="-9.9000000000000000e+01" rms="0.0000000000000000e+00" purity="4.3593591451644897e-01" nType="-1"/>
          </Node>
          <Node pos="r" depth="2" NCoef="0" IVar="-1" Cut="0.0000000000000000e+00" cType="1" res="-9.9000000000000000e+01" rms="0.0000000000000000e+00" purity="2.8355306386947632e-01" nType="-1"/>
        </Node>
      </Node>
    </BinaryTree>
    <BinaryTree type="DecisionTree" boostWeight="1.9780722329953798e-01" itree="11">
      <Node pos="s" depth="0" NCoef="0" IVar="5" Cut="1.8120417735190131e-05" cType="1" res="-9.9000000000000000e+01" rms="0.0000000000000000e+00" purity="4.3238040804862976e-01" nType="0">
        <Node pos="l" depth="1" NCoef="0" IVar="8" Cut="2.0696809291839600e+00" cType="0" res="-9.9000000000000000e+01" rms="0.0000000000000000e+00" purity="4.7128716111183167e-01" nType="0">
          <Node pos="l" depth="2" NCoef="0" IVar="5" Cut="1.1322381396894343e-05" cType="0" res="-9.9000000000000000e+01" rms="0.0000000000000000e+00" purity="4.9322289228439331e-01" nType="0">
            <Node pos="l" depth="3" NCoef="0" IVar="8" Cut="2.4238078594207764e+00" cType="1" res="-9.9000000000000000e+01" rms="0.0000000000000000e+00" purity="5.2539592981338501e-01" nType="0">
              <Node pos="l" depth="4" NCoef="0" IVar="-1" Cut="0.0000000000000000e+00" cType="1" res="-9.9000000000000000e+01" rms="0.0000000000000000e+00" purity="5.4775977134704590e-01" nType="1"/>
              <Node pos="r" depth="4" NCoef="0" IVar="-1" Cut="0.0000000000000000e+00" cType="1" res="-9.9000000000000000e+01" rms="0.0000000000000000e+00" purity="4.1766673326492310e-01" nType="-1"/>
            </Node>
            <Node pos="r" depth="3" NCoef="0" IVar="8" Cut="2.4269988536834717e+00" cType="0" res="-9.9000000000000000e+01" rms="0.0000000000000000e+00" purity="4.6058639883995056e-01" nType="0">
              <Node pos="l" depth="4" NCoef="0" IVar="-1" Cut="0.0000000000000000e+00" cType="1" res="-9.9000000000000000e+01" rms="0.0000000000000000e+00" purity="5.0150507688522339e-01" nType="1"/>
              <Node pos="r" depth="4" NCoef="0" IVar="-1" Cut="0.0000000000000000e+00" cType="1" res="-9.9000000000000000e+01" rms="0.0000000000000000e+00" purity="2.8733995556831360e-01" nType="-1"/>
            </Node>
          </Node>
          <Node pos="r" depth="2" NCoef="0" IVar="-1" Cut="1.5721059753559530e-05" cType="0" res="-9.9000000000000000e+01" rms="0.0000000000000000e+00" purity="3.3013767004013062e-01" nType="-1"/>
        </Node>
        <Node pos="r" depth="1" NCoef="0" IVar="-1" Cut="0.0000000000000000e+00" cType="1" res="-9.9000000000000000e+01" rms="0.0000000000000000e+00" purity="2.2033463418483734e-01" nType="-1"/>
      </Node>
    </BinaryTree>
    <BinaryTree type="DecisionTree" boostWeight="1.4129047212194282e-01" itree="12">
      <Node pos="s" depth="0" NCoef="0" IVar="6" Cut="1.6756596565246582e+00" cType="0" res="-9.9000000000000000e+01" rms="0.0000000000000000e+00" purity="4.8590698838233948e-01" nType="0">
        <Node pos="l" depth="1" NCoef="0" IVar="8" Cut="2.1585114002227783e+00" cType="1" res="-9.9000000000000000e+01" rms="0.0000000000000000e+00" purity="5.0089859962463379e-01" nType="0">
          <Node pos="l" depth="2" NCoef="0" IVar="-1" Cut="0.0000000000000000e+00" cType="1" res="-9.9000000000000000e+01" rms="0.0000000000000000e+00" purity="5.8540594577789307e-01" nType="1"/>
          <Node pos="r" depth="2" NCoef="0" IVar="1" Cut="7.0149282692000270e-05" cType="0" res="-9.9000000000000000e+01" rms="0.0000000000000000e+00" purity="4.9170625209808350e-01" nType="0">
            <Node pos="l" depth="3" NCoef="0" IVar="-1" Cut="0.0000000000000000e+00" cType="1" res="-9.9000000000000000e+01" rms="0.0000000000000000e+00" purity="5.3988039493560791e-01" nType="1"/>
            <Node pos="r" depth="3" NCoef="0" IVar="1" Cut="5.5042037274688482e-05" cType="1" res="-9.9000000000000000e+01" rms="0.0000000000000000e+00" purity="4.6972930431365967e-01" nType="0">
              <Node pos="l" depth="4" NCoef="0" IVar="-1" Cut="0.0000000000000000e+00" cType="1" res="-9.9000000000000000e+01" rms="0.0000000000000000e+00" purity="5.4403913021087646e-01" nType="1"/>
              <Node pos="r" depth="4" NCoef="0" IVar="-1" Cut="0.0000000000000000e+00" cType="1" res="-9.9000000000000000e+01" rms="0.0000000000000000e+00" purity="4.1710039973258972e-01" nType="-1"/>
            </Node>
          </Node>
        </Node>
        <Node pos="r" depth="1" NCoef="0" IVar="5" Cut="1.2889394383819308e-05" cType="0" res="-9.9000000000000000e+01" rms="0.0000000000000000e+00" purity="4.3500393629074097e-01" nType="0">
          <Node pos="l" depth="2" NCoef="0" IVar="8" Cut="1.8991428613662720e+00" cType="0" res="-9.9000000000000000e+01" rms="0.0000000000000000e+00" purity="4.9706199765205383e-01" nType="0">
            <Node pos="l" depth="3" NCoef="0" IVar="-1" Cut="0.0000000000000000e+00" cType="1" res="-9.9000000000000000e+01" rms="0.0000000000000000e+00" purity="5.3552258014678955e-01" nType="1"/>
            <Node pos="r" depth="3" NCoef="0" IVar="-1" Cut="0.0000000000000000e+00" cType="1" res="-9.9000000000000000e+01" rms="0.0000000000000000e+00" purity="4.2174026370048523e-01" nType="-1"/>
          </Node>
          <Node pos="r" depth="2" NCoef="0" IVar="-1" Cut="0.0000000000000000e+00" cType="1" res="-9.9000000000000000e+01" rms="0.0000000000000000e+00" purity="2.2485034167766571e-01" nType="-1"/>
        </Node>
      </Node>
    </BinaryTree>
    <BinaryTree type="DecisionTree" boostWeight="1.6497087054428614e-01" itree="13">
      <Node pos="s" depth="0" NCoef="0" IVar="6" Cut="2.0084159374237061e+00" cType="0" res="-9.9000000000000000e+01" rms="0.0000000000000000e+00" purity="4.4695037603378296e-01" nType="0">
        <Node pos="l" depth="1" NCoef="0" IVar="8" Cut="2.7839152812957764e+00" cType="1" res="-9.9000000000000000e+01" rms="0.0000000000000000e+00" purity="5.0402748584747314e-01" nType="0">
          <Node pos="l" depth="2" NCoef="0" IVar="6" Cut="2.2509350776672363e+00" cType="0" res="-9.9000000000000000e+01" rms="0.0000000000000000e+00" purity="5.1680499315261841e-01" nType="0">
            <Node pos="l" depth="3" NCoef="0" IVar="-1" Cut="9.2227846835157834e-06" cType="1" res="-9.9000000000000000e+01" rms="0.0000000000000000e+00" purity="5.5595403909683228e-01" nType="1"/>
            <Node pos="r" depth="3" NCoef="0" IVar="1" Cut="5.9105117543367669e-05" cType="0" res="-9.9000000000000000e+01" rms="0.0000000000000000e+00" purity="4.8929598927497864e-01" nType="0">
              <Node pos="l" depth="4" NCoef="0" IVar="-1" Cut="0.0000000000000000e+00" cType="1" res="-9.9000000000000000e+01" rms="0.0000000000000000e+00" purity="5.3244054317474365e-01" nType="1"/>
              <Node pos="r" depth="4" NCoef="0" IVar="-1" Cut="0.0000000000000000e+00" cType="1" res="-9.9000000000000000e+01" rms="0.0000000000000000e+00" purity="3.9917004108428955e-01" nType="-1"/>
            </Node>
          </Node>
          <Node pos="r" depth="2" NCoef="0" IVar="-1" Cut="0.0000000000000000e+00" cType="1" res="-9.9000000000000000e+01" rms="0.0000000000000000e+00" purity="4.3378463387489319e-01" nType="-1"/>
        </Node>
        <Node pos="r" depth="1" NCoef="0" IVar="1" Cut="6.0069301980547607e-05" cType="0" res="-9.9000000000000000e+01" rms="0.0000000000000000e+00" purity="4.0533748269081116e-01" nType="0">
          <Node pos="l" depth="2" NCoef="0" IVar="0" Cut="1.0451961517333984e+01" cType="1" res="-9.9000000000000000e+01" rms="0.0000000000000000e+00" purity="4.3867591023445129e-01" nType="0">
            <Node pos="l" depth="3" NCoef="0" IVar="1" Cut="7.4325384048279375e-05" cType="1" res="-9.9000000000000000e+01" rms="0.0000000000000000e+00" purity="4.6529406309127808e-01" nType="0">
              <Node pos="l" depth="4" NCoef="0" IVar="-1" Cut="0.0000000000000000e+00" cType="1" res="-9.9000000000000000e+01" rms="0.0000000000000000e+00" purity="5.0924116373062134e-01" nType="1"/>
              <Node pos="r" depth="4" NCoef="0" IVar="-1" Cut="0.0000000000000000e+00" cType="1" res="-9.9000000000000000e+01" rms="0.0000000000000000e+00" purity="4.3009972572326660e-01" nType="-1"/>
            </Node>
            <Node pos="r" depth="3" NCoef="0" IVar="-1" Cut="0.0000000000000000e+00" cType="1" res="-9.9000000000000000e+01" rms="0.0000000000000000e+00" purity="3.3998277783393860e-01" nType="-1"/>
          </Node>
          <Node pos="r" depth="2" NCoef="0" IVar="-1" Cut="1.5549547242699191e-05" cType="0" res="-9.9000000000000000e+01" rms="0.0000000000000000e+00" purity="2.6478374004364014e-01" nType="-1"/>
        </Node>
      </Node>
    </BinaryTree>
    <BinaryTree type="DecisionTree" boostWeight="1.8353699201053808e-01" itree="14">
      <Node pos="s" depth="0" NCoef="0" IVar="6" Cut="2.0084345340728760e+00" cType="0" res="-9.9000000000000000e+01" rms="0.0000000000000000e+00" purity="4.5413491129875183e-01" nType="0">
        <Node pos="l" depth="1" NCoef="0" IVar="6" Cut="2.1103706359863281e+00" cType="1" res="-9.9000000000000000e+01" rms="0.0000000000000000e+00" purity="4.8866257071495056e-01" nType="0">
          <Node pos="l" depth="2" NCoef="0" IVar="-1" Cut="0.0000000000000000e+00" cType="1" res="-9.9000000000000000e+01" rms="0.0000000000000000e+00" purity="5.7885789871215820e-01" nType="1"/>
          <Node pos="r" depth="2" NCoef="0" IVar="5" Cut="9.6528274298179895e-06" cType="1" res="-9.9000000000000000e+01" rms="0.0000000000000000e+00" purity="4.5359247922897339e-01" nType="0">
            <Node pos="l" depth="3" NCoef="0" IVar="5" Cut="7.4147619670839049e-06" cType="0" res="-9.9000000000000000e+01" rms="0.0000000000000000e+00" purity="4.9252066016197205e-01" nType="0">
              <Node pos="l" depth="4" NCoef="0" IVar="-1" Cut="0.0000000000000000e+00" cType="1" res="-9.9000000000000000e+01" rms="0.0000000000000000e+00" purity="5.4545384645462036e-01" nType="1"/>
              <Node pos="r" depth="4" NCoef="0" IVar="-1" Cut="0.0000000000000000e+00" cType="1" res="-9.9000000000000000e+01" rms="0.0000000000000000e+00" purity="4.6242842078208923e-01" nType="-1"/>
            </Node>
            <Node pos="r" depth="3" NCoef="0" IVar="-1" Cut="2.2537782192230225e+00" cType="0" res="-9.9000000000000000e+01" rms="0.0000000000000000e+00" purity="3.9633220434188843e-01" nType="-1"/>
          </Node>
        </Node>
        <Node pos="r" depth="1" NCoef="0" IVar="0" Cut="1.1427165031433105e+01" cType="1" res="-9.9000000000000000e+01" rms="0.0000000000000000e+00" purity="4.3000507354736328e-01" nType="0">
          <Node pos="l" depth="2" NCoef="0" IVar="0" Cut="8.4781045913696289e+00" cType="0" res="-9.9000000000000000e+01" rms="0.0000000000000000e+00" purity="4.5442783832550049e-01" nType="0">
            <Node pos="l" depth="3" NCoef="0" IVar="8" Cut="2.1234147548675537e+00" cType="1" res="-9.9000000000000000e+01" rms="0.0000000000000000e+00" purity="4.9866113066673279e-01" nType="0">
              <Node pos="l" depth="4" NCoef="0" IVar="-1" Cut="0.0000000000000000e+00" cType="1" res="-9.9000000000000000e+01" rms="0.0000000000000000e+00" purity="5.7616519927978516e-01" nType="1"/>
              <Node pos="r" depth="4" NCoef="0" IVar="-1" Cut="0.0000000000000000e+00" cType="1" res="-9.9000000000000000e+01" rms="0.0000000000000000e+00" purity="4.4732043147087097e-01" nType="-1"/>
            </Node>
            <Node pos="r" depth="3" NCoef="0" IVar="-1" Cut="0.0000000000000000e+00" cType="1" res="-9.9000000000000000e+01" rms="0.0000000000000000e+00" purity="3.6574211716651917e-01" nType="-1"/>
          </Node>
          <Node pos="r" depth="2" NCoef="0" IVar="-1" Cut="0.0000000000000000e+00" cType="1" res="-9.9000000000000000e+01" rms="0.0000000000000000e+00" purity="2.5546798110008240e-01" nType="-1"/>
        </Node>
      </Node>
    </BinaryTree>
    <BinaryTree type="DecisionTree" boostWeight="2.0521206520812552e-01" itree="15">
      <Node pos="s" depth="0" NCoef="0" IVar="6" Cut="1.7619752883911133e+00" cType="0" res="-9.9000000000000000e+01" rms="0.0000000000000000e+00" purity="4.5120933651924133e-01" nType="0">
        <Node pos="l" depth="1" NCoef="0" IVar="8" Cut="2.5169219970703125e+00" cType="1" res="-9.9000000000000000e+01" rms="0.0000000000000000e+00" purity="4.8058289289474487e-01" nType="0">
          <Node pos="l" depth="2" NCoef="0" IVar="6" Cut="2.0368289947509766e+00" cType="0" res="-9.9000000000000000e+01" rms="0.0000000000000000e+00" purity="5.2401506900787354e-01" nType="0">
            <Node pos="l" depth="3" NCoef="0" IVar="-1" Cut="1.2460192920116242e-05" cType="1" res="-9.9000000000000000e+01" rms="0.0000000000000000e+00" purity="6.1111867427825928e-01" nType="1"/>
            <Node pos="r" depth="3" NCoef="0" IVar="6" Cut="1.8666678667068481e+00" cType="1" res="-9.9000000000000000e+01" rms="0.0000000000000000e+00" purity="4.7949489951133728e-01" nType="0">
              <Node pos="l" depth="4" NCoef="0" IVar="-1" Cut="0.0000000000000000e+00" cType="1" res="-9.9000000000000000e+01" rms="0.0000000000000000e+00" purity="5.8575570583343506e-01" nType="1"/>
              <Node pos="r" depth="4" NCoef="0" IVar="-1" Cut="0.0000000000000000e+00" cType="1" res="-9.9000000000000000e+01" rms="0.0000000000000000e+00" purity="4.0841531753540039e-01" nType="-1"/>
            </Node>
          </Node>
          <Node pos="r" depth="2" NCoef="0" IVar="5" Cut="9.5925415735109709e-06" cType="1" res="-9.9000000000000000e+01" rms="0.0000000000000000e+00" purity="4.2340743541717529e-01" nType="0">
            <Node pos="l" depth="3" NCoef="0" IVar="5" Cut="6.0420998124754988e-06" cType="0" res="-9.9000000000000000e+01" rms="0.0000000000000000e+00" purity="4.7987839579582214e-01" nType="0">
              <Node pos="l" depth="4" NCoef="0" IVar="-1" Cut="0.0000000000000000e+00" cType="1" res="-9.9000000000000000e+01" rms="0.0000000000000000e+00" purity="5.1375454664230347e-01" nType="1"/>
              <Node pos="r" depth="4" NCoef="0" IVar="-1" Cut="0.0000000000000000e+00" cType="1" res="-9.9000000000000000e+01" rms="0.0000000000000000e+00" purity="4.0510380268096924e-01" nType="-1"/>
            </Node>
            <Node pos="r" depth="3" NCoef="0" IVar="-1" Cut="0.0000000000000000e+00" cType="1" res="-9.9000000000000000e+01" rms="0.0000000000000000e+00" purity="2.4301670491695404e-01" nType="-1"/>
          </Node>
        </Node>
        <Node pos="r" depth="1" NCoef="0" IVar="-1" Cut="7.3257368057966232e-05" cType="0" res="-9.9000000000000000e+01" rms="0.0000000000000000e+00" purity="3.8248899579048157e-01" nType="-1"/>
      </Node>
    </BinaryTree>
    <BinaryTree type="DecisionTree" boostWeight="1.6496518889373477e-01" itree="16">
      <Node pos="s" depth="0" NCoef="0" IVar="5" Cut="8.7266280388575979e-06" cType="0" res="-9.9000000000000000e+01" rms="0.0000000000000000e+00" purity="4.8638772964477539e-01" nType="0">
        <Node pos="l" depth="1" NCoef="0" IVar="1" Cut="7.4562020017765462e-05" cType="1" res="-9.9000000000000000e+01" rms="0.0000000000000000e+00" purity="5.1016455888748169e-01" nType="0">
          <Node pos="l" depth="2" NCoef="0" IVar="0" Cut="1.1871238708496094e+01" cType="1" res="-9.9000000000000000e+01" rms="0.0000000000000000e+00" purity="5.3352284431457520e-01" nType="0">
            <Node pos="l" depth="3" NCoef="0" IVar="6" Cut="1.9684449434280396e+00" cType="1" res="-9.9000000000000000e+01" rms="0.0000000000000000e+00" purity="5.5137282609939575e-01" nType="0">
              <Node pos="l" depth="4" NCoef="0" IVar="-1" Cut="0.0000000000000000e+00" cType="1" res="-9.9000000000000000e+01" rms="0.0000000000000000e+00" purity="6.0172927379608154e-01" nType="1"/>
              <Node pos="r" depth="4" NCoef="0" IVar="-1" Cut="0.0000000000000000e+00" cType="1" res="-9.9000000000000000e+01" rms="0.0000000000000000e+00" purity="4.8040765523910522e-01" nType="-1"/>
            </Node>
            <Node pos="r" depth="3" NCoef="0" IVar="-1" Cut="0.0000000000000000e+00" cType="1" res="-9.9000000000000000e+01" rms="0.0000000000000000e+00" purity="4.2332693934440613e-01" nType="-1"/>
          </Node>
          <Node pos="r" depth="2" NCoef="0" IVar="-1" Cut="0.0000000000000000e+00" cType="1" res="-9.9000000000000000e+01" rms="0.0000000000000000e+00" purity="4.4949126243591309e-01" nType="-1"/>
        </Node>
        <Node pos="r" depth="1" NCoef="0" IVar="6" Cut="2.1736764907836914e+00" cType="0" res="-9.9000000000000000e+01" rms="0.0000000000000000e+00" purity="3.9434745907783508e-01" nType="0">
          <Node pos="l" depth="2" NCoef="0" IVar="8" Cut="2.8205838203430176e+00" cType="0" res="-9.9000000000000000e+01" rms="0.0000000000000000e+00" purity="4.6491417288780212e-01" nType="0">
            <Node pos="l" depth="3" NCoef="0" IVar="-1" Cut="0.0000000000000000e+00" cType="1" res="-9.9000000000000000e+01" rms="0.0000000000000000e+00" purity="5.7959502935409546e-01" nType="1"/>
            <Node pos="r" depth="3" NCoef="0" IVar="-1" Cut="0.0000000000000000e+00" cType="1" res="-9.9000000000000000e+01" rms="0.0000000000000000e+00" purity="3.8790541887283325e-01" nType="-1"/>
          </Node>
          <Node pos="r" depth="2" NCoef="0" IVar="-1" Cut="0.0000000000000000e+00" cType="1" res="-9.9000000000000000e+01" rms="0.0000000000000000e+00" purity="2.1898989379405975e-01" nType="-1"/>
        </Node>
      </Node>
    </BinaryTree>
    <BinaryTree type="DecisionTree" boostWeight="1.1828117778622381e-01" itree="17">
      <Node pos="s" depth="0" NCoef="0" IVar="1" Cut="4.2785803088918328e-05" cType="0" res="-9.9000000000000000e+01" rms="0.0000000000000000e+00" purity="4.7016614675521851e-01" nType="0">
        <Node pos="l" depth="1" NCoef="0" IVar="4" Cut="3.0631667480468750e+03" cType="0" res="-9.9000000000000000e+01" rms="0.0000000000000000e+00" purity="4.7839570045471191e-01" nType="0">
          <Node pos="l" depth="2" NCoef="0" IVar="-1" Cut="0.0000000000000000e+00" cType="1" res="-9.9000000000000000e+01" rms="0.0000000000000000e+00" purity="5.8359837532043457e-01" nType="1"/>
          <Node pos="r" depth="2" NCoef="0" IVar="3" Cut="1.2675058593750000e+05" cType="1" res="-9.9000000000000000e+01" rms="0.0000000000000000e+00" purity="4.6786645054817200e-01" nType="0">
            <Node pos="l" depth="3" NCoef="0" IVar="-1" Cut="0.0000000000000000e+00" cType="1" res="-9.9000000000000000e+01" rms="0.0000000000000000e+00" purity="5.2175527811050415e-01" nType="1"/>
            <Node pos="r" depth="3" NCoef="0" IVar="-1" Cut="1.8802744150161743e+00" cType="0" res="-9.9000000000000000e+01" rms="0.0000000000000000e+00" purity="4.3304127454757690e-01" nType="-1"/>
          </Node>
        </Node>
        <Node pos="r" depth="1" NCoef="0" IVar="-1" Cut="0.0000000000000000e+00" cType="1" res="-9.9000000000000000e+01" rms="0.0000000000000000e+00" purity="3.3006840944290161e-01" nType="-1"/>
      </Node>
    </BinaryTree>
    <BinaryTree type="DecisionTree" boostWeight="1.8260349425286351e-01" itree="18">
      <Node pos="s" depth="0" NCoef="0" IVar="8" Cut="2.1342473030090332e+00" cType="0" res="-9.9000000000000000e+01" rms="0.0000000000000000e+00" purity="5.0715357065200806e-01" nType="0">
        <Node pos="l" depth="1" NCoef="0" IVar="5" Cut="9.6532021416351199e-06" cType="0" res="-9.9000000000000000e+01" rms="0.0000000000000000e+00" purity="5.2956396341323853e-01" nType="0">
          <Node pos="l" depth="2" NCoef="0" IVar="0" Cut="1.2270905494689941e+01" cType="0" res="-9.9000000000000000e+01" rms="0.0000000000000000e+00" purity="5.6067222356796265e-01" nType="0">
            <Node pos="l" depth="3" NCoef="0" IVar="-1" Cut="0.0000000000000000e+00" cType="1" res="-9.9000000000000000e+01" rms="0.0000000000000000e+00" purity="7.1599751710891724e-01" nType="1"/>
            <Node pos="r" depth="3" NCoef="0" IVar="5" Cut="1.3589674381364603e-05" cType="1" res="-9.9000000000000000e+01" rms="0.0000000000000000e+00" purity="5.4041379690170288e-01" nType="0">
              <Node pos="l" depth="4" NCoef="0" IVar="-1" Cut="0.0000000000000000e+00" cType="1" res="-9.9000000000000000e+01" rms="0.0000000000000000e+00" purity="5.9137469530105591e-01" nType="1"/>
              <Node pos="r" depth="4" NCoef="0" IVar="-1" Cut="0.0000000000000000e+00" cType="1" res="-9.9000000000000000e+01" rms="0.0000000000000000e+00" purity="4.7428414225578308e-01" nType="-1"/>
            </Node>
          </Node>
          <Node pos="r" depth="2" NCoef="0" IVar="12" Cut="5.3571426868438721e-01" cType="0" res="-9.9000000000000000e+01" rms="0.0000000000000000e+00" purity="4.6703788638114929e-01" nType="0">
            <Node pos="l" depth="3" NCoef="0" IVar="-1" Cut="0.0000000000000000e+00" cType="1" res="-9.9000000000000000e+01" rms="0.0000000000000000e+00" purity="5.8756554126739502e-01" nType="1"/>
            <Node pos="r" depth="3" NCoef="0" IVar="6" Cut="2.2995784282684326e+00" cType="0" res="-9.9000000000000000e+01" rms="0.0000000000000000e+00" purity="4.0916356444358826e-01" nType="0">
              <Node pos="l" depth="4" NCoef="0" IVar="-1" Cut="0.0000000000000000e+00" cType="1" res="-9.9000000000000000e+01" rms="0.0000000000000000e+00" purity="5.1240223646163940e-01" nType="1"/>
              <Node pos="r" depth="4" NCoef="0" IVar="-1" Cut="0.0000000000000000e+00" cType="1" res="-9.9000000000000000e+01" rms="0.0000000000000000e+00" purity="3.0140548944473267e-01" nType="-1"/>
            </Node>
          </Node>
        </Node>
        <Node pos="r" depth="1" NCoef="0" IVar="5" Cut="1.7327629393548705e-05" cType="0" res="-9.9000000000000000e+01" rms="0.0000000000000000e+00" purity="4.3654000759124756e-01" nType="0">
          <Node pos="l" depth="2" NCoef="0" IVar="-1" Cut="0.0000000000000000e+00" cType="1" res="-9.9000000000000000e+01" rms="0.0000000000000000e+00" purity="5.5029654502868652e-01" nType="1"/>
          <Node pos="r" depth="2" NCoef="0" IVar="-1" Cut="7.0495450927410275e-05" cType="0" res="-9.9000000000000000e+01" rms="0.0000000000000000e+00" purity="3.6419004201889038e-01" nType="-1"/>
        </Node>
      </Node>
    </BinaryTree>
    <BinaryTree type="DecisionTree" boostWeight="1.3566667339594776e-01" itree="19">
      <Node pos="s" depth="0" NCoef="0" IVar="5" Cut="1.2476799383875914e-05" cType="0" res="-9.9000000000000000e+01" rms="0.0000000000000000e+00" purity="4.9439653754234314e-01" nType="0">
        <Node pos="l" depth="1" NCoef="0" IVar="1" Cut="7.3908951890189201e-05" cType="1" res="-9.9000000000000000e+01" rms="0.0000000000000000e+00" purity="5.2685046195983887e-01" nType="0">
          <Node pos="l" depth="2" NCoef="0" IVar="0" Cut="9.3909301757812500e+00" cType="0" res="-9.9000000000000000e+01" rms="0.0000000000000000e+00" purity="5.5441606044769287e-01" nType="0">
            <Node pos="l" depth="3" NCoef="0" IVar="-1" Cut="1.4985672351031099e-05" cType="0" res="-9.9000000000000000e+01" rms="0.0000000000000000e+00" purity="5.9453392028808594e-01" nType="1"/>
            <Node pos="r" depth="3" NCoef="0" IVar="-1" Cut="0.0000000000000000e+00" cType="1" res="-9.9000000000000000e+01" rms="0.0000000000000000e+00" purity="4.9362599849700928e-01" nType="-1"/>
          </Node>
          <Node pos="r" depth="2" NCoef="0" IVar="-1" Cut="0.0000000000000000e+00" cType="1" res="-9.9000000000000000e+01" rms="0.0000000000000000e+00" purity="4.6906909346580505e-01" nType="-1"/>
        </Node>
        <Node pos="r" depth="1" NCoef="0" IVar="6" Cut="1.7570757865905762e+00" cType="0" res="-9.9000000000000000e+01" rms="0.0000000000000000e+00" purity="4.6257510781288147e-01" nType="0">
          <Node pos="l" depth="2" NCoef="0" IVar="8" Cut="2.8350446224212646e+00" cType="0" res="-9.9000000000000000e+01" rms="0.0000000000000000e+00" purity="4.9060797691345215e-01" nType="0">
            <Node pos="l" depth="3" NCoef="0" IVar="-1" Cut="0.0000000000000000e+00" cType="1" res="-9.9000000000000000e+01" rms="0.0000000000000000e+00" purity="6.1905306577682495e-01" nType="1"/>
            <Node pos="r" depth="3" NCoef="0" IVar="1" Cut="6.7809924075845629e-05" cType="0" res="-9.9000000000000000e+01" rms="0.0000000000000000e+00" purity="4.6901866793632507e-01" nType="0">
              <Node pos="l" depth="4" NCoef="0" IVar="-1" Cut="0.0000000000000000e+00" cType="1" res="-9.9000000000000000e+01" rms="0.0000000000000000e+00" purity="5.3102129697799683e-01" nType="1"/>
              <Node pos="r" depth="4" NCoef="0" IVar="-1" Cut="0.0000000000000000e+00" cType="1" res="-9.9000000000000000e+01" rms="0.0000000000000000e+00" purity="4.3074572086334229e-01" nType="-1"/>
            </Node>
          </Node>
          <Node pos="r" depth="2" NCoef="0" IVar="-1" Cut="0.0000000000000000e+00" cType="1" res="-9.9000000000000000e+01" rms="0.0000000000000000e+00" purity="2.9248121380805969e-01" nType="-1"/>
        </Node>
      </Node>
    </BinaryTree>
    <BinaryTree type="DecisionTree" boostWeight="1.4106714874643253e-01" itree="20">
      <Node pos="s" depth="0" NCoef="0" IVar="5" Cut="8.7182934294105507e-06" cType="0" res="-9.9000000000000000e+01" rms="0.0000000000000000e+00" purity="5.0091928243637085e-01" nType="0">
        <Node pos="l" depth="1" NCoef="0" IVar="5" Cut="1.6775780750322156e-05" cType="1" res="-9.9000000000000000e+01" rms="0.0000000000000000e+00" purity="5.1821583509445190e-01" nType="0">
          <Node pos="l" depth="2" NCoef="0" IVar="8" Cut="2.5267560482025146e+00" cType="1" res="-9.9000000000000000e+01" rms="0.0000000000000000e+00" purity="5.3852689266204834e-01" nType="0">
            <Node pos="l" depth="3" NCoef="0" IVar="-1" Cut="2.0626068115234375e+00" cType="0" res="-9.9000000000000000e+01" rms="0.0000000000000000e+00" purity="5.5735266208648682e-01" nType="1"/>
            <Node pos="r" depth="3" NCoef="0" IVar="-1" Cut="0.0000000000000000e+00" cType="1" res="-9.9000000000000000e+01" rms="0.0000000000000000e+00" purity="4.1856172680854797e-01" nType="-1"/>
          </Node>
          <Node pos="r" depth="2" NCoef="0" IVar="9" Cut="2.0942733287811279e+00" cType="1" res="-9.9000000000000000e+01" rms="0.0000000000000000e+00" purity="4.4558173418045044e-01" nType="0">
            <Node pos="l" depth="3" NCoef="0" IVar="-1" Cut="0.0000000000000000e+00" cType="1" res="-9.9000000000000000e+01" rms="0.0000000000000000e+00" purity="5.3267478942871094e-01" nType="1"/>
            <Node pos="r" depth="3" NCoef="0" IVar="-1" Cut="0.0000000000000000e+00" cType="1" res="-9.9000000000000000e+01" rms="0.0000000000000000e+00" purity="3.3913248777389526e-01" nType="-1"/>
          </Node>
        </Node>
        <Node pos="r" depth="1" NCoef="0" IVar="6" Cut="2.4156990051269531e+00" cType="0" res="-9.9000000000000000e+01" rms="0.0000000000000000e+00" purity="4.2880290746688843e-01" nType="0">
          <Node pos="l" depth="2" NCoef="0" IVar="-1" Cut="0.0000000000000000e+00" cType="1" res="-9.9000000000000000e+01" rms="0.0000000000000000e+00" purity="5.1379489898681641e-01" nType="1"/>
          <Node pos="r" depth="2" NCoef="0" IVar="-1" Cut="6.3907566072884947e-05" cType="0" res="-9.9000000000000000e+01" rms="0.0000000000000000e+00" purity="3.7095117568969727e-01" nType="-1"/>
        </Node>
      </Node>
    </BinaryTree>
    <BinaryTree type="DecisionTree" boostWeight="1.5908153783130582e-01" itree="21">
      <Node pos="s" depth="0" NCoef="0" IVar="0" Cut="1.2468834877014160e+01" cType="1" res="-9.9000000000000000e+01" rms="0.0000000000000000e+00" purity="4.6033668518066406e-01" nType="0">
        <Node pos="l" depth="1" NCoef="0" IVar="3" Cut="1.7236550000000000e+05" cType="0" res="-9.9000000000000000e+01" rms="0.0000000000000000e+00" purity="4.7253403067588806e-01" nType="0">
          <Node pos="l" depth="2" NCoef="0" IVar="5" Cut="1.3412182852334809e-05" cType="0" res="-9.9000000000000000e+01" rms="0.0000000000000000e+00" purity="5.3729802370071411e-01" nType="0">
            <Node pos="l" depth="3" NCoef="0" IVar="-1" Cut="0.0000000000000000e+00" cType="1" res="-9.9000000000000000e+01" rms="0.0000000000000000e+00" purity="6.3457667827606201e-01" nType="1"/>
            <Node pos="r" depth="3" NCoef="0" IVar="1" Cut="5.0082457164535299e-05" cType="0" res="-9.9000000000000000e+01" rms="0.0000000000000000e+00" purity="4.7578918933868408e-01" nType="0">
              <Node pos="l" depth="4" NCoef="0" IVar="-1" Cut="0.0000000000000000e+00" cType="1" res="-9.9000000000000000e+01" rms="0.0000000000000000e+00" purity="5.4116874933242798e-01" nType="1"/>
              <Node pos="r" depth="4" NCoef="0" IVar="-1" Cut="0.0000000000000000e+00" cType="1" res="-9.9000000000000000e+01" rms="0.0000000000000000e+00" purity="3.9725571870803833e-01" nType="-1"/>
            </Node>
          </Node>
          <Node pos="r" depth="2" NCoef="0" IVar="7" Cut="2.7897613048553467e+00" cType="1" res="-9.9000000000000000e+01" rms="0.0000000000000000e+00" purity="4.5274105668067932e-01" nType="0">
            <Node pos="l" depth="3" NCoef="0" IVar="5" Cut="1.2674615391006228e-05" cType="1" res="-9.9000000000000000e+01" rms="0.0000000000000000e+00" purity="4.7722652554512024e-01" nType="0">
              <Node pos="l" depth="4" NCoef="0" IVar="-1" Cut="0.0000000000000000e+00" cType="1" res="-9.9000000000000000e+01" rms="0.0000000000000000e+00" purity="5.1799064874649048e-01" nType="1"/>
              <Node pos="r" depth="4" NCoef="0" IVar="-1" Cut="0.0000000000000000e+00" cType="1" res="-9.9000000000000000e+01" rms="0.0000000000000000e+00" purity="4.3104580044746399e-01" nType="-1"/>
            </Node>
            <Node pos="r" depth="3" NCoef="0" IVar="-1" Cut="0.0000000000000000e+00" cType="1" res="-9.9000000000000000e+01" rms="0.0000000000000000e+00" purity="3.5391965508460999e-01" nType="-1"/>
          </Node>
        </Node>
        <Node pos="r" depth="1" NCoef="0" IVar="-1" Cut="0.0000000000000000e+00" cType="1" res="-9.9000000000000000e+01" rms="0.0000000000000000e+00" purity="3.1826618313789368e-01" nType="-1"/>
      </Node>
    </BinaryTree>
    <BinaryTree type="DecisionTree" boostWeight="1.7884412812141717e-01" itree="22">
      <Node pos="s" depth="0" NCoef="0" IVar="10" Cut="-9.5142858886718750e+02" cType="1" res="-9.9000000000000000e+01" rms="0.0000000000000000e+00" purity="4.5896098017692566e-01" nType="0">
        <Node pos="l" depth="1" NCoef="0" IVar="1" Cut="6.8614979682024568e-05" cType="0" res="-9.9000000000000000e+01" rms="0.0000000000000000e+00" purity="4.7707495093345642e-01" nType="0">
          <Node pos="l" depth="2" NCoef="0" IVar="7" Cut="1.7468253374099731e+00" cType="1" res="-9.9000000000000000e+01" rms="0.0000000000000000e+00" purity="5.1056283712387085e-01" nType="0">
            <Node pos="l" depth="3" NCoef="0" IVar="-1" Cut="0.0000000000000000e+00" cType="1" res="-9.9000000000000000e+01" rms="0.0000000000000000e+00" purity="5.6416809558868408e-01" nType="1"/>
            <Node pos="r" depth="3" NCoef="0" IVar="2" Cut="1.3376618750000000e+05" cType="0" res="-9.9000000000000000e+01" rms="0.0000000000000000e+00" purity="4.9254161119461060e-01" nType="0">
              <Node pos="l" depth="4" NCoef="0" IVar="-1" Cut="0.0000000000000000e+00" cType="1" res="-9.9000000000000000e+01" rms="0.0000000000000000e+00" purity="6.0088115930557251e-01" nType="1"/>
              <Node pos="r" depth="4" NCoef="0" IVar="-1" Cut="0.0000000000000000e+00" cType="1" res="-9.9000000000000000e+01" rms="0.0000000000000000e+00" purity="4.5033156871795654e-01" nType="-1"/>
            </Node>
          </Node>
          <Node pos="r" depth="2" NCoef="0" IVar="6" Cut="1.9270373582839966e+00" cType="0" res="-9.9000000000000000e+01" rms="0.0000000000000000e+00" purity="4.4710680842399597e-01" nType="0">
            <Node pos="l" depth="3" NCoef="0" IVar="5" Cut="1.3413246051641181e-05" cType="0" res="-9.9000000000000000e+01" rms="0.0000000000000000e+00" purity="4.8047125339508057e-01" nType="0">
              <Node pos="l" depth="4" NCoef="0" IVar="-1" Cut="0.0000000000000000e+00" cType="1" res="-9.9000000000000000e+01" rms="0.0000000000000000e+00" purity="5.6601852178573608e-01" nType="1"/>
              <Node pos="r" depth="4" NCoef="0" IVar="-1" Cut="0.0000000000000000e+00" cType="1" res="-9.9000000000000000e+01" rms="0.0000000000000000e+00" purity="4.5182019472122192e-01" nType="-1"/>
            </Node>
            <Node pos="r" depth="3" NCoef="0" IVar="-1" Cut="6.0984464653301984e-05" cType="0" res="-9.9000000000000000e+01" rms="0.0000000000000000e+00" purity="3.7375688552856445e-01" nType="-1"/>
          </Node>
        </Node>
        <Node pos="r" depth="1" NCoef="0" IVar="1" Cut="6.2822873587720096e-05" cType="1" res="-9.9000000000000000e+01" rms="0.0000000000000000e+00" purity="3.8024663925170898e-01" nType="0">
          <Node pos="l" depth="2" NCoef="0" IVar="-1" Cut="0.0000000000000000e+00" cType="1" res="-9.9000000000000000e+01" rms="0.0000000000000000e+00" purity="5.4770565032958984e-01" nType="1"/>
          <Node pos="r" depth="2" NCoef="0" IVar="-1" Cut="0.0000000000000000e+00" cType="1" res="-9.9000000000000000e+01" rms="0.0000000000000000e+00" purity="2.0903353393077850e-01" nType="-1"/>
        </Node>
      </Node>
    </BinaryTree>
    <BinaryTree type="DecisionTree" boostWeight="1.5926970021937178e-01" itree="23">
      <Node pos="s" depth="0" NCoef="0" IVar="5" Cut="1.2481590601964854e-05" cType="0" res="-9.9000000000000000e+01" rms="0.0000000000000000e+00" purity="4.8830121755599976e-01" nType="0">
        <Node pos="l" depth="1" NCoef="0" IVar="1" Cut="7.1815687988419086e-05" cType="0" res="-9.9000000000000000e+01" rms="0.0000000000000000e+00" purity="5.2550190687179565e-01" nType="0">
          <Node pos="l" depth="2" NCoef="0" IVar="-1" Cut="0.0000000000000000e+00" cType="1" res="-9.9000000000000000e+01" rms="0.0000000000000000e+00" purity="5.8721894025802612e-01" nType="1"/>
          <Node pos="r" depth="2" NCoef="0" IVar="1" Cut="4.9212128942599520e-05" cType="1" res="-9.9000000000000000e+01" rms="0.0000000000000000e+00" purity="4.6910384297370911e-01" nType="0">
            <Node pos="l" depth="3" NCoef="0" IVar="-1" Cut="0.0000000000000000e+00" cType="1" res="-9.9000000000000000e+01" rms="0.0000000000000000e+00" purity="6.2398564815521240e-01" nType="1"/>
            <Node pos="r" depth="3" NCoef="0" IVar="-1" Cut="2.0982885360717773e+00" cType="1" res="-9.9000000000000000e+01" rms="0.0000000000000000e+00" purity="4.3295422196388245e-01" nType="-1"/>
          </Node>
        </Node>
        <Node pos="r" depth="1" NCoef="0" IVar="8" Cut="2.3204574584960938e+00" cType="0" res="-9.9000000000000000e+01" rms="0.0000000000000000e+00" purity="4.4717785716056824e-01" nType="0">
          <Node pos="l" depth="2" NCoef="0" IVar="5" Cut="1.0153703442483675e-05" cType="0" res="-9.9000000000000000e+01" rms="0.0000000000000000e+00" purity="4.8627391457557678e-01" nType="0">
            <Node pos="l" depth="3" NCoef="0" IVar="-1" Cut="0.0000000000000000e+00" cType="1" res="-9.9000000000000000e+01" rms="0.0000000000000000e+00" purity="5.3059351444244385e-01" nType="1"/>
            <Node pos="r" depth="3" NCoef="0" IVar="8" Cut="2.5550007820129395e+00" cType="0" res="-9.9000000000000000e+01" rms="0.0000000000000000e+00" purity="4.6755188703536987e-01" nType="0">
              <Node pos="l" depth="4" NCoef="0" IVar="-1" Cut="0.0000000000000000e+00" cType="1" res="-9.9000000000000000e+01" rms="0.0000000000000000e+00" purity="5.0744110345840454e-01" nType="1"/>
              <Node pos="r" depth="4" NCoef="0" IVar="-1" Cut="0.0000000000000000e+00" cType="1" res="-9.9000000000000000e+01" rms="0.0000000000000000e+00" purity="3.1655630469322205e-01" nType="-1"/>
            </Node>
          </Node>
          <Node pos="r" depth="2" NCoef="0" IVar="-1" Cut="0.0000000000000000e+00" cType="1" res="-9.9000000000000000e+01" rms="0.0000000000000000e+00" purity="2.2735452651977539e-01" nType="-1"/>
        </Node>
      </Node>
    </BinaryTree>
    <BinaryTree type="DecisionTree" boostWeight="2.0332613717171286e-01" itree="24">
      <Node pos="s" depth="0" NCoef="0" IVar="6" Cut="1.7619752883911133e+00" cType="1" res="-9.9000000000000000e+01" rms="0.0000000000000000e+00" purity="4.5823940634727478e-01" nType="0">
        <Node pos="l" depth="1" NCoef="0" IVar="5" Cut="1.2080048691132106e-05" cType="0" res="-9.9000000000000000e+01" rms="0.0000000000000000e+00" purity="5.3239953517913818e-01" nType="0">
          <Node pos="l" depth="2" NCoef="0" IVar="5" Cut="1.3966293408884667e-05" cType="1" res="-9.9000000000000000e+01" rms="0.0000000000000000e+00" purity="5.6871867179870605e-01" nType="0">
            <Node pos="l" depth="3" NCoef="0" IVar="-1" Cut="0.0000000000000000e+00" cType="1" res="-9.9000000000000000e+01" rms="0.0000000000000000e+00" purity="6.8181693553924561e-01" nType="1"/>
            <Node pos="r" depth="3" NCoef="0" IVar="5" Cut="1.6263918951153755e-05" cType="0" res="-9.9000000000000000e+01" rms="0.0000000000000000e+00" purity="5.2654737234115601e-01" nType="0">
              <Node pos="l" depth="4" NCoef="0" IVar="-1" Cut="0.0000000000000000e+00" cType="1" res="-9.9000000000000000e+01" rms="0.0000000000000000e+00" purity="5.7477021217346191e-01" nType="1"/>
              <Node pos="r" depth="4" NCoef="0" IVar="-1" Cut="0.0000000000000000e+00" cType="1" res="-9.9000000000000000e+01" rms="0.0000000000000000e+00" purity="4.3546792864799500e-01" nType="-1"/>
            </Node>
          </Node>
          <Node pos="r" depth="2" NCoef="0" IVar="-1" Cut="0.0000000000000000e+00" cType="1" res="-9.9000000000000000e+01" rms="0.0000000000000000e+00" purity="3.4415781497955322e-01" nType="-1"/>
        </Node>
        <Node pos="r" depth="1" NCoef="0" IVar="10" Cut="-9.5142858886718750e+02" cType="1" res="-9.9000000000000000e+01" rms="0.0000000000000000e+00" purity="4.2343750596046448e-01" nType="0">
          <Node pos="l" depth="2" NCoef="0" IVar="1" Cut="5.7264562201453373e-05" cType="1" res="-9.9000000000000000e+01" rms="0.0000000000000000e+00" purity="4.5135572552680969e-01" nType="0">
            <Node pos="l" depth="3" NCoef="0" IVar="1" Cut="4.7510122385574505e-05" cType="0" res="-9.9000000000000000e+01" rms="0.0000000000000000e+00" purity="5.1274156570434570e-01" nType="0">
              <Node pos="l" depth="4" NCoef="0" IVar="-1" Cut="0.0000000000000000e+00" cType="1" res="-9.9000000000000000e+01" rms="0.0000000000000000e+00" purity="5.5758655071258545e-01" nType="1"/>
              <Node pos="r" depth="4" NCoef="0" IVar="-1" Cut="0.0000000000000000e+00" cType="1" res="-9.9000000000000000e+01" rms="0.0000000000000000e+00" purity="4.3833184242248535e-01" nType="-1"/>
            </Node>
            <Node pos="r" depth="3" NCoef="0" IVar="-1" Cut="-9.0769073486328125e+02" cType="0" res="-9.9000000000000000e+01" rms="0.0000000000000000e+00" purity="4.1910156607627869e-01" nType="-1"/>
          </Node>
          <Node pos="r" depth="2" NCoef="0" IVar="-1" Cut="4.0489401726517826e-05" cType="0" res="-9.9000000000000000e+01" rms="0.0000000000000000e+00" purity="3.2865384221076965e-01" nType="-1"/>
        </Node>
      </Node>
    </BinaryTree>
    <BinaryTree type="DecisionTree" boostWeight="1.2302053919689045e-01" itree="25">
      <Node pos="s" depth="0" NCoef="0" IVar="6" Cut="1.6775379180908203e+00" cType="0" res="-9.9000000000000000e+01" rms="0.0000000000000000e+00" purity="4.8169240355491638e-01" nType="0">
        <Node pos="l" depth="1" NCoef="0" IVar="5" Cut="1.7178404959850013e-05" cType="1" res="-9.9000000000000000e+01" rms="0.0000000000000000e+00" purity="4.9962863326072693e-01" nType="0">
          <Node pos="l" depth="2" NCoef="0" IVar="8" Cut="2.2784433364868164e+00" cType="1" res="-9.9000000000000000e+01" rms="0.0000000000000000e+00" purity="5.1400637626647949e-01" nType="0">
            <Node pos="l" depth="3" NCoef="0" IVar="-1" Cut="1.4223873222363181e-05" cType="0" res="-9.9000000000000000e+01" rms="0.0000000000000000e+00" purity="6.0753059387207031e-01" nType="1"/>
            <Node pos="r" depth="3" NCoef="0" IVar="5" Cut="9.1255042207194492e-06" cType="1" res="-9.9000000000000000e+01" rms="0.0000000000000000e+00" purity="4.9274116754531860e-01" nType="0">
              <Node pos="l" depth="4" NCoef="0" IVar="-1" Cut="0.0000000000000000e+00" cType="1" res="-9.9000000000000000e+01" rms="0.0000000000000000e+00" purity="5.2407681941986084e-01" nType="1"/>
              <Node pos="r" depth="4" NCoef="0" IVar="-1" Cut="0.0000000000000000e+00" cType="1" res="-9.9000000000000000e+01" rms="0.0000000000000000e+00" purity="4.7024124860763550e-01" nType="-1"/>
            </Node>
          </Node>
          <Node pos="r" depth="2" NCoef="0" IVar="-1" Cut="0.0000000000000000e+00" cType="1" res="-9.9000000000000000e+01" rms="0.0000000000000000e+00" purity="3.8281917572021484e-01" nType="-1"/>
        </Node>
        <Node pos="r" depth="1" NCoef="0" IVar="6" Cut="1.5526430606842041e+00" cType="1" res="-9.9000000000000000e+01" rms="0.0000000000000000e+00" purity="4.1470968723297119e-01" nType="0">
          <Node pos="l" depth="2" NCoef="0" IVar="5" Cut="1.5520210581598803e-05" cType="0" res="-9.9000000000000000e+01" rms="0.0000000000000000e+00" purity="4.7486451268196106e-01" nType="0">
            <Node pos="l" depth="3" NCoef="0" IVar="-1" Cut="0.0000000000000000e+00" cType="1" res="-9.9000000000000000e+01" rms="0.0000000000000000e+00" purity="5.2205389738082886e-01" nType="1"/>
            <Node pos="r" depth="3" NCoef="0" IVar="-1" Cut="0.0000000000000000e+00" cType="1" res="-9.9000000000000000e+01" rms="0.0000000000000000e+00" purity="4.1512227058410645e-01" nType="-1"/>
          </Node>
          <Node pos="r" depth="2" NCoef="0" IVar="-1" Cut="0.0000000000000000e+00" cType="1" res="-9.9000000000000000e+01" rms="0.0000000000000000e+00" purity="3.0174577236175537e-01" nType="-1"/>
        </Node>
      </Node>
    </BinaryTree>
    <BinaryTree type="DecisionTree" boostWeight="1.9584275041539373e-01" itree="26">
      <Node pos="s" depth="0" NCoef="0" IVar="6" Cut="2.0826709270477295e+00" cType="0" res="-9.9000000000000000e+01" rms="0.0000000000000000e+00" purity="4.7495213150978088e-01" nType="0">
        <Node pos="l" depth="1" NCoef="0" IVar="11" Cut="3.6395900000000000e+05" cType="0" res="-9.9000000000000000e+01" rms="0.0000000000000000e+00" purity="5.1313602924346924e-01" nType="0">
          <Node pos="l" depth="2" NCoef="0" IVar="-1" Cut="0.0000000000000000e+00" cType="1" res="-9.9000000000000000e+01" rms="0.0000000000000000e+00" purity="5.7460027933120728e-01" nType="1"/>
          <Node pos="r" depth="2" NCoef="0" IVar="6" Cut="2.2670783996582031e+00" cType="1" res="-9.9000000000000000e+01" rms="0.0000000000000000e+00" purity="4.9590033292770386e-01" nType="0">
            <Node pos="l" depth="3" NCoef="0" IVar="-1" Cut="0.0000000000000000e+00" cType="1" res="-9.9000000000000000e+01" rms="0.0000000000000000e+00" purity="5.5725735425949097e-01" nType="1"/>
            <Node pos="r" depth="3" NCoef="0" IVar="-1" Cut="0.0000000000000000e+00" cType="1" res="-9.9000000000000000e+01" rms="0.0000000000000000e+00" purity="4.0735882520675659e-01" nType="-1"/>
          </Node>
        </Node>
        <Node pos="r" depth="1" NCoef="0" IVar="11" Cut="2.0032923437500000e+05" cType="1" res="-9.9000000000000000e+01" rms="0.0000000000000000e+00" purity="4.5297580957412720e-01" nType="0">
          <Node pos="l" depth="2" NCoef="0" IVar="5" Cut="1.3692947504750919e-05" cType="1" res="-9.9000000000000000e+01" rms="0.0000000000000000e+00" purity="4.8498836159706116e-01" nType="0">
            <Node pos="l" depth="3" NCoef="0" IVar="-1" Cut="0.0000000000000000e+00" cType="1" res="-9.9000000000000000e+01" rms="0.0000000000000000e+00" purity="5.5621159076690674e-01" nType="1"/>
            <Node pos="r" depth="3" NCoef="0" IVar="8" Cut="2.0690343379974365e+00" cType="1" res="-9.9000000000000000e+01" rms="0.0000000000000000e+00" purity="4.3827322125434875e-01" nType="0">
              <Node pos="l" depth="4" NCoef="0" IVar="-1" Cut="0.0000000000000000e+00" cType="1" res="-9.9000000000000000e+01" rms="0.0000000000000000e+00" purity="5.6529092788696289e-01" nType="1"/>
              <Node pos="r" depth="4" NCoef="0" IVar="-1" Cut="0.0000000000000000e+00" cType="1" res="-9.9000000000000000e+01" rms="0.0000000000000000e+00" purity="3.5247805714607239e-01" nType="-1"/>
            </Node>
          </Node>
          <Node pos="r" depth="2" NCoef="0" IVar="-1" Cut="0.0000000000000000e+00" cType="1" res="-9.9000000000000000e+01" rms="0.0000000000000000e+00" purity="2.9200077056884766e-01" nType="-1"/>
        </Node>
      </Node>
    </BinaryTree>
    <BinaryTree type="DecisionTree" boostWeight="1.5215783686147172e-01" itree="27">
      <Node pos="s" depth="0" NCoef="0" IVar="6" Cut="1.5122480392456055e+00" cType="0" res="-9.9000000000000000e+01" rms="0.0000000000000000e+00" purity="4.7906154394149780e-01" nType="0">
        <Node pos="l" depth="1" NCoef="0" IVar="11" Cut="2.9227259375000000e+05" cType="1" res="-9.9000000000000000e+01" rms="0.0000000000000000e+00" purity="4.9439632892608643e-01" nType="0">
          <Node pos="l" depth="2" NCoef="0" IVar="7" Cut="3.2775199413299561e+00" cType="0" res="-9.9000000000000000e+01" rms="0.0000000000000000e+00" purity="5.1533919572830200e-01" nType="0">
            <Node pos="l" depth="3" NCoef="0" IVar="-1" Cut="1.9781509637832642e+00" cType="1" res="-9.9000000000000000e+01" rms="0.0000000000000000e+00" purity="6.0625988245010376e-01" nType="1"/>
            <Node pos="r" depth="3" NCoef="0" IVar="7" Cut="2.1320891380310059e+00" cType="1" res="-9.9000000000000000e+01" rms="0.0000000000000000e+00" purity="4.9477890133857727e-01" nType="0">
              <Node pos="l" depth="4" NCoef="0" IVar="-1" Cut="0.0000000000000000e+00" cType="1" res="-9.9000000000000000e+01" rms="0.0000000000000000e+00" purity="5.4388129711151123e-01" nType="1"/>
              <Node pos="r" depth="4" NCoef="0" IVar="-1" Cut="0.0000000000000000e+00" cType="1" res="-9.9000000000000000e+01" rms="0.0000000000000000e+00" purity="4.5199969410896301e-01" nType="-1"/>
            </Node>
          </Node>
          <Node pos="r" depth="2" NCoef="0" IVar="-1" Cut="2.3928301334381104e+00" cType="0" res="-9.9000000000000000e+01" rms="0.0000000000000000e+00" purity="3.9222595095634460e-01" nType="-1"/>
        </Node>
        <Node pos="r" depth="1" NCoef="0" IVar="-1" Cut="0.0000000000000000e+00" cType="1" res="-9.9000000000000000e+01" rms="0.0000000000000000e+00" purity="3.3032557368278503e-01" nType="-1"/>
      </Node>
    </BinaryTree>
    <BinaryTree type="DecisionTree" boostWeight="1.6694297847717654e-01" itree="28">
      <Node pos="s" depth="0" NCoef="0" IVar="5" Cut="1.8118067600880750e-05" cType="1" res="-9.9000000000000000e+01" rms="0.0000000000000000e+00" purity="4.8001956939697266e-01" nType="0">
        <Node pos="l" depth="1" NCoef="0" IVar="1" Cut="6.9433655880857259e-05" cType="0" res="-9.9000000000000000e+01" rms="0.0000000000000000e+00" purity="4.9474364519119263e-01" nType="0">
          <Node pos="l" depth="2" NCoef="0" IVar="0" Cut="1.0538933753967285e+01" cType="1" res="-9.9000000000000000e+01" rms="0.0000000000000000e+00" purity="5.3997099399566650e-01" nType="0">
            <Node pos="l" depth="3" NCoef="0" IVar="-1" Cut="0.0000000000000000e+00" cType="1" res="-9.9000000000000000e+01" rms="0.0000000000000000e+00" purity="5.6620347499847412e-01" nType="1"/>
            <Node pos="r" depth="3" NCoef="0" IVar="-1" Cut="0.0000000000000000e+00" cType="1" res="-9.9000000000000000e+01" rms="0.0000000000000000e+00" purity="3.9064002037048340e-01" nType="-1"/>
          </Node>
          <Node pos="r" depth="2" NCoef="0" IVar="6" Cut="1.7598693370819092e+00" cType="0" res="-9.9000000000000000e+01" rms="0.0000000000000000e+00" purity="4.6170341968536377e-01" nType="0">
            <Node pos="l" depth="3" NCoef="0" IVar="12" Cut="3.5714286565780640e-01" cType="0" res="-9.9000000000000000e+01" rms="0.0000000000000000e+00" purity="4.9323922395706177e-01" nType="0">
              <Node pos="l" depth="4" NCoef="0" IVar="-1" Cut="0.0000000000000000e+00" cType="1" res="-9.9000000000000000e+01" rms="0.0000000000000000e+00" purity="5.3665792942047119e-01" nType="1"/>
              <Node pos="r" depth="4" NCoef="0" IVar="-1" Cut="0.0000000000000000e+00" cType="1" res="-9.9000000000000000e+01" rms="0.0000000000000000e+00" purity="4.2903146147727966e-01" nType="-1"/>
            </Node>
            <Node pos="r" depth="3" NCoef="0" IVar="-1" Cut="0.0000000000000000e+00" cType="1" res="-9.9000000000000000e+01" rms="0.0000000000000000e+00" purity="2.1968275308609009e-01" nType="-1"/>
          </Node>
        </Node>
        <Node pos="r" depth="1" NCoef="0" IVar="-1" Cut="0.0000000000000000e+00" cType="1" res="-9.9000000000000000e+01" rms="0.0000000000000000e+00" purity="3.5139033198356628e-01" nType="-1"/>
      </Node>
    </BinaryTree>
    <BinaryTree type="DecisionTree" boostWeight="1.7659023028942342e-01" itree="29">
      <Node pos="s" depth="0" NCoef="0" IVar="5" Cut="1.3417337868304458e-05" cType="0" res="-9.9000000000000000e+01" rms="0.0000000000000000e+00" purity="4.5835518836975098e-01" nType="0">
        <Node pos="l" depth="1" NCoef="0" IVar="5" Cut="1.6551082808291540e-05" cType="1" res="-9.9000000000000000e+01" rms="0.0000000000000000e+00" purity="4.9329736828804016e-01" nType="0">
          <Node pos="l" depth="2" NCoef="0" IVar="8" Cut="2.0955669879913330e+00" cType="0" res="-9.9000000000000000e+01" rms="0.0000000000000000e+00" purity="5.5771374702453613e-01" nType="0">
            <Node pos="l" depth="3" NCoef="0" IVar="-1" Cut="0.0000000000000000e+00" cType="1" res="-9.9000000000000000e+01" rms="0.0000000000000000e+00" purity="5.8704274892807007e-01" nType="1"/>
            <Node pos="r" depth="3" NCoef="0" IVar="-1" Cut="0.0000000000000000e+00" cType="1" res="-9.9000000000000000e+01" rms="0.0000000000000000e+00" purity="4.7413140535354614e-01" nType="-1"/>
          </Node>
          <Node pos="r" depth="2" NCoef="0" IVar="8" Cut="2.0876469612121582e+00" cType="1" res="-9.9000000000000000e+01" rms="0.0000000000000000e+00" purity="4.2413312196731567e-01" nType="0">
            <Node pos="l" depth="3" NCoef="0" IVar="-1" Cut="0.0000000000000000e+00" cType="1" res="-9.9000000000000000e+01" rms="0.0000000000000000e+00" purity="5.2866417169570923e-01" nType="1"/>
            <Node pos="r" depth="3" NCoef="0" IVar="-1" Cut="0.0000000000000000e+00" cType="1" res="-9.9000000000000000e+01" rms="0.0000000000000000e+00" purity="3.1007394194602966e-01" nType="-1"/>
          </Node>
        </Node>
        <Node pos="r" depth="1" NCoef="0" IVar="6" Cut="2.1687641143798828e+00" cType="0" res="-9.9000000000000000e+01" rms="0.0000000000000000e+00" purity="4.3202584981918335e-01" nType="0">
          <Node pos="l" depth="2" NCoef="0" IVar="1" Cut="4.7864410589681938e-05" cType="1" res="-9.9000000000000000e+01" rms="0.0000000000000000e+00" purity="4.9015331268310547e-01" nType="0">
            <Node pos="l" depth="3" NCoef="0" IVar="-1" Cut="0.0000000000000000e+00" cType="1" res="-9.9000000000000000e+01" rms="0.0000000000000000e+00" purity="5.6404346227645874e-01" nType="1"/>
            <Node pos="r" depth="3" NCoef="0" IVar="5" Cut="6.7484552346286364e-06" cType="1" res="-9.9000000000000000e+01" rms="0.0000000000000000e+00" purity="4.5687803626060486e-01" nType="0">
              <Node pos="l" depth="4" NCoef="0" IVar="-1" Cut="0.0000000000000000e+00" cType="1" res="-9.9000000000000000e+01" rms="0.0000000000000000e+00" purity="5.0560915470123291e-01" nType="1"/>
              <Node pos="r" depth="4" NCoef="0" IVar="-1" Cut="0.0000000000000000e+00" cType="1" res="-9.9000000000000000e+01" rms="0.0000000000000000e+00" purity="4.2314413189888000e-01" nType="-1"/>
            </Node>
          </Node>
          <Node pos="r" depth="2" NCoef="0" IVar="-1" Cut="2.1635441780090332e+00" cType="0" res="-9.9000000000000000e+01" rms="0.0000000000000000e+00" purity="3.8559651374816895e-01" nType="-1"/>
        </Node>
      </Node>
    </BinaryTree>
    <BinaryTree type="DecisionTree" boostWeight="1.6004486851833866e-01" itree="30">
      <Node pos="s" depth="0" NCoef="0" IVar="6" Cut="2.2552976608276367e+00" cType="0" res="-9.9000000000000000e+01" rms="0.0000000000000000e+00" purity="4.5031487941741943e-01" nType="0">
        <Node pos="l" depth="1" NCoef="0" IVar="1" Cut="5.0987724534934387e-05" cType="0" res="-9.9000000000000000e+01" rms="0.0000000000000000e+00" purity="5.1743292808532715e-01" nType="0">
          <Node pos="l" depth="2" NCoef="0" IVar="-1" Cut="0.0000000000000000e+00" cType="1" res="-9.9000000000000000e+01" rms="0.0000000000000000e+00" purity="5.4622882604598999e-01" nType="1"/>
          <Node pos="r" depth="2" NCoef="0" IVar="-1" Cut="0.0000000000000000e+00" cType="1" res="-9.9000000000000000e+01" rms="0.0000000000000000e+00" purity="4.8116463422775269e-01" nType="-1"/>
        </Node>
        <Node pos="r" depth="1" NCoef="0" IVar="1" Cut="6.3343628426082432e-05" cType="0" res="-9.9000000000000000e+01" rms="0.0000000000000000e+00" purity="4.3279865384101868e-01" nType="0">
          <Node pos="l" depth="2" NCoef="0" IVar="2" Cut="1.2843882812500000e+05" cType="0" res="-9.9000000000000000e+01" rms="0.0000000000000000e+00" purity="4.6106573939323425e-01" nType="0">
            <Node pos="l" depth="3" NCoef="0" IVar="6" Cut="1.6515132188796997e+00" cType="0" res="-9.9000000000000000e+01" rms="0.0000000000000000e+00" purity="5.1013064384460449e-01" nType="0">
              <Node pos="l" depth="4" NCoef="0" IVar="-1" Cut="0.0000000000000000e+00" cType="1" res="-9.9000000000000000e+01" rms="0.0000000000000000e+00" purity="5.5949485301971436e-01" nType="1"/>
              <Node pos="r" depth="4" NCoef="0" IVar="-1" Cut="0.0000000000000000e+00" cType="1" res="-9.9000000000000000e+01" rms="0.0000000000000000e+00" purity="3.6636704206466675e-01" nType="-1"/>
            </Node>
            <Node pos="r" depth="3" NCoef="0" IVar="-1" Cut="0.0000000000000000e+00" cType="1" res="-9.9000000000000000e+01" rms="0.0000000000000000e+00" purity="4.3135097622871399e-01" nType="-1"/>
          </Node>
          <Node pos="r" depth="2" NCoef="0" IVar="-1" Cut="1.8672870397567749e+00" cType="0" res="-9.9000000000000000e+01" rms="0.0000000000000000e+00" purity="3.6121454834938049e-01" nType="-1"/>
        </Node>
      </Node>
    </BinaryTree>
    <BinaryTree type="DecisionTree" boostWeight="1.4087292726081563e-01" itree="31">
      <Node pos="s" depth="0" NCoef="0" IVar="10" Cut="-9.5142858886718750e+02" cType="0" res="-9.9000000000000000e+01" rms="0.0000000000000000e+00" purity="4.8444357514381409e-01" nType="0">
        <Node pos="l" depth="1" NCoef="0" IVar="5" Cut="1.1525398804224096e-05" cType="0" res="-9.9000000000000000e+01" rms="0.0000000000000000e+00" purity="5.5329501628875732e-01" nType="0">
          <Node pos="l" depth="2" NCoef="0" IVar="-1" Cut="0.0000000000000000e+00" cType="1" res="-9.9000000000000000e+01" rms="0.0000000000000000e+00" purity="6.3865536451339722e-01" nType="1"/>
          <Node pos="r" depth="2" NCoef="0" IVar="-1" Cut="0.0000000000000000e+00" cType="1" res="-9.9000000000000000e+01" rms="0.0000000000000000e+00" purity="4.4359114766120911e-01" nType="-1"/>
        </Node>
        <Node pos="r" depth="1" NCoef="0" IVar="5" Cut="1.7184334865305573e-05" cType="1" res="-9.9000000000000000e+01" rms="0.0000000000000000e+00" purity="4.6503204107284546e-01" nType="0">
          <Node pos="l" depth="2" NCoef="0" IVar="5" Cut="1.3161891729396302e-05" cType="0" res="-9.9000000000000000e+01" rms="0.0000000000000000e+00" purity="4.7558775544166565e-01" nType="0">
            <Node pos="l" depth="3" NCoef="0" IVar="6" Cut="1.8118659257888794e+00" cType="1" res="-9.9000000000000000e+01" rms="0.0000000000000000e+00" purity="5.1033127307891846e-01" nType="0">
              <Node pos="l" depth="4" NCoef="0" IVar="-1" Cut="0.0000000000000000e+00" cType="1" res="-9.9000000000000000e+01" rms="0.0000000000000000e+00" purity="5.7509475946426392e-01" nType="1"/>
              <Node pos="r" depth="4" NCoef="0" IVar="-1" Cut="0.0000000000000000e+00" cType="1" res="-9.9000000000000000e+01" rms="0.0000000000000000e+00" purity="4.2894288897514343e-01" nType="-1"/>
            </Node>
            <Node pos="r" depth="3" NCoef="0" IVar="-1" Cut="1.8443731069564819e+00" cType="0" res="-9.9000000000000000e+01" rms="0.0000000000000000e+00" purity="4.5627179741859436e-01" nType="-1"/>
          </Node>
          <Node pos="r" depth="2" NCoef="0" IVar="-1" Cut="0.0000000000000000e+00" cType="1" res="-9.9000000000000000e+01" rms="0.0000000000000000e+00" purity="3.9854407310485840e-01" nType="-1"/>
        </Node>
      </Node>
    </BinaryTree>
    <BinaryTree type="DecisionTree" boostWeight="1.4883175552442945e-01" itree="32">
      <Node pos="s" depth="0" NCoef="0" IVar="6" Cut="1.5933971405029297e+00" cType="0" res="-9.9000000000000000e+01" rms="0.0000000000000000e+00" purity="4.9320051074028015e-01" nType="0">
        <Node pos="l" depth="1" NCoef="0" IVar="5" Cut="8.7157741290866397e-06" cType="0" res="-9.9000000000000000e+01" rms="0.0000000000000000e+00" purity="5.0894856452941895e-01" nType="0">
          <Node pos="l" depth="2" NCoef="0" IVar="6" Cut="2.1624979972839355e+00" cType="0" res="-9.9000000000000000e+01" rms="0.0000000000000000e+00" purity="5.3375560045242310e-01" nType="0">
            <Node pos="l" depth="3" NCoef="0" IVar="-1" Cut="1.1937312592635863e-05" cType="0" res="-9.9000000000000000e+01" rms="0.0000000000000000e+00" purity="6.0419315099716187e-01" nType="1"/>
            <Node pos="r" depth="3" NCoef="0" IVar="10" Cut="-9.5142858886718750e+02" cType="1" res="-9.9000000000000000e+01" rms="0.0000000000000000e+00" purity="5.1356136798858643e-01" nType="0">
              <Node pos="l" depth="4" NCoef="0" IVar="-1" Cut="0.0000000000000000e+00" cType="1" res="-9.9000000000000000e+01" rms="0.0000000000000000e+00" purity="5.3835260868072510e-01" nType="1"/>
              <Node pos="r" depth="4" NCoef="0" IVar="-1" Cut="0.0000000000000000e+00" cType="1" res="-9.9000000000000000e+01" rms="0.0000000000000000e+00" purity="4.0211436152458191e-01" nType="-1"/>
            </Node>
          </Node>
          <Node pos="r" depth="2" NCoef="0" IVar="1" Cut="6.2962855736259371e-05" cType="0" res="-9.9000000000000000e+01" rms="0.0000000000000000e+00" purity="4.3832415342330933e-01" nType="0">
            <Node pos="l" depth="3" NCoef="0" IVar="-1" Cut="0.0000000000000000e+00" cType="1" res="-9.9000000000000000e+01" rms="0.0000000000000000e+00" purity="5.4414433240890503e-01" nType="1"/>
            <Node pos="r" depth="3" NCoef="0" IVar="-1" Cut="6.2991757658892311e-06" cType="1" res="-9.9000000000000000e+01" rms="0.0000000000000000e+00" purity="3.6352527141571045e-01" nType="-1"/>
          </Node>
        </Node>
        <Node pos="r" depth="1" NCoef="0" IVar="-1" Cut="1.6417867300333455e-05" cType="0" res="-9.9000000000000000e+01" rms="0.0000000000000000e+00" purity="4.1121998429298401e-01" nType="-1"/>
      </Node>
    </BinaryTree>
    <BinaryTree type="DecisionTree" boostWeight="1.4005681469605658e-01" itree="33">
      <Node pos="s" depth="0" NCoef="0" IVar="1" Cut="5.2742158004548401e-05" cType="0" res="-9.9000000000000000e+01" rms="0.0000000000000000e+00" purity="4.7273874282836914e-01" nType="0">
        <Node pos="l" depth="1" NCoef="0" IVar="5" Cut="8.2127717178082094e-06" cType="0" res="-9.9000000000000000e+01" rms="0.0000000000000000e+00" purity="4.9120420217514038e-01" nType="0">
          <Node pos="l" depth="2" NCoef="0" IVar="1" Cut="6.2930375861469656e-05" cType="1" res="-9.9000000000000000e+01" rms="0.0000000000000000e+00" purity="5.0585776567459106e-01" nType="0">
            <Node pos="l" depth="3" NCoef="0" IVar="1" Cut="5.8079465816263109e-05" cType="0" res="-9.9000000000000000e+01" rms="0.0000000000000000e+00" purity="5.6265062093734741e-01" nType="0">
              <Node pos="l" depth="4" NCoef="0" IVar="-1" Cut="0.0000000000000000e+00" cType="1" res="-9.9000000000000000e+01" rms="0.0000000000000000e+00" purity="6.3570743799209595e-01" nType="1"/>
              <Node pos="r" depth="4" NCoef="0" IVar="-1" Cut="0.0000000000000000e+00" cType="1" res="-9.9000000000000000e+01" rms="0.0000000000000000e+00" purity="4.6465712785720825e-01" nType="-1"/>
            </Node>
            <Node pos="r" depth="3" NCoef="0" IVar="11" Cut="1.5339098437500000e+05" cType="1" res="-9.9000000000000000e+01" rms="0.0000000000000000e+00" purity="4.8624253273010254e-01" nType="0">
              <Node pos="l" depth="4" NCoef="0" IVar="-1" Cut="0.0000000000000000e+00" cType="1" res="-9.9000000000000000e+01" rms="0.0000000000000000e+00" purity="5.2872145175933838e-01" nType="1"/>
              <Node pos="r" depth="4" NCoef="0" IVar="-1" Cut="0.0000000000000000e+00" cType="1" res="-9.9000000000000000e+01" rms="0.0000000000000000e+00" purity="4.4873273372650146e-01" nType="-1"/>
            </Node>
          </Node>
          <Node pos="r" depth="2" NCoef="0" IVar="-1" Cut="6.4462808950338513e-05" cType="1" res="-9.9000000000000000e+01" rms="0.0000000000000000e+00" purity="4.1038313508033752e-01" nType="-1"/>
        </Node>
        <Node pos="r" depth="1" NCoef="0" IVar="-1" Cut="1.0595271305646747e-05" cType="0" res="-9.9000000000000000e+01" rms="0.0000000000000000e+00" purity="3.8002008199691772e-01" nType="-1"/>
      </Node>
    </BinaryTree>
    <BinaryTree type="DecisionTree" boostWeight="1.3813468786408137e-01" itree="34">
      <Node pos="s" depth="0" NCoef="0" IVar="6" Cut="1.7598050832748413e+00" cType="0" res="-9.9000000000000000e+01" rms="0.0000000000000000e+00" purity="4.9420174956321716e-01" nType="0">
        <Node pos="l" depth="1" NCoef="0" IVar="5" Cut="6.8373715294001158e-06" cType="0" res="-9.9000000000000000e+01" rms="0.0000000000000000e+00" purity="5.2916705608367920e-01" nType="0">
          <Node pos="l" depth="2" NCoef="0" IVar="-1" Cut="9.4374170303344727e+00" cType="0" res="-9.9000000000000000e+01" rms="0.0000000000000000e+00" purity="5.4611903429031372e-01" nType="1"/>
          <Node pos="r" depth="2" NCoef="0" IVar="-1" Cut="2.4467566013336182e+00" cType="0" res="-9.9000000000000000e+01" rms="0.0000000000000000e+00" purity="4.3538734316825867e-01" nType="-1"/>
        </Node>
        <Node pos="r" depth="1" NCoef="0" IVar="6" Cut="1.4475916624069214e+00" cType="1" res="-9.9000000000000000e+01" rms="0.0000000000000000e+00" purity="4.0610408782958984e-01" nType="0">
          <Node pos="l" depth="2" NCoef="0" IVar="-1" Cut="0.0000000000000000e+00" cType="1" res="-9.9000000000000000e+01" rms="0.0000000000000000e+00" purity="5.5240744352340698e-01" nType="1"/>
          <Node pos="r" depth="2" NCoef="0" IVar="-1" Cut="7.0983420300763100e-05" cType="0" res="-9.9000000000000000e+01" rms="0.0000000000000000e+00" purity="3.6189299821853638e-01" nType="-1"/>
        </Node>
      </Node>
    </BinaryTree>
    <BinaryTree type="DecisionTree" boostWeight="1.5109508170222313e-01" itree="35">
      <Node pos="s" depth="0" NCoef="0" IVar="8" Cut="2.3173985481262207e+00" cType="0" res="-9.9000000000000000e+01" rms="0.0000000000000000e+00" purity="4.8726883530616760e-01" nType="0">
        <Node pos="l" depth="1" NCoef="0" IVar="8" Cut="2.3956327438354492e+00" cType="1" res="-9.9000000000000000e+01" rms="0.0000000000000000e+00" purity="5.2051264047622681e-01" nType="0">
          <Node pos="l" depth="2" NCoef="0" IVar="-1" Cut="0.0000000000000000e+00" cType="1" res="-9.9000000000000000e+01" rms="0.0000000000000000e+00" purity="6.2058860063552856e-01" nType="1"/>
          <Node pos="r" depth="2" NCoef="0" IVar="1" Cut="4.4399508624337614e-05" cType="1" res="-9.9000000000000000e+01" rms="0.0000000000000000e+00" purity="4.9342170357704163e-01" nType="0">
            <Node pos="l" depth="3" NCoef="0" IVar="-1" Cut="0.0000000000000000e+00" cType="1" res="-9.9000000000000000e+01" rms="0.0000000000000000e+00" purity="6.0908883810043335e-01" nType="1"/>
            <Node pos="r" depth="3" NCoef="0" IVar="0" Cut="9.6678409576416016e+00" cType="0" res="-9.9000000000000000e+01" rms="0.0000000000000000e+00" purity="4.7149300575256348e-01" nType="0">
              <Node pos="l" depth="4" NCoef="0" IVar="-1" Cut="0.0000000000000000e+00" cType="1" res="-9.9000000000000000e+01" rms="0.0000000000000000e+00" purity="5.2066397666931152e-01" nType="1"/>
              <Node pos="r" depth="4" NCoef="0" IVar="-1" Cut="0.0000000000000000e+00" cType="1" res="-9.9000000000000000e+01" rms="0.0000000000000000e+00" purity="4.2984864115715027e-01" nType="-1"/>
            </Node>
          </Node>
        </Node>
        <Node pos="r" depth="1" NCoef="0" IVar="1" Cut="5.8035177062265575e-05" cType="0" res="-9.9000000000000000e+01" rms="0.0000000000000000e+00" purity="4.4388499855995178e-01" nType="0">
          <Node pos="l" depth="2" NCoef="0" IVar="8" Cut="1.9267734289169312e+00" cType="1" res="-9.9000000000000000e+01" rms="0.0000000000000000e+00" purity="4.6991077065467834e-01" nType="0">
            <Node pos="l" depth="3" NCoef="0" IVar="-1" Cut="0.0000000000000000e+00" cType="1" res="-9.9000000000000000e+01" rms="0.0000000000000000e+00" purity="5.8795005083084106e-01" nType="1"/>
            <Node pos="r" depth="3" NCoef="0" IVar="-1" Cut="1.5688725709915161e+00" cType="0" res="-9.9000000000000000e+01" rms="0.0000000000000000e+00" purity="4.4650989770889282e-01" nType="-1"/>
          </Node>
          <Node pos="r" depth="2" NCoef="0" IVar="-1" Cut="0.0000000000000000e+00" cType="1" res="-9.9000000000000000e+01" rms="0.0000000000000000e+00" purity="3.1027001142501831e-01" nType="-1"/>
        </Node>
      </Node>
    </BinaryTree>
    <BinaryTree type="DecisionTree" boostWeight="9.5526248855388698e-02" itree="36">
      <Node pos="s" depth="0" NCoef="0" IVar="1" Cut="4.7503013774985448e-05" cType="1" res="-9.9000000000000000e+01" rms="0.0000000000000000e+00" purity="4.8026642203330994e-01" nType="0">
        <Node pos="l" depth="1" NCoef="0" IVar="11" Cut="3.3644646875000000e+05" cType="1" res="-9.9000000000000000e+01" rms="0.0000000000000000e+00" purity="5.4378503561019897e-01" nType="0">
          <Node pos="l" depth="2" NCoef="0" IVar="-1" Cut="0.0000000000000000e+00" cType="1" res="-9.9000000000000000e+01" rms="0.0000000000000000e+00" purity="6.5474128723144531e-01" nType="1"/>
          <Node pos="r" depth="2" NCoef="0" IVar="-1" Cut="0.0000000000000000e+00" cType="1" res="-9.9000000000000000e+01" rms="0.0000000000000000e+00" purity="4.0930801630020142e-01" nType="-1"/>
        </Node>
        <Node pos="r" depth="1" NCoef="0" IVar="5" Cut="6.2140738918969873e-06" cType="0" res="-9.9000000000000000e+01" rms="0.0000000000000000e+00" purity="4.7138354182243347e-01" nType="0">
          <Node pos="l" depth="2" NCoef="0" IVar="0" Cut="1.2247566223144531e+01" cType="1" res="-9.9000000000000000e+01" rms="0.0000000000000000e+00" purity="4.7857359051704407e-01" nType="0">
            <Node pos="l" depth="3" NCoef="0" IVar="0" Cut="8.5002927780151367e+00" cType="0" res="-9.9000000000000000e+01" rms="0.0000000000000000e+00" purity="4.8566466569900513e-01" nType="0">
              <Node pos="l" depth="4" NCoef="0" IVar="-1" Cut="0.0000000000000000e+00" cType="1" res="-9.9000000000000000e+01" rms="0.0000000000000000e+00" purity="5.0630825757980347e-01" nType="1"/>
